5000 10
-1.3083048373383832 0.2523606308094436 -0.338641969116775 -0.7565664714246346 -0.4187493861026607 0.34577823643524525 -0.07512332837568275 -0.03736670796339932 0.485008026117581 0.12120596617275706 -1.725117679372814
0.6990076783953239 0.29572051658355547 -0.5867931177885342 0.02315107792528981 0.6773896990561068 -1.4682903826627207 1.8460209206907616 0.33498532348212934 -0.7809079709198604 -1.4930812570812197 -12.480078658159751
0.8167757086868378 0.7627014009601608 0.6815603034790506 0.23667554729586035 0.20757990312623315 -0.07102060786042469 -1.0224833062821892 0.9015606493555245 -0.16897151161263751 0.8230431190133386 12.32980246209326
-0.11370305052626856 -0.5206279112936506 -0.6429863720285762 -0.29627554837004455 -1.1296565581786329 0.7132551229662321 0.0701318092477425 0.3190015093834597 1.2556746408900095 -0.054860883709486157 7.8333294773786735
-0.011236882316758503 0.9708708212986684 0.7450981643411212 1.632835365290117 0.85390782344974 0.6671291453184791 2.537224007799238 0.7294003790967083 0.628133144054469 1.4688790277793735 63.03402938073143
0.7834277195860415 0.19200313652620793 -0.14065214183878333 0.43212641179795136 -0.9337049553614979 -0.22075660268038125 -0.8610903405921958 1.553581466137033 0.9995417086318092 2.033888188632327 32.26128698758454
1.2652991228769783 0.17747879087951796 -1.2700236266028202 -0.9599419148004986 0.2637710937032084 -0.5410221415898016 -0.21698992353942212 -1.879532673306671 -1.6187700750876284 -0.20912012570619554 -41.664849037069004
0.4673897225545953 0.575983356882874 0.41922615530320795 0.20842972381081784 -0.6755096705875074 0.7292720393807974 -0.6506930708337529 0.9313011474715862 -0.9934166181775516 -0.08322082516856905 -0.19878905184848594
0.8863463993841303 -0.6349320233754925 -1.2781401805729238 0.6003849829020794 -0.9417292425794773 0.4405565714314287 -0.29513638636896306 -0.33801820477809363 0.029509960041484713 -1.6785885545063493 -23.844974606027602
1.4141469812857785 -0.45778945128010523 0.17174804080790826 -0.39445716252573426 1.3595722630842977 -0.4910928526147808 -1.4449185431834224 1.1536986757540604 0.3556222687403521 0.08400249075876103 7.630103082990079
2.904897501970119 0.16543570901829271 0.3863728005067948 -0.2918907995675512 0.6857404029667036 1.2474425630860035 0.3780265094250738 -0.5595908902310234 0.4078431991860485 -1.2671266866838518 3.622824892006708
0.07862065376800233 1.9062543277005226 -0.13137117825886296 0.32341399815800626 0.11216079728233319 0.38371180747802114 0.5538391811342028 0.8684624079736027 -0.16016341989669633 0.49525906390932833 21.291809052260447
-0.7257546292790501 -1.186371844705554 -0.3396887788384231 0.8080414872301462 -2.319466841675722 0.8416760750928916 -0.6784394039295826 -0.09143394341767762 -0.24168116834616882 1.0043831163541734 -4.19320359366173
-0.33453189597961097 -0.05230484991937265 -0.11485404591826001 0.15782569014083586 0.45750712601780996 -0.6252964283909853 0.604495163553476 -0.22924495470244183 -1.3087756410925642 -0.8824666781773928 -19.25098979620757
1.4389335695351515 0.2050887465422712 1.1992661657204264 -0.261790298966334 1.944550146720067 0.08266306093183966 -0.4376810104512359 -0.4148339890942309 0.7099890751568854 0.06379312139635543 14.157632640983234
-0.7951180632009466 0.6767660958365252 0.6376475251495748 -0.3040603788956068 0.5964201830242951 -0.2659446418039995 -0.7807622852587018 -1.502277263611075 0.6364882016394148 1.2204576143022363 4.009357088406423
1.2729783568536892 0.7658016616667793 -0.14053004792785062 -0.33995914753954376 1.6374936479054885 -0.5972406053433522 -0.7569786436700553 0.538999207553875 -1.0112153326886317 -2.2984742950048993 -25.660858394906704
0.6921706870631678 -0.17270400983431247 2.3941247423208765 0.6017127361555291 0.3696909474977133 -1.226013418039965 0.533984515341193 0.8442350427677547 0.1417428232490445 1.312566580895042 29.643412194677264
-0.619952951910784 -0.7857586598800255 -0.5468565967014509 0.5180507916325024 1.7799174349045699 0.1249475180321435 -1.2438674344346925 -0.06744172310154647 -1.9653563560512 -0.9106133878723193 -28.06481094609392
-0.29246394641714757 -0.6215873365660166 0.17864255744623678 -0.44399070582447797 0.6372092140807337 -0.7158581202544675 1.6369353063812213 1.1253528616003756 -0.22977719077911662 0.030891600800718757 14.048947786394393
-1.149089793803807 0.5805612301590707 -1.810231929759961 0.3582808488030847 -0.12488904523007147 -0.10717789416898595 0.9166838174679295 -0.2516766875233337 0.3408719834883579 -0.013719873881083566 0.48346480067451314
0.7263690140190464 -0.02175096941625192 -0.5848049796636889 -0.8218911843968857 -0.47472068873344964 -2.9553660450682844 0.2663908664151298 -0.5629860810358686 -0.43473594806283905 -0.3035924560055165 -33.77394701642989
0.08065128971023383 -0.11527318794308095 2.114718197884185 0.292893235156096 -0.1737237119138283 0.47595414705740274 0.020390478109894215 -0.227522617428128 0.236217090453902 -0.8432373053554891 1.0291151132427352
-1.77597235524676 -0.30965688070870195 -1.8854753153406258 1.1899222063204158 -1.8332511577027688 0.680969987875753 1.0939927988488283 0.3407964858280972 -0.4337782008670236 -0.8518586731595266 -9.908480890883503
0.04333099387610949 -0.4171145755116809 0.14168926432136345 0.6468320205498043 0.30705657232452993 -1.7304457260614445 0.014638915418194256 1.4422471065642661 -0.12297786581222037 1.131029982973012 15.731390396008308
-0.7258100420104076 1.9580007448577228 0.4711444100057699 -1.5069854519044477 0.6936910197870766 -0.7714354561564706 0.3312518258608306 -0.020589620592731186 -0.34550097761572224 1.268084072991923 8.493045651257994
-0.04737767941079079 1.6303051785048668 -0.8094263618093628 0.3159668121737702 -0.1151263463479197 0.5559084835414897 0.6554983227298462 0.24052637978643868 0.4441207690073173 -0.2114583945309654 13.65164488149009
-0.2649714337088895 0.20172979508444258 -0.2367890174679857 0.5366591934439131 1.1916290882391705 -0.6442551520620697 0.45976043413152157 1.383174475051369 1.2041986797578779 1.6046048569314388 46.11138177376358
0.39293717358333646 1.8522148449204574 0.32990825849983 0.24441367305605785 1.5366329611942313 -1.3129811438222556 0.6497498319330207 0.3706077712990364 -0.7063788554324238 -1.1729386986906316 -5.741346556696236
0.01795317191892723 0.09463684018053185 -1.3002685289824727 -0.006040805012835875 -0.21570521675974264 1.0721838553348528 0.5772278758355143 -1.837478278933382 -2.5307841253845766 -2.8613205848028334 -59.23113593776487
-1.0597645389019374 -0.24296830946730077 -0.29391237582920476 -0.3631707372883789 0.26369243293041833 0.6029795396141787 1.3524486853469304 -1.138234952487312 -0.608362846647244 -0.22434486280970875 -6.3605257960858665
1.0994473626916403 -1.4583153379403186 -0.16595731993561644 -1.0218628747654883 -1.360410641109155 0.2809974343427672 -0.17413319863173432 -0.36835753387046766 -0.2606353553555892 -1.7260383318836139 -33.577574157386266
-0.2567956724736188 1.0100885375058024 -1.4855737242630518 -0.6720401383717104 0.4114118543071615 -0.764124331173121 0.6144602656684389 -1.6533610954289044 -0.799316637802013 0.7531477291149297 -16.203633269596608
-0.014283294188452623 -1.0068900694206593 -1.3971160704962666 -0.14402599786133993 0.5655364009964894 -2.0062534710653877 1.7352199112105349 0.24753309254170375 -0.4153489017513917 -0.7176002182729605 -13.233116781338197
0.17023823622284226 0.6042304267155177 1.3646190472132371 1.5713320015483165 1.1236709115264665 -0.3447599014807534 -2.1726730579085944 -1.6284286723967902 1.53290760467993 2.5119281050253965 26.40324358931985
0.4982022483959172 -1.2902367472302225 0.9585349873780503 1.2187957434676144 1.173808279198279 1.1212154229558402 -2.3563699105451326 -0.7421703113830694 1.01743208914074 0.6844059444574935 11.991986689806673
0.05141964456367412 0.49773466675026545 -0.9972682339816867 -0.3565143484788837 0.37893608440254806 -0.4230415714601499 0.26591070046626 -0.3443627625076337 -1.7656775708837298 -0.39398132872567143 -23.5538656318869
0.44684976927827375 -0.857561675430095 -0.5444065558833049 0.17340691496213428 -1.6883753126497287 0.8288644967437219 1.825822732580026 0.709044253777523 1.5808242458341013 -0.3020201692775287 24.62066271257586
2.4352919507546322 -0.7317116247467169 -0.6415284095733038 -0.8415700363268792 0.3036119360205467 -2.3475101669263445 -0.9378038063261279 -1.4640615424532406 -1.3027091040706276 0.24675675090856916 -45.240816812526795
-0.1333646800244984 0.7262214802555655 0.31432759576529984 -0.7746883495921979 2.2296061946560775 2.444927522233134 0.7648282691655589 2.349065085443802 1.3764184041179208 2.2703397510904346 82.83738986602873
0.8465608830407191 -0.7176391846671383 -0.12244587996640895 0.06818993695401988 0.5112718869935327 -0.27374829198426337 -0.7376508721836409 0.4530428950759673 0.347730445719323 1.8889596184463686 22.36252184992812
-1.2994498188106065 1.2637086433859035 -0.4530886295211108 0.15943799653333515 -0.6880716798056552 -0.14678551380763327 -0.07544632424703858 -0.012556715490029369 -1.7905106524656889 -1.3927386635090013 -35.05283794741764
1.8024043820033742 -2.111714384492774 -1.3772343757545449 0.9363828432106376 0.07999680470787558 -1.5885410814940442 0.9935891399042429 0.5856425827452759 0.7826986036487139 0.07733133806353375 8.425690004246118
-1.0276863944368324 -1.40861308746856 -3.9221353575523894 -0.5866919720037965 1.337561216625139 -0.26132902207845143 -0.2918084491484169 1.2353037885787974 0.08992355707598167 -0.16114684344620664 -3.6020621048082826
-0.7907975309476835 0.22213415571865386 1.100665713971282 0.017806700759286594 -0.5273039134371968 -1.2559973034235397 -0.5007402626343799 0.626562807807638 -0.46335550063190106 -0.3560319342388307 -13.555199521656096
-1.5191378047671784 -1.4278318225701185 -1.4109170981340324 -1.0722838638856067 -0.21009977205140445 0.32674206896837366 0.8511951780115384 -0.16166539252740583 0.40371474815215364 -0.2061089245423161 -5.750726502429455
-1.001216533865679 0.9746957358369245 1.0264279142250918 0.4286035362497434 -2.4303955195339424 0.9897703567168601 -0.8576528442397332 0.7534819977381477 0.7368412398030809 0.18946701818856165 11.348116878109092
-1.8931211223722768 -0.8637258217845847 -0.6061276898470714 1.2827630735301714 0.3587182977277141 -0.0811494364498825 -0.22776226972239136 0.16717235842293768 0.2980244317232429 -0.667663618001538 -2.8013127645268847
-1.562620300490426 1.2774831976985586 0.5424704858000862 0.37578748216203045 -0.8270449110716971 -1.2946927282784462 -0.1315366861209572 -0.6288279977163391 -0.9699758226404372 -0.6100232747925244 -29.71158177286074
-0.054065640433523986 0.8302709997928379 0.43372394347221405 0.15974332292932455 -3.060851423958003 -0.21409387071695132 1.666271832443289 0.6981576829689244 -0.5636153200473587 0.35649518314667716 3.1093033255957305
-1.3907333487611853 1.0668018625552578 2.679851883413684 -0.9460331167935072 0.22048631704127963 -1.9478039858079232 -1.7077240100655147 -1.70696873853099 -0.18340291070687625 2.0564703559298385 -10.095323359926645
0.5600991589411911 1.8894419847176753 -1.2607882300753521 0.6215079619580123 -0.4472048931408479 0.1586896050061348 0.3405114224927219 -1.7917260052127768 -2.1088256438112207 0.30780141954294005 -26.86982320535245
-1.542388619944548 -0.7939964309939384 0.567755135033089 -0.5091981435836356 0.9437626264089012 -1.080253744581294 1.1508579848211944 0.7978342196308829 1.323790559322181 -0.7233502797853941 15.288692812996839
1.66509612020723 0.6850333024130125 -1.5964052000731155 -0.025182025408176944 -0.9698790322836798 -0.15980356351002875 -0.3957168729408028 0.9232251234899254 -0.4060331835079807 0.6112859275618798 -0.2126105259947524
0.5348527990323364 0.4921478110754664 -0.7836311073104668 -1.097463485606727 1.8320313559279073 0.7578813478674318 0.2996286085427745 0.1454979811716437 -1.1945107971451832 0.6619065907590652 8.13727304804663
0.8848485865929486 1.4318033449874534 -0.14917198840280346 1.5945078248187656 0.8866310164748141 1.0209354191040076 -0.2849907956559957 -0.35418886914569814 0.28422566268417493 0.3298611266714216 21.626903560495485
-0.7876999058329586 0.3237825133710424 1.1396693380741332 0.7764415096473627 1.7290618983998454 -0.22431930304371805 1.1923208516741521 0.25755995491030426 -0.5095961669469664 -0.36481671360436546 16.374363144427463
0.29515768608093496 1.0866103923066661 -0.5502906163624399 -0.6204224470844358 -0.9988137260342785 0.44133604480401495 -1.7226962318593175 0.27187972207688743 2.728844428794046 0.41390616238615907 13.240594811374368
-0.0965948370894779 -1.3141242101748165 -0.5656061509937236 0.1658612796908886 0.48977695337363975 -1.4033998741077998 0.09608544186857919 -0.42791087544064055 -0.07574344693781981 0.7102180162842414 -5.6727318362165935
-1.1287139221624007 -0.43401745402182895 1.1062760158641565 0.7726653000095756 -0.17765979060002263 -0.33125198634082736 -0.12427500222889297 1.6046880528113012 0.055332500912235676 0.5634400294997235 19.089749086279316
1.854735050392945 -0.2428430588136141 3.0570554301502355 0.38402639823020923 -1.2914119638972237 0.01618543184058117 0.1433882101119785 -1.1542013809841336 -0.16134943256224896 -0.9614993416827537 -13.42862160072321
-0.41778157854745884 -0.08691555923441908 0.6159238160726216 -0.04482916765195746 -0.05502458292909976 0.28385018267458445 -0.9564927881071805 1.183309307987473 -2.456156113117856 0.14089129885768745 -13.944051708668136
-2.148574419807808 -0.8471390359979476 0.5290315492244826 1.0053115548847187 -0.4631630156276139 0.5203187648790131 1.0430883997045406 0.40384877622046356 0.24293055931878615 0.6557720118907818 21.493441997459314
0.7686576576442966 -0.7130333552208945 -0.7807311945099604 -0.2757723052971133 -1.6079031745898464 -0.20006582540721488 0.5777700320308513 0.9440899951317575 0.014012507664090068 -0.22312381483337693 -3.5640080088991186
-0.7830303010052264 -1.2011346042291595 -0.22354666835217527 -0.5277655920643168 -2.0518355775368984 -0.5950590918235145 -0.22353818164435663 -1.7760218711775413 -0.7519567172097347 -0.8113644719658093 -50.44976752232084
-1.0547147359228446 0.234764937780816 -0.7133669794466251 -1.2407759203681732 1.2356690274270479 0.21556914734807803 1.423012718667042 -1.0763210759685917 0.42384584262802827 0.38197858893526 9.03283219329599
-1.4064884164596012 1.934368540211275 0.46475977017735504 -0.18843149215496513 -1.3578563585798087 -0.10788630858306529 -1.391017541108799 1.1044897784731484 -0.5805983231282534 -0.07829241879344975 -11.294037704958779
1.7964065412574988 -0.40215902074317206 0.5757221937707766 0.963389711803716 0.6074289991288168 -1.0849401304075323 0.1094599534892332 0.4582135563982874 0.9351289515689917 -0.24003046430924538 14.363551224306441
0.9772516967763929 -0.6343644290093442 -1.3129468174930934 -0.04799770846331645 0.08695869112508456 -0.7620656174607235 0.5673122098891259 1.9926889259383183 -1.150837152757684 0.585897193064642 8.339221468617142
0.028377358537268044 1.236320898258073 -0.021318915646359807 -0.01911958669308009 1.6564688324092811 0.2017820690063932 -1.4512003974877277 0.2190983665107092 -0.86628843545867 0.8186700480923339 3.9434952104660947
-0.30663293808444486 0.6277442315565314 1.8223049617318752 1.061500751463627 -0.3905491362307923 -0.3177300942644284 -0.454507846693144 0.8532380747152232 -0.8914375442049506 -0.3570224621363914 -1.9952246742477966
0.4047184823172289 -0.8822969894366531 0.8824363332979447 0.37068185260968045 -0.7252958711620853 -0.777292953802458 1.072586005713299 -0.17789451940643433 0.8683271943639482 -0.0838835699565362 8.836033910237983
-0.2768896068355223 -0.4150603856993087 0.9118164409491469 -0.7135417114399091 1.894639927900241 -0.3386739791108819 1.100277852319916 -0.14118198355474343 0.489030478398977 -0.8547862758841935 8.502414994778272
-2.043351220792816 0.5591446485665095 -0.3937124730974724 0.14321013301704202 -0.5222882714900423 -0.736566032187486 0.1837789527345028 1.5124954270190418 -0.5736394524655481 -0.4850939262787431 -4.386689344640414
0.4843768812202999 1.0692634164444814 2.394439241078546 1.5076645774104536 -0.2975397259850403 -1.195355853233592 -0.035884149677917 -0.2594996450394999 -0.2204770123900559 -0.4525157267668701 -1.7987840339152568
1.1920363562435177 2.275176064067101 0.4361306011326567 -1.4581905045673287 0.435403428779133 1.8665150329761615 -1.6916626407270525 0.08009391652874148 -0.23537463118325605 1.0786990139153496 11.55161485734892
0.5838006469693088 1.419438482258278 0.4401792694691752 -0.9662472746887231 -0.26979556599279364 -0.5781898102237273 0.5353279153758205 0.056757731296206024 0.11358431308279313 1.127231149514445 13.387813286078392
0.5472632390692892 -0.49489148527587296 1.9071890624110666 1.2511494857739869 -1.0312038236688787 -0.23277126880239904 0.1346238242541544 0.6640064094158786 1.5977135532024889 0.3428336255426575 28.603571495694922
0.15442503822994608 -1.202984467279892 -0.507566773322369 1.371423252959099 0.08418964462657015 -0.7061195824655655 -0.8658065219208515 1.6184832319939424 -0.6930909727115813 2.1612312518515577 19.635391052001548
0.006158091907588497 0.3155862335003588 -0.9931435128520613 -1.7233778370489183 1.2253231503069446 -0.03654908670567589 -0.776265417522153 -0.9959437323609844 1.037395114726974 0.4382508651172271 -3.0429743736822434
-0.4550369203093524 -0.018934541600977958 -0.26569998831176805 0.2164231478803752 1.2243762558586742 -0.20467625970455972 1.7845557373962293 -2.364175296305529 -0.06255187498055809 0.15772580189935054 0.14973916436970325
-1.092270797073577 -1.8064414326514044 0.178801488044245 -0.041281073541012125 0.5920266706609089 -0.961668476091561 -0.3773139137801213 -0.40429602135146403 -1.1025186696508473 -0.10228348851605756 -24.553503857257134
0.9985225712351243 -1.1826371231334163 -0.045754158029829746 -0.9621312410248539 0.5225606427890243 0.20169576185315352 -0.8457461419192878 -1.183860353574256 0.043195545983609536 0.12717155269502534 -16.30274513757305
-0.3547800580872139 -0.009855055506952828 0.08866995370705998 -0.569193583097002 -0.713953507206105 -0.5593395475851065 0.39037433301191743 -0.26209871926956474 -0.1699240331654337 0.5973995867907923 -4.3565048179486
1.2336488870682272 0.27102095680765503 0.5032246071893423 1.447035716162229 -1.079666767345145 1.1998021275278623 -1.3839751989931521 -0.0978167700806795 0.8468332168278713 -0.7291128797740583 3.149024888589474
-0.6014110340915511 -0.9882028230129746 -0.9267756287718313 0.7823384298174263 0.276331470403434 0.9193229337496385 0.7995205435951872 0.7256444574691923 1.8793286069114377 -1.743190110990299 14.349104611072185
-1.184558935039384 1.602355691995888 2.553743681104943 -0.14464165402896642 -0.7732441002470265 -0.2885154082712458 0.5782593578861576 -0.26338594844004565 -0.6448141657600579 -2.0431300027342334 -21.606082691368087
0.3935603479622641 1.0466730116971057 0.4917582699532165 -0.45158020131986204 0.5333590317075867 -0.6295663659696725 -1.5692381161872326 0.7626218419008891 0.37273453029075165 -1.5567037671093134 -15.620427787692874
-0.6565456962415107 -0.34306482513979536 0.7769922741758953 0.8294278847634413 -0.4884716179598979 0.07997260702066945 0.6645893062460992 -0.8576199929611968 -1.849376803517264 0.23140288689427185 -13.392441588367694
1.4879622529977854 -0.7063536972635355 -0.16205242694444214 -2.348525875780648 -1.104772741801366 -0.9812626805101196 -0.11369827598854196 1.4614664360218377 0.4503869921017969 -2.3881196590078306 -30.21236590441334
0.9026538867360925 -0.5723939618575896 -0.2736769471465976 0.5762539475805697 0.23321042688951568 -0.17808608712566407 0.4343074947892079 -0.2566720973055804 1.6938993674653133 1.6819962490468434 34.2705357377519
0.44052034524646805 0.6750277453098922 1.9476620476857138 1.0695755536410252 0.4075582566759103 -1.148019420912272 0.6734108486849221 0.4160893732831077 0.03088318232598927 -0.8128065058284024 7.78669750566911
-0.3457596551347091 0.4009340789773624 -0.3437340238466106 0.8642771929616416 0.9695920782884487 -0.7238007442757443 -2.2559717487520015 -1.3501036658704586 0.5081936115944679 0.8161525161875466 -11.011486166831903
0.17289398136232964 0.5158929218950594 -0.11347515816948271 -0.061528951011145826 0.5456687253536312 1.441627327849697 -0.29377515253576814 -0.9043265133954919 0.27456688067381757 1.6916902237671134 22.391043609364566
-1.117905048131901 -0.7604737176281565 -0.5537657405887088 -0.26942657484175864 -0.9147490966986733 -1.078352047359976 -0.6621503082131847 0.024219512119384508 -0.3420192611471523 -1.1778911119318702 -35.025103424454954
1.107200655117889 0.8477135938332288 -0.35206420175713327 0.018569635927807516 -0.20282203952195038 0.7490497886748674 0.5237683908628591 0.22726787932333384 0.01893764854606276 -0.5274712150261275 7.100411449232789
0.5710545589236251 1.67741514826094 -0.15492912715580268 -0.047060349288725434 -0.8978831394227913 -0.1539143895988078 -0.9491567642386357 -0.21607421371449262 -1.6958024661319477 -0.4749443064607235 -29.984122404942553
0.36616336832897545 2.2287879875625136 -0.20106260059922487 -0.3201856552225867 0.6813567094877683 -0.4990795880349671 -0.31867763633518664 0.011443665831790616 1.9782831124317335 1.3894263404478973 33.05073852283285
1.9871725046557074 -0.13247428300966468 0.33626714002767105 -0.6778094551970975 1.3235850675164471 0.8248535928161663 -0.5366553040959182 -0.8146519782564363 -0.31661156803540347 -1.6367282134358538 -18.361600827378446
0.34717228312498066 -1.1499231866542132 0.4422343186168678 -0.706409583317112 0.9675997455887488 1.2315500012368836 1.2919542877349104 1.906008422771624 -0.8486025301569253 -0.24800563034431375 22.755012210878085
-2.480755196358521 -1.857336510040324 1.2946625982080864 0.4472343324533838 1.362307149062534 0.474338775284083 -0.5329163204644408 0.15397481004568347 0.12053012553214366 2.69359105637319 33.56971267281827
0.8559045161858415 1.6328224035754193 0.9557596743612533 -0.2250829294080514 -0.049487278767701905 1.3155247209874998 -0.041375988426429304 0.01617085661279609 -0.492198871423385 -0.10391815581561385 9.699076044398963
2.350193926192516 0.39495942755914554 -0.3247352435311427 0.07309556460427365 -0.1976315269218928 -0.04595466502214329 -1.8014236942796489 1.6955594137685155 -0.470576001117435 0.4970880044982094 2.8620641535786984
-0.9291209426601418 -1.3920028337368875 1.0450810450662713 -0.5048050292366986 -1.5986953533932904 0.5661924733998587 0.3158457649304802 -0.5183082286425466 -1.5131335796616485 -0.3202780798517638 -26.203296179210476
-0.6587800755589479 0.3607717354424635 -2.051417874572957 0.10408679855345336 0.19982701221808682 -0.7139170677550758 0.563445634083308 1.2761124054971011 1.0401566217702107 -0.02495848053288161 13.102364271126357
-0.3142899656183445 -1.1859455404648007 1.1465667498702972 -0.5845772145289937 1.2974106230338378 0.7264646449130165 0.8502343515986437 -1.5164922464071147 -0.9468843934343919 -1.5242596242538387 -21.505836288717433
1.8071095571110856 -0.27131416445547246 0.15121251529460591 -0.47057197251653293 0.16070954047086558 -0.5435497433736316 -0.7090916397460083 -0.5802621003647976 1.994562896552858 1.2621254984437058 16.673992692892053
-0.9806258305282773 -1.1995462027568542 2.1247614700910105 -0.7614825774461302 1.7764585619304323 -1.7275766021064418 -0.06480517643856318 -0.03813098410471788 0.07796569529712181 -0.9725221226090166 -10.481338570617886
0.04619172675743418 -0.9017312859016882 0.5203898646964873 -1.3631710634242629 0.09805562678309532 -0.46783947837087736 -1.1714790715675927 -0.5005088494315502 0.32858421066431126 -1.0277122799171228 -28.056294614170262
-0.11728401007601384 -1.3454896691208116 -0.319661541786091 -2.2166181067432467 -0.5706553919183251 0.9560205285562612 0.9504218746767606 0.4593248428321108 0.7275110928397754 -1.3915361165199647 -8.179317900210052
1.7219748124827685 0.7462844379980553 0.08770630085283897 -2.297680758152098 -1.1748209466424957 0.28879156739710743 1.4287426988227123 0.5324056808448915 -0.43205969910477454 -0.2249677383950025 -0.45277358169206083
-1.101118203759917 0.2516429087453737 -1.2474514850394824 -0.7601817785839077 1.5448843420050113 1.4154706393879186 -1.275512159774561 1.0038126293458816 -0.13580979455866737 -0.23115997652235823 5.169065857977935
-1.72246101506041 -1.7696771754906966 -0.4019070563192571 -1.3711500900622646 1.508038957075094 1.6889317727598518 0.3329683216853149 -0.1643701404117005 -1.1409405384141758 0.42338820144815703 0.6134797301847481
0.20046452563846018 -0.009623640082521225 0.23057393814684854 0.5817209357784968 0.00734550275257607 1.3726027032852797 1.9510394903972057 -0.7863727023713907 0.24836149730567547 -0.23551225826884542 18.474499038123025
-0.06394108411891701 -1.513182833807122 -1.198188781855815 0.6973522814633217 -0.48238669133423684 0.6223742332405222 0.12463406398873852 0.06744737109241096 0.27840113104606756 -0.6955696390049804 -4.223835858362186
0.6232850575916223 0.947287121721425 -0.199124527293444 -0.5233502175376461 -0.20492133552491626 -0.8038001285643382 0.29914538936562185 0.7406840274642422 0.576448964044988 -0.11732099483647561 5.349070946824725
-0.9239603048986046 0.2150842132430495 -0.6638122910187969 -0.24932225241338482 0.3749346315657728 -0.05018801268957984 0.5486927295329305 0.08493582594944062 -0.3588430203558744 1.0130991168711372 8.288388881482518
-0.6659657227535118 -1.1922182592018509 -0.02903795945150465 2.10646714729758 0.9648246975253192 0.2553655325713453 1.0013713540257576 -0.8941950691804388 -0.4510248087491702 -0.755521184103233 -0.7519956094579925
-0.24607269692039715 1.9157902926709585 -0.9422824568477824 1.8383049568636056 -0.6192612907737861 0.4055992865726279 -0.05671664925787808 0.3408932077829318 -0.3199907801640431 -0.6882406743221375 0.6755374321659318
-0.7779148066287973 0.13185921986572424 -0.35819248557762773 1.050847055658101 1.4075115134041203 -0.5558127398014308 0.721114634669894 1.994002040206018 0.09557182181113498 0.760266716945298 35.57101220441818
0.5749125073303358 -0.9888795015266445 0.38969479519939315 -0.6585976365765162 0.05793588405361102 -0.8333857005949985 1.447858876212539 -0.5102734586587028 1.67656315369597 -0.029980589610451917 14.02069976857762
-1.3999186185312353 0.4816971077456727 2.1623747204545247 -1.7159380021300759 -0.38973296991314776 -2.223717940351986 -0.8421106156138488 0.8790540474077793 -0.8721897787161459 1.1028105174896556 -11.394212680560802
0.20057810587089106 0.4466355942562657 -0.05953018201609357 0.6842947320287772 0.5894065970820148 -0.42245633741771976 -1.3367996355356264 -0.24264501066341582 -0.24247510434338757 -0.15179987381574928 -11.454998638438466
0.36944067721791446 -1.7140164279909607 -0.9193682665080029 -0.06248772579622456 -0.6445042925464657 1.0542894834383887 0.15567805748329772 -0.4598887482763182 -1.664575255182534 -1.020995184224258 -30.721994291064448
-1.5344931086766194 -0.9147796697756344 -0.4745568024026032 0.2739211103491349 2.248738658631521 -0.29892136547157944 0.555918201145144 -0.30954350084910937 0.20084110581360057 -0.4127355160575288 4.503704852482324
-0.608155798871966 -0.05034556282844975 -0.27382817422251954 -0.15685405201885813 -0.630569863128482 0.685364803033879 0.3542717680700696 2.2748510101064428 0.23831756800771378 0.38748418831932 25.553872493930278
-0.21783378648109514 0.22075078793871364 -0.16128598573006897 -0.092033181250642 0.4859557318467797 -0.4604617347327901 0.4439464545200906 0.16338732098547207 0.36150111127284196 -0.24000469462585677 3.1827246781207212
-0.1682791535729586 0.5608229279414454 -0.6879981473961272 0.5961605785530784 -0.23957326536538828 0.5633414909660776 -0.7337950366581698 1.0704869017928516 -0.060061235214584084 0.7349429887712657 12.914929612746512
-2.3080746859537684 -1.5035104562411932 0.27500114700533523 3.178505755495055 -1.021172007669795 0.2114049449181755 -1.338182824130661 2.2421984438988827 -2.0079955673214207 1.6942476869548595 11.960832134668621
2.255689536662313 0.8657284020308967 -0.6767739445692407 0.3051670796790448 -0.4243311854227192 0.1019296237852893 0.8854259055067092 -1.072892449273973 -1.5730330661274468 1.171418374934806 -3.942377840720088
-2.3330962124940253 0.06704949216980366 -1.900625094296063 -0.6816789941543763 -0.445737745788566 -0.9992795851568702 -0.13375674496651183 0.2207322017059019 0.7156729948577546 0.0005390673481662289 -11.794078922555732
-1.8512377847353712 0.3845362006098903 1.1374867128843298 -0.3999340199489176 -0.40421585263707777 0.2717686177567919 -0.54226567137236 0.08421584577943779 1.439300959857986 0.06285826942040218 11.298130721170192
-0.05992640879468315 0.13266376710164263 1.2072558977444487 -1.7460158086721331 -0.11172163555837766 -0.8674149660199885 -2.5859031515150983 0.4381543686600657 -0.09704636482426232 0.41859377283485544 -20.368186215355088
-0.5685400816453463 -0.8901450801219342 0.08600130829750084 -1.21247691538131 -3.235317151278033 0.6373384085213443 -0.07027220270943006 -2.845213744542006 1.3764218462331437 1.4735898130723952 -16.442098237812083
-1.9315583657139026 0.45235210134645465 0.9541623220775912 -1.3255725342211544 -0.8912957729065708 1.0060271372849232 0.5858318937277192 0.826732014969804 -0.7000559051497375 0.7859880798631556 10.903432967569382
-0.18865591467754728 -1.490579747156513 0.9504087801354987 1.7133620354839891 -0.7399033384128892 -1.0741479925274375 -0.39528622373558037 0.5836146640891144 -1.1306959676850956 0.8092603781443594 -3.997280814775925
-1.9134320567644916 -0.08102407791054476 0.8434563637430221 -0.9203585902821553 -1.1544236361968165 0.12221942913367802 0.6156039518008662 1.5827851663197212 0.6145916175273298 0.5013432098066549 17.99511009828766
0.17015109300647274 -0.9034355010516623 1.4630267993288593 -1.0989677004631293 -0.9952398538488139 -0.5819459929916224 -0.22747048519423557 1.5626522153499398 0.8275237723850098 2.0533475735468163 26.962335856245737
-2.083914683114775 0.49949611948996414 0.5346439432488588 -2.130445676390073 -0.37380435002253193 -0.9042451496862544 -1.8332188634238429 -0.7463764075683051 -0.8875151429648429 -0.6011043578338334 -48.678966968431126
-0.15882505841886382 -1.4600412697201448 0.9604763111478314 0.6552352894449058 1.3014133329464634 -0.45266934186349306 -1.2058441189182119 0.850998001639971 -1.9736962036249492 -0.44754632461701643 -16.58807451958686
1.2720072329353571 -0.20375396139108284 0.2749206108044041 0.5564807654920391 0.2796486035670762 -0.9747760892040088 -0.4916614155981916 -0.8228942533266976 1.3435475575474471 1.4801914484686638 16.592279321001364
0.3031869167270387 -0.21127060244207665 1.4240140597709623 0.022518906688893243 0.31479016560917267 -1.0320363136798452 0.0316200437878009 1.4166759023285924 0.3028119633868755 0.8499172116864943 22.11454525675251
-0.9546735542487855 -1.0053422461809294 0.9040911215126832 0.636776671190982 0.5766892604055772 0.1950475605339688 -0.9636042452527016 0.11344564306532205 0.9169628247102721 1.1414240277329795 20.54028809241096
-0.6349164166907767 0.9094134218810648 1.9328661313554316 0.7032010827933377 1.1788930746457809 -0.16867176360931166 1.4873360491492158 1.7416153865291888 -0.043727308422460566 1.6442109072386197 55.885868970278125
-1.8390614354320691 0.32905990960803805 0.5164809677034223 0.03441246997334 -1.6117965178351954 -0.9306517619908086 -0.8473992209321985 0.23550261029508535 1.276487637882447 0.41501310108035716 -1.5102657005415665
1.4008623804004678 0.778779208781953 -0.4579689761315087 -0.5392988912884535 0.026291405604875633 -0.23889140260448832 0.7108094986537017 -1.2484959672466023 -0.6936920168373125 0.05155483347742926 -11.961574338949651
2.1895244670226126 0.27904508343027745 -1.7627660836572523 0.5828599546879568 -0.0505088974565798 1.7258707521388492 0.4753408384785814 0.1192579984101353 -0.5092940527352597 1.5009148710123368 25.91490568269795
-0.2216932932954688 -0.20309518519094105 0.306978445691598 0.21890293676065645 -0.1316787712815284 -0.3146968505790502 -1.2278811968154555 -0.5423857996717787 1.0274565921701748 -0.37832284345178807 -8.097727970802142
-1.397516624785299 -0.07478512754295451 -0.0071133275852305455 0.8380453656470912 -0.052067913176502646 1.2036548915246605 0.10614647008603455 0.6572380140289111 -1.3232616499312337 -0.19472826470879906 1.6824687810189838
-0.37720007910364145 -0.5953606496200221 -0.2561248682904737 -0.6133133009315962 -1.7110414068393514 -0.08481575450559012 0.5359758233832957 -0.474053072710458 0.9562422828406376 0.6009871604729516 0.3288025221614248
-0.00036520489858078063 -0.7986959534472119 0.34735887803308435 -1.0527659092622579 1.0542313160379775 -0.20464655901838466 0.5979157386518016 0.020476602994106485 0.12637340902848185 -0.16778242762496695 2.8393311098909733
0.28114813189540444 0.693591124266566 -0.6820419705323377 0.1403989739265052 1.801182326222309 -0.324234515138167 -0.38096801991813495 -0.6839954751658803 -0.6765034869577254 0.10476927300565621 -4.697087493020632
1.3869228364332984 0.3777091250211853 -0.1357466742588956 0.21724725471697934 -1.974363273772172 0.08902936176428482 -0.03403217953087088 -0.25354123769540593 -0.3630414369072821 -0.10023863947354202 -14.018758928459075
0.5240352054107784 0.5073637888499208 0.5980605763235566 0.6109125817028288 -1.202324436682745 0.07568959860716917 0.8298057125802965 -0.4037194468264618 1.3021499234086638 -0.7766008302390676 6.122986348990258
0.3725441880474213 0.7612653621719112 -0.2695601789823717 -0.7312838485682932 0.6360424456249859 -0.5307805546208503 -0.16916420719096856 -0.292628027321339 0.14663513111316157 0.9809001659774841 6.025215937302771
-0.8273968937733813 2.578904222351355 1.4383366089323928 0.7810503556132556 0.7069880164914686 0.5876258938392143 0.2984241930067358 -0.014632591072646023 -1.268104350167729 -1.2823553672929986 -2.8533197754685364
-0.952829941997245 -0.6630257895413605 -0.8248693677597198 0.5828133247051417 1.3392096339339574 -0.740042000717805 -1.2608554275335433 -0.03139816447847571 -1.366083733360498 -0.2797920101567387 -23.184677103527406
-0.8330183600820142 0.7751593236213059 -1.942008504105708 0.43920404010854674 -0.8027477712995867 -0.6297720297227077 -1.1060164744444703 -0.02305635717490356 0.3081833210737207 -0.7767904363942634 -23.389255589752842
-1.412115624547381 -0.13877643954094748 -1.1036813852021297 -0.6245072085001084 -0.7653304698098016 0.8665333944868822 1.9171499534062153 0.6245369004479426 -1.236294250276411 0.1543471092475195 2.7515354037075275
1.330603543213106 -1.0937471347705627 0.3297394725896734 0.43428936854060995 0.21070432198037597 -0.7153753212713384 2.170308849060699 1.080192668167067 1.3094604344273797 -1.3499656226943781 21.631980720504895
1.129100172551372 -0.480060452712464 -0.47610145985404545 0.18859328701310998 -0.9062002502328586 0.8793321050818308 -1.0919004270524664 -0.0104355247116022 -1.1181262599979436 0.770832661399778 -9.247103805992896
0.3973251735859132 1.1336243246398259 1.536211890990656 2.0381828889505775 -2.1294265896216547 -1.2294663172179645 -0.17418416136328504 -0.9317493920398419 -0.9251812211039578 0.8184270144860026 -10.483025142547056
-0.9764420475200722 1.4854379083654077 1.7017010853737926 1.4423663861829084 -1.1481991598636156 0.5857979420299463 -0.34722899781659317 0.6463398303788506 0.15764190606535908 -0.5541142930934948 7.814882717733406
-1.7934988518524626 -1.077705784880976 0.37735722807647937 0.06261864012163476 -0.034704353485961674 -0.850986833490413 -1.411370372188722 0.41535379004995404 -0.2866170966348852 0.22667080322233343 -14.409873438058682
-1.8602476552326184 -0.937579653161285 -0.4051572433106059 -0.048064815030123074 -0.6875444944299007 -0.6634597225947524 0.11497279652359373 0.18437047278678 1.4987673046718408 1.1512881656221758 13.356490779788352
-1.6913831364544225 1.3125438313203965 -0.4662608630710037 -0.32286059840375114 0.8804211063820513 -1.159978394324738 -0.6816481188966576 -1.2175141360015131 -0.8327962471952495 1.2028356235566293 -13.77293373053589
0.0896659768096314 0.4789806877266097 -0.37676450253799354 0.734259340131359 0.35568219712974 -0.9987403259903994 1.3940008553766452 -0.5474402016184169 -0.931276558012838 -0.13047285839956216 -5.917184155795555
0.5150742840023466 0.4501973822899063 -0.5141446619994412 -0.28495622355357786 0.3559927560047176 -0.09734472054892461 -0.1149670191320023 -0.9791161017521082 -0.8968739738876901 -0.6890375313658512 -23.5576924045706
-0.6888133347598419 -0.19107836063682707 -0.3986764438115212 -1.4157254039785128 -1.5778639707158284 0.6039236945265497 0.6010594648595811 -0.1548221201470382 -0.6585872816097814 0.4006966017687984 -10.77944151886932
-1.0880084675821384 1.6055114920907516 -0.4150518938278053 1.5400523721817987 0.786134290031019 1.2971219648470234 0.17553303854554705 -0.8163852357922272 0.06300552244206324 -1.9138897326495665 -6.7099567712079935
-0.7919119569498049 -1.7212139148248629 -0.7846075788257894 -1.2017272338534315 1.6442470353986354 -0.32592508471333714 -0.4575909858817761 0.023607596900961845 0.9968878696271537 -0.22904425458989866 -2.3560442134913155
0.012229301241457475 0.37774287512063415 1.798397751102179 -0.8918274670448509 -1.31571903211499 1.3184771682549534 -0.9786553953289149 -0.19569199243914123 0.21982675809943264 -0.5302613167666314 -6.80123256054295
-1.2903209488402039 -0.24471571057252023 -0.2769402146160673 -0.8227937911628123 0.09590011218223901 0.11686944260775083 1.2475817068122792 0.6887341825755603 -1.2437953095666603 0.18668939009060687 0.6320227654167119
0.8276058098690819 0.35031209750009806 1.51594615314303 1.039558911013017 -0.5821993963939271 0.4644157813056081 1.1434660174706819 0.41829663514837656 -0.9123530553449434 -0.18542409749689212 11.50331757736279
1.0018574111099519 -0.4138080315395609 -2.552828661386427 0.8372458916458864 -0.020959578260614807 -1.6997416570206774 0.20101056734211917 -0.2670088196890421 -0.370994060151874 0.49020545085162814 -14.301047718594292
-0.08205514921000041 0.00893428481311412 1.144320841724839 0.022823481424193715 -1.989101519941578 0.047356708493422627 -0.3778357107486324 0.11469347149671447 1.3015789424491246 -0.4208663229681047 0.16597294896620873
-1.121009447659799 -0.797343428578077 -1.5748901273168259 0.0961652502694722 0.41819667406132244 -0.041740572930472064 -0.0713269132138525 1.0291169468461048 -0.12029601666717855 0.9741576528961069 10.563004103575594
0.9290840703553657 -0.07861821736436538 0.5093889611058937 -1.5269938012015603 -1.456806898575306 -0.20682151689050873 -1.337434565357764 -0.28950614840536903 0.8438123911163644 -0.9352125660631054 -24.80972228978719
0.012343026910949814 0.12444294552401695 -1.0624705073438552 0.4176536133588566 0.03287376735046478 -0.5001612252578043 0.19197368356326683 0.6470910818260721 -1.9199939206457588 -0.33954519971324404 -16.537210471616625
-1.1184758665408776 -0.385497957091855 0.01362579307022627 0.758006843766862 1.1898549371072527 -0.42465649021495505 1.316013134524385 1.1683534608494541 0.7393693738123189 -1.5956253836865817 14.146234815567688
-0.22815265476956056 0.028444401122633054 -0.10534893181389834 0.22728132286843547 -0.5756672659366175 0.9305757185367147 -1.9623708477936936 0.3347465583177003 0.28707370743053534 -0.7873123211148904 -12.524370435188633
-1.5564128648727447 0.438747585418133 -0.3929404186047262 0.4717571639240069 0.4833851200282558 1.401613840096711 0.28562320277751213 -0.11167863108421772 -1.677932002316436 0.9202444016124823 5.858951000165947
-2.953995731596925 0.5503002692653095 -0.7147919383907153 0.45786088966272587 -0.7284466840388912 -0.06968900039430777 -1.5614195081621818 -0.3070894581077641 -0.5080286166706878 0.4629103608621103 -19.620948589229883
0.04166654445126045 -0.5616897078535316 -0.4224536060843625 -1.8004863637561632 -0.8706720467620376 -0.9181735091036588 1.4234387993653583 0.04903648994438327 0.6824468692198412 -0.8584805663488582 -11.270059012415658
-0.7532136176865745 -0.9134078887626966 1.389145250640495 -2.122621257512757 -1.1324814987492935 -0.5824608284551637 -0.18924260710861587 -1.4676099431521537 -0.7038210850010064 1.2413768621035932 -20.61878571645131
0.3164624061589655 -1.167534356125874 -0.4028318545601305 -1.2320941939818766 0.8522024835228463 0.41835980210793733 -1.8012694441366657 -1.4604082103543035 0.4474635258368221 -0.22323374828889295 -23.642426333763304
-1.3108391774109651 1.4888541756093854 -0.11075080007014723 -0.8274147769068695 0.4613830519783699 1.6700014907383982 0.5384121633694384 -0.6646612456136375 -0.44810687459218607 0.48282982316805906 7.580431073905182
1.047057032133465 -0.37395587019038956 0.041512360428057934 1.140109204287491 -1.4583813275743518 0.2550983803337236 -0.7108112103349263 -0.273850345626333 1.0764882538339557 -0.09626760905532633 2.0104106718201638
-0.029266705185783348 1.1318487733298628 -1.610319671164556 0.2851469523258498 0.9877064411708665 0.26253809070603196 -1.3369109980683234 1.1980689538102525 0.33633291392982745 -0.904008341342277 1.1280842558256268
-1.8998248933647237 0.37858506504522316 -0.004317862493350817 -0.06390176415780838 1.0009450911246172 -0.5335952665274 -2.7001610729504506 -1.4262713675965848 -0.2761753695561671 0.29416604655453876 -31.0205391885509
-0.08966173284696784 -1.2604922576694426 -0.7321619934476334 0.08419548865044561 -0.7698335988751824 0.3701651028991515 0.5181603900726077 -1.7992461744172914 -0.49111580808677374 0.7236747060665911 -14.193396822334266
-2.1649464273649954 -0.64131596664747 -0.4236399632626057 -1.8694286233785888 0.37549053030393303 1.2550676773408715 0.5386059393245983 0.5480713700614316 0.7947719035584926 0.5872364165605657 19.27138038946085
0.44180101112187714 0.49624311820050876 0.2153332568963398 -0.0737753634641436 0.3130685843080743 0.7809840266675493 -0.3048985857357794 -1.2453511057567868 0.6992859499959616 -0.8205522709070758 -5.608233405116569
-0.5142759326190145 -1.0247572652333665 -1.3445258589951024 0.8135728679651965 -1.0461043493063353 -0.036292209184340306 -1.1316033503966625 0.3418009823854853 0.3526254630012471 0.48287148206208486 -4.469710738084147
0.9309809888657811 0.8641334462784128 -0.8893498328970167 -1.334623358712924 0.891868092837652 -0.3585728672427094 0.15714873098339235 1.151725263980769 -0.9637156366852005 0.10479173529558758 0.06205958575651915
1.744328122264667 -0.6116287184126339 0.5910810379817657 0.2326851382666785 1.0814270209852213 0.12181696273406775 -0.750640348052614 0.19245620284285297 -0.8411046824014143 -0.9675089254423123 -11.347236686445562
-1.1224780752555605 0.15030256017688565 -0.955308786215902 1.0526030498841175 0.4644211739603718 -0.13995720662014124 -1.4881671409017447 -0.4987398792847692 -1.0173684971083499 0.8737653458325955 -13.890982418206928
0.8593130189055684 0.24987246476669578 -1.0760008628875504 -0.7257477816564998 -1.914120507807109 -0.4548072718465394 0.9306912632137136 0.3278217116288038 0.9673656433788925 1.936123888135868 19.22920107979938
-1.8499393691246628 -0.9206067986960831 -1.2428017576882382 -1.2047607405991148 -0.11445307594062588 0.706074659796629 -0.9791110021043019 0.5819128154200269 1.500973500952031 0.19824813554761864 6.077443850987774
0.4022833803852684 2.389477898418247 -0.4358227113182842 0.7648618110764809 0.8443213481020606 -0.21743612429832568 -0.8490172352722768 0.5914650762579784 -0.7196938992444405 0.27669156466883876 4.020492304277941
-1.1310728619539558 -0.039667264416644615 0.7986340979778122 0.7631646989371492 -1.0546965821957024 0.004816669290771222 0.276989094190683 0.6574982882520409 -1.8957956731796695 -0.9497001689316108 -20.848990440807636
-1.9831675230690475 0.8848376557220681 1.0592616712790497 0.6287067630707659 -1.3170537463493721 0.06867201580577381 -0.7945374931678044 0.4477545938823566 -0.9014453738754129 -0.9479165370759888 -21.27194239447583
-0.08900302481580188 -0.005627133867878072 -1.0259294635591187 0.07154389021021346 -1.7996651122872145 -0.3970994476401146 -1.736082720124435 0.3404548419254123 1.087783007897577 -1.7117205966863356 -31.633273399493426
0.011952315426160392 -0.17925026836419738 -1.5544601838467904 0.27114313654774375 -0.09264601640130639 0.4787903607128154 2.2195443796378815 0.78289931424082 -0.9177138979645991 -0.3537075185235934 8.42972778151811
-0.26403489095595345 -0.3863156500155644 1.0776482146248465 -0.6613100654614755 1.5978867673011654 -1.05930028675646 0.41750680440039595 -0.4790590408119219 -0.43802072442109086 -0.5959178823187048 -9.123972338851011
-0.609510441677054 -0.8475371959982999 0.8012081619859158 0.6124118036322128 -1.5850387676103561 0.47910920581197275 0.8715981742856855 -0.25637292197208345 0.40694956252335046 -0.2975962651330915 2.332573930567007
0.8258611954908373 0.8831042476366695 0.8895598395156997 1.2939376952083501 -0.5265627825649968 -0.628668497620695 -0.15011314365058456 -0.9412858540805407 0.7760628092709212 -1.8049773267844378 -16.171108151600688
-0.7626080292251942 0.3872666198059425 1.3774682390058537 1.215200923852358 -0.28469814944527494 -0.6723160087225805 -0.1588231604143573 -0.7349141104078819 -0.5231221012670269 -0.03240559390637865 -8.185848189808816
-0.3929822688214898 -1.5031048557191231 1.928746939010221 0.7195813821616316 -0.35475810297020843 0.8880609173093263 0.2784967270504328 -0.8513154810082546 0.528697282663178 -0.1472973855467631 6.075736117735602
-0.003255444233293956 -0.5601071547532853 -0.7480233452605712 -1.689451937180326 -1.1745154209640165 -1.888148804207561 0.9312803122540124 0.5171473527329714 -0.7579953323898346 0.24493123564004934 -21.052176666330674
-0.8901174600159275 -1.861174018621333 1.7601367665971093 1.0915069564362172 0.46934527548896016 2.0024116873690554 0.44150134435400396 0.5532340082335704 1.5838310044408253 0.8583205848094154 50.111112071699274
-0.616560384018128 0.5191498678803758 -0.9089015083757139 0.4470127422244989 0.2411251422258938 -0.2434415222328502 0.9656961208907838 -1.3358287369756563 0.449761366986269 -0.35766718868215036 -4.331984316897935
-0.11501381406955732 -0.9506808220999585 -0.11609712416496777 1.081985254847189 0.317494502508007 -0.6149292650611803 1.5509133018188344 -1.8728235951975147 -1.2725249499142028 -0.1859286167436448 -16.400705162908704
-0.026483636286058404 -2.1319092221696527 0.8515374541706897 0.5588983388086692 -0.9998717426070212 -0.07594537878134885 1.2720841379875407 0.5539659992472054 0.17375223546251944 0.7428032294348292 16.19809249506723
0.5426641887193551 -1.3930607534231356 -0.3804341800148058 0.8123684242571813 0.9805624355742026 0.5768281933833167 0.13755527699639494 0.5023648928257417 0.7146705273002119 0.40622775664500366 22.292604992735477
1.7827775330189986 1.2858682483470003 0.1878297830461684 -0.012491326774766668 -0.2122585508648439 0.21632757865806515 2.36607197168262 -0.6727605106047546 -1.5824767030564726 -0.43543779637450014 -2.2548570762884665
-0.2932170053601589 0.12249510005193938 0.009887763613042225 -0.2255932797804633 1.6673143823972139 -0.8624598635847971 1.4612484953442788 0.09105164161339659 0.7736974359561494 0.8622348745536982 28.890468098959996
1.058992789268582 -0.19769402232890568 -1.0045365385500413 0.0894053498905561 -0.834573650847532 -0.9584756496570118 1.3406796130722898 0.2878185459198073 -0.871841148399861 1.9764838752433787 11.876072819363076
-0.6434717207478613 -2.0486946021417634 -1.0352325092865529 0.8679625289552554 -0.18603444815500966 0.10899337543876086 -1.3370744450529244 0.8197004250279541 1.3716080037012197 -1.5211196749669165 -8.563612108695938
2.2111544526618343 0.3564825421445745 0.5121723608777875 0.04837575194318046 -0.6781115874503725 -0.3021332223823428 0.3911593235765418 1.1173188517673234 0.7860283139207287 -1.747197039994683 2.5657427467565235
1.1253686301562058 1.523506410417702 -0.1543707068527926 -1.6940710896489743 0.5559066805454616 1.1700044790515722 -0.3542156476160211 -0.4314799010872104 -1.0324733092709877 -0.6341155665316941 -13.198030914503502
0.16768662134885073 2.1566476595126773 0.1190539986242985 -0.5989982457005456 0.028188089479885003 0.1719767021747023 -0.20902515818033424 0.09054438948097263 0.4933643904862883 -0.44230077998199235 2.986795946618961
-1.2311736779801554 -0.6467482876663629 0.21472785307357722 -0.9498325764357732 -0.9018616993233606 -0.11069974982353539 0.18773346630696544 0.8558034995176333 -0.6050203964181403 0.48125989128016317 -2.619171935137599
1.089583201714057 -3.4049750061661976 1.1792817010730186 0.7053780940193097 0.06836475061619683 -0.7744686898265231 0.12431971302290946 -0.5978944985698397 0.2536312872251831 -1.3586563553488264 -19.285782329412804
-0.8441996804736019 2.470283852481859 0.2672048261386522 0.44037028916228094 1.4132902404181316 -0.3493357000330715 -1.9279962562970119 -0.12325276965561979 1.312147121481681 -0.9881582510589297 -1.6084304134363876
-0.2240372351405109 0.972053336569192 -0.6525750092709014 0.1064753664967853 0.12250092585337731 -0.7132636208309086 0.2855064460042039 -2.0845125333268735 1.0368950386239675 -1.4076738337855836 -23.078337505188987
-0.6811932372250268 0.6807512477572869 2.0644924075452202 -1.2498687612052233 1.1106775102911968 -0.7492585232629208 0.9881306988215196 -0.83290262967339 0.8508890865085628 0.6343944926710742 17.67335608092943
0.6831734617075318 -1.1447732711908643 -1.8865971586977108 0.37074327762010595 -0.7973498745008804 -1.0926707051368905 0.41437063884842357 1.2448601484246642 -0.11006293931306534 2.7577250161229387 22.253452693189985
-0.29440148613169254 -0.6013617338319619 -0.5301699738393314 2.004400488289553 0.05057204324737633 -1.2732092367465642 -0.3195652569836381 -0.20163053333390313 -0.08467051858595917 -0.25414220776349594 -6.562978640794398
0.7082167139696693 -0.31876640781759047 1.4943357293642168 -0.11447664342921665 -0.08516220834876717 -0.4503739192087937 0.7184132699297099 -1.4716341755794176 -2.0442262108161797 0.7683964948957341 -16.942409796563783
-1.527759841217426 -0.7878696051135705 -1.7785611765100842 0.6591562596303631 1.175729518478654 -0.5866889847845902 -0.3161975484395906 -0.5832098525299312 -0.8033552399659433 -1.5360779753090121 -33.518819492951295
-0.554797236917181 -1.1497481057603292 1.234585599536843 1.4069631667411977 0.8635939280671658 0.019671216250331126 -0.7303664174013114 0.23459646193910919 -0.7717428577482591 -0.5971882094614857 -4.853586459797181
1.2184216534196233 -0.6999110515652764 0.05838918274680327 -0.7129247571702044 0.217097766487256 1.3498718866061223 0.9415096393165344 -1.0995586935287982 -1.2230358995868902 0.2571331445264141 -4.6673935861553115
-2.0376829526664 0.12724023143380034 -0.9171760386213196 -1.6172587778829373 -1.668563121684379 -0.15942694267674082 -1.5868908648759 -0.6310993363708917 -0.49652788489694705 -1.1275236079039306 -53.979894417065566
-1.982913095486349 0.014461204583238638 0.9172625923921369 2.0792131388097355 -1.028541627930733 0.7932679594299091 -0.45214589203351446 0.4589007045403678 0.7727333147086716 1.475484814690777 32.04106113301322
0.5747553241752162 -1.2081604591180777 0.2852563922536573 -0.9060276751828659 0.4162805769542732 -1.2145661287820984 -0.15292826360090483 1.0238602075867616 -0.6144206180646083 1.4030886405683527 5.125363323398535
-0.2102439230563478 -0.029768063562398434 0.329648882931158 0.37519317768794624 1.5104622837540913 0.8400838408852782 0.9474272362558618 -0.4946544140408058 0.4095487270572057 1.154679160017169 32.941984749587135
-0.0072047227928745145 -0.2542367241734455 -0.779084160625258 -1.1056256380109288 0.4891350754968663 0.15269189203686875 -0.6521716802856133 0.9572391521104108 -0.1299420791123178 0.6765170738741437 4.048174487571787
-1.115578923736432 -2.395838139579829 -0.3055357953119056 -0.7022079402793658 1.6042009177055463 -1.6111590009500143 -1.7848407315670953 -1.6232421057440505 0.833023577477584 -1.0140351203686857 -41.13684431923396
0.10245103859597668 1.3937490935302068 0.11763047582364432 0.17084138599265156 0.9479917112443517 0.7035649196609061 -0.12199676535352806 0.7471606976692664 1.4674061605929651 0.5828009068602698 37.465188812429716
0.1272494811971081 0.7292800820246771 0.5808231160889027 0.16088902267131064 0.6458494242834971 1.8877420454326925 -0.46016715477866343 -1.1022230017809067 0.33081653113827697 1.2804258425002506 21.710421832585478
1.7215632519530208 -0.30778406023426425 1.220481025084176 -0.5911360264766365 1.3016630677639935 3.0363762508126118 -0.4972635617565941 0.9501363786966529 -2.3995897205955568 1.2796674027846338 24.995847299783293
-0.16682335622383906 0.0908239977519641 -0.004798250785285269 -1.2123491914115494 -1.8374820897080124 0.3590887247796611 1.7110060051860687 0.42830209540812747 -1.263915184049231 0.20907740994985774 -6.955225407150937
-0.31077365514771876 -1.0641918689993226 1.1958121444743128 -0.1338451091795583 -0.9808512776847382 -0.13962441302144077 -0.25443971049542663 -0.8950092177700045 0.5954057674494757 1.3102586894628059 3.101463207770264
1.6913834421670566 1.4249666277280733 0.11767447157599906 0.6044163566851546 0.4222046551776542 -0.9622197611554986 1.1731604326279914 1.8512871402423032 1.0673825013863187 0.3314105330221319 39.28562897040717
0.24948352280188432 0.3232909710599339 1.2240488451233322 -0.9364298629777122 0.49936010433473516 -0.049964808408051356 0.4194608836330901 -0.9392442159280971 -0.5305376760403335 1.1258915484040657 5.947581215614605
-1.8154902292270667 -0.781643556107941 -1.826881012792149 0.8628528386655216 -0.54718495769965 -0.4711502020795305 1.080048162313125 0.9072949150530508 0.928449649526271 -0.06862808334707923 12.43270822291758
0.36663314106121575 1.0291368223909176 0.14986700239984713 -0.5107690633789607 -0.05353893819350414 -0.45757538313410434 1.3048213893704452 0.3225922024532226 0.9406808317780867 0.25368516935733465 19.224884231335928
-0.23441319809341724 0.3152824869841031 0.33253722678580194 -1.5025878549412088 -1.2728523426664942 0.2839031242067264 -2.075166725924438 1.7678125139047436 -0.5180110994360251 -0.36859479019901265 -16.61725649793018
-0.2864437377153612 0.1401064843485138 -0.24950778654212438 1.8259604514019872 0.3377044742917326 -0.3613158992293397 1.1917096378550869 -0.6362638679125832 -1.3686079710093915 0.12870793263872157 -2.5576578267422367
0.7138264835396552 -0.36504011150406895 1.4560979034650638 -0.7038183146122732 -0.008652077832758976 -0.1514894544990073 0.07783701675123969 0.6765940083703533 0.04391143217645358 0.35698882360601725 12.646813736792248
-0.44107305128809843 -0.5159594292731997 -0.07950877142989467 -0.5705023072887552 0.014912950703679009 1.2080789896327375 -0.6290860297098126 -0.798017722232932 -1.7502849360788713 -0.9942535985839825 -32.43270508437277
-0.9684897285366109 0.010105343926492002 -0.3608662769784351 -0.660492657674515 0.11269371040098759 -1.5696751899231836 -0.2653213302137252 -1.589146839885664 -0.28485678980276113 -1.657742702348218 -47.30258663951328
1.5445898778010694 -0.382807095398617 0.6305789382486341 1.5897146371554238 -0.03454872280294742 -0.43205298334144 -0.8146759168905063 -1.3077833796741178 -1.6153370119302815 1.1912458191432553 -12.011406335384454
-0.3197833225991264 -2.178421932046711 -0.3757919193966336 0.9948196830842446 0.012171920915376822 1.466161661434515 -0.8679871581087271 -1.8392980246073778 0.06963734486228931 -0.7180497984684251 -20.291579671896542
-1.0074481293055046 -1.9161298906662032 -1.0653221039806062 1.4299479403425526 -0.37858895210482457 -0.6242801705614289 1.1331992129136466 1.435057773108033 -1.5518559205723026 0.5539762415453116 1.6376505328862336
-1.325821873815446 -0.5941597153895269 -0.9434244172941463 0.4345162960591465 -0.02847524426621604 -0.3161891435944964 1.722213144729065 0.7066932720227486 0.7015290219388883 -1.5111886019751761 1.5908434414600343
-1.7651652403614813 1.272508734071364 0.16482889360919742 0.029951105941707003 -1.0291285500471778 -0.8450027095693888 -0.7336154909025273 0.5401415972202984 1.8157535443837642 0.7147554037698619 12.612072688070352
-0.27761906981734413 -1.2719143863494653 1.3154901005704045 1.5373763033484316 0.0478292133041587 0.5658232520589541 -1.6059714526977875 1.8558827033113934 0.5465750832069588 -0.6519808163244665 14.895598119563122
0.5480297447649003 0.25202752779776644 0.5038963081860447 1.250116217224075 0.09161254175179996 -0.47531668162683915 0.5029542678945574 0.908814409554489 2.0883532498042467 1.3016323101271239 48.44736713527724
1.1936250534025221 0.7928058842171044 0.09222789602606245 0.28036519871256477 0.10996333711766064 1.1001737216095466 -0.039534737576047245 -1.1746016190164135 1.0171862731474246 -1.8663993144016053 -8.27432897453368
0.05982806261876691 2.1899515372623326 -1.3507506705216863 -0.05091454420896125 -1.0154648049215511 -0.3373354866090036 0.3974323370530605 1.3616614249756367 -1.1702875352697502 0.19447787851272577 -1.7925381820022794
1.3759128589776843 -0.48847581313482275 0.2946504244617521 1.0752173194349384 0.13469203477228966 -0.511912705125183 0.32633639238750206 0.23281970982034764 -0.47244898193995 -1.4073117875625811 -12.377796009308529
1.5188722695481922 0.37020718105502054 0.09906262922315132 0.17024185435788397 -0.8649171215686318 -0.6140079952201893 0.5447195350935349 1.1767494838066805 1.1366513658574076 -0.8944131253204876 8.883019901378951
-0.6761659366850677 1.9988879908325485 0.935668099490585 -0.6342347099187129 -1.3737826340766728 -2.345621753583125 -1.7200089846032887 -0.02800746978497544 -0.08619151164007176 2.27012117608235 -7.1075671383368935
-1.5111271718551123 -0.5643581908515751 0.35046511277214426 -0.8577908426570376 0.6454724659268126 0.43493211542521965 -1.4638771851992631 0.5242584052019282 0.5596371279012269 -0.2135413252179117 -3.031471268375141
-0.2065432065651316 2.0637233894327136 0.32180246463576384 1.0256798630532413 -0.5686239267495811 -0.759696744119914 -1.0160485713070877 -0.6742841626015701 -1.6300036005471905 -0.6298129719831305 -33.49603327810112
1.3530451604871856 0.32679043323345736 1.655674178362942 1.2254541793351672 0.7724181461527756 0.8258393088890875 0.46120712710490275 0.6701262029194957 1.085420488835782 0.2006284050628291 41.21087748371748
-0.9526825383532933 -0.5524095050226763 2.5977537905297634 -0.823906373834453 -0.944644749412349 0.6053939759356743 1.0018063388281204 1.0009999401250833 0.0625091420478366 0.25944052166929443 19.379739365124607
0.7979074900560493 1.4257744753628225 1.2703003146708867 0.5192929831298314 1.0400482013542927 1.7436303704374287 -1.2167828984605404 0.9016106555637604 -0.8672246848549697 0.0800549994669732 16.42304251116348
-0.3865403318246508 0.04511119948086797 -0.5982498544462856 -1.314838635606283 1.2447753330673943 0.8220842107433812 -1.2000507364633168 2.0677796585664923 0.14118967369309404 -1.322015630543614 0.027010395040537816
-0.5972626985752546 0.5632544152033843 0.5050541763762113 0.05980065015002673 -0.5162344096968471 -0.9122783202646518 0.10557142980432578 0.11021628030702557 0.03177324977650911 -0.4853357147938944 -9.026693981326492
1.637620146178626 -0.46062146001766746 0.7137432467813267 0.2665178348720368 2.8172062216352844 0.7540940596788263 -1.2639146117848452 -2.5495942948148356 0.38843911854303304 -0.5647654606618113 -7.9697008237487585
1.2109411387814009 1.0796393161683069 -0.014260670276970783 -1.5021991882437797 1.5493352814452555 1.5470990450874929 -1.0444392960323035 -0.4451537077156741 1.2602018053991833 -1.5581929704408524 0.9267659436076983
1.0691422593453823 0.20929425794310874 0.9971050187950441 -1.0671990738788115 -0.31948724932289724 1.1452186530621618 -0.22145726999393966 -1.3033411139842122 -0.8402519798254938 -0.5800140088373117 -19.736468870356077
-1.7566873974298656 -0.5290216607827043 0.37857670123248166 -0.6073066429698702 -0.1436870179421583 1.9047911340306198 -0.2742776376657116 1.5345812650679647 0.2479332049115662 -0.2390457374231933 17.7791772474157
0.8346837481538342 -0.841794461943269 -0.9069502426114765 0.35762699916523594 1.1666338753145469 -0.6719218356072229 1.4687056396231932 -1.1491151051362118 -1.4728122104764014 1.3065991726974706 -0.5117725833913536
0.4793226513582295 -0.10611849407764017 0.2458558763440264 -0.7884861422295504 0.4889084049839326 1.035192094465943 0.5993196089012081 1.2884299344639087 -0.6241362406158208 -0.5290015492527809 8.802218877016545
0.9594903867214091 -0.015310498012828275 1.0244436714392762 0.26298173012985787 -0.9611737848077794 1.1360959021212118 -0.48061767740352024 1.5618271043603362 -1.9721031509893476 -0.6066686075849131 -7.670803264913471
1.4300689766667274 0.8781890132309449 -0.5775610378486987 -0.5128014326806827 0.06864473059785069 -0.7614854725672414 0.2941763914842942 1.0851563195024774 1.0172781272752527 -0.8013746973665523 7.671767276200473
0.15181062133616044 0.02304127268178466 -0.017854258436374584 0.21699808063901746 1.0769576176926212 -0.612265351347312 -0.3569195215453456 -0.5104078811468821 0.06279071318522926 -1.0613651829926365 -14.424042888857926
-0.1713262947352908 0.8826607163371121 0.517942536076018 -0.6062505340238994 -0.2596333211192509 -0.9550687603713609 1.282848246964125 -1.35941629831058 0.1438005626918789 0.20043264762213797 -3.426181655221548
0.35435379438192066 0.23560938562233713 -0.11009229173969463 1.193943030694317 -1.0203489167197037 0.4691254270285995 1.1885890904381136 0.38703824561285094 -0.8499517847458313 0.6785559792316458 13.55257446221692
0.10715577616120855 -0.8612600759892645 -0.8385756538705659 -0.31010718419324595 -1.399259706143443 0.702054317041638 -0.6996735019451471 0.12162700634926471 1.1009641914427504 -0.5603605435899756 -5.965100729234111
-0.48280708368705455 0.0640468239017831 -0.3067754820087907 -0.027100481816954063 -0.3110843128894432 -1.3041723799872107 0.49801888974298264 0.3499634525715598 0.7766733280274457 0.0423225828330414 5.3056707224576325
-0.45248989978829546 -1.2203304065522262 -0.8506793625381868 -0.7445719219524704 -1.3239026382162513 1.3006867415995433 0.8591751714108277 0.8445354680133651 0.7366472481455302 -0.9973055881705994 2.177543015561783
-0.35055273967785655 0.42069038956216565 0.8601190518018167 0.8955044753989807 -0.24171265625438315 -1.773484642024521 -0.8531922529395568 -0.1712175119526538 -0.7757480936913228 0.9069924709593328 -11.301640100773335
1.630270448897377 1.028403521149219 1.8500780369782637 0.6960104075675473 -0.5522428455747279 -0.34750900044920985 0.6327907164283045 1.5103858542769488 -0.9006792385054251 -1.639976554112797 0.08006824694696846
-0.636287933367687 1.2200884691090625 -0.32144976484556714 -0.19803000089767356 -1.199335063590234 -0.7673794020392526 0.561959691094261 1.1065357878828284 0.10667081551145514 0.9038450795029801 13.853334915651715
0.7786863815688083 -0.30752186033387663 0.8868516260059663 -1.8038357846522217 0.2055215382005527 -0.9931528144597022 0.09920695337827916 -0.3626805412939277 1.4510618469618268 0.3709442475156873 5.287680399463849
0.952561446983975 -1.3733748541103399 -0.6745055464011916 -1.2280318703637543 0.8218245139350818 -0.4412286783236181 -0.17170404030458805 0.5711558128016075 1.4769925502956038 1.7285734084774316 27.19468714291982
0.8575267137479916 0.22563124446466507 0.4773886693017045 -0.4787213036589459 -0.4084352975045897 -0.5458014833812078 -2.6814085494106044 -0.12734470875060716 0.9959530004529917 0.8805029349750444 -7.6086792773447876
0.6472386925458637 -0.9734821568982424 -0.10059170104845516 -1.1392907963089958 0.931948764110095 -0.46428115792522345 -0.6863391485663901 1.3414890937947541 -0.41375933009381527 0.050141824240400555 -3.7460808412558357
1.3856769809586782 1.9766838417835582 -0.6675569211227688 0.1335198250770213 1.379937450650785 -2.392689022722041 1.503496567288268 2.5419326538120357 0.6445335359151219 0.9423139183736567 41.80407742041064
-0.1877023004558018 0.43934011383935917 -0.5921520539831157 0.8720071145876876 -0.7211567341811326 -2.4272220823246062 -1.6049466882865802 1.8547895800144032 0.3513040513423794 -0.4449447846810794 -12.924649397009343
0.39721283352157977 -1.4218913852374937 1.177538543903661 1.0839892412736438 -0.12476205625173568 0.16579151675959497 -0.1481708191924588 0.8775942582105946 0.0005942611945709963 -2.195200351364832 -11.410167250427516
0.5338559572129286 0.10725942062046093 -0.37584214265261134 0.7690717798334952 -0.5384986113905031 0.34076825231800717 1.4819814792407358 1.5306273783529407 0.8794315982600951 -0.27379195554316116 28.770383329567963
-1.7690964045389643 1.0554907315565636 -0.622888481801113 0.3481084400278121 0.2896153039306626 -0.8103157767046055 -0.8226524114570585 0.27879077655478546 0.5123786307542624 -0.3719769560049317 -7.606156619601261
-0.0061812681211216745 -0.261247730170564 -0.29169866828634883 -0.9065540767321807 -0.34917789366734214 -0.8995100908256176 0.5975520351426468 -1.5291527637713096 1.1459065880076416 -1.5419701199199254 -25.59015953869035
0.33533960150110326 0.042046756146146724 -0.07457047172345606 1.087000617244694 -0.26597822579363317 -1.1079578349906056 -0.4100221821293454 -0.3160676673161496 -0.09893885280376387 1.2462427686281445 3.596433519098328
1.8248863823935504 -0.39451125732949166 -1.4933766831148243 0.3497327895768278 -1.47943977982481 -0.5181091478896298 0.2937434489277975 0.17566289405639243 -0.9410943207027701 0.8480530709378589 -9.329604310741924
-0.7882987579255608 -1.6523042048494065 -0.9448218551570221 -0.8083894028999539 -0.1239903197798743 -0.30676452902977663 -0.994640183637924 -1.3513150800978162 -0.5048150389833387 -0.6751882474884964 -41.698689994236695
0.3772658258783061 0.7038869005823878 -1.4865453276719824 1.1320700701489166 0.421802560017173 0.8548322398471012 0.27672388131156755 0.049065923456033445 -1.8187066280774757 -0.03723810442247541 -5.925969550210679
-1.393761164666004 -0.8158503244445938 -0.1540865090098035 -0.6108547185618904 -1.3919748190902343 1.0456970660816929 -0.4027412191919159 0.36067133621024466 0.14965646933182822 1.344332424489173 6.056963670506954
-0.9721951578868153 -0.8934481585670293 -0.0036267696783357883 -0.25155680317559476 0.3967877731616509 -0.06798665040138999 -2.5184915056044206 0.02029049384644412 -3.252330496392587 -1.68694978608868 -65.69584494466513
-0.08952285553972378 -0.33253366527794465 -1.7281749676986442 1.350945769611019 -1.8142297553859341 -0.5856404587672944 -0.2607665883888064 -0.7193966694530757 0.017502374198247538 -0.45621177883981534 -23.745094645095843
-0.7066013744488654 1.2905376606579582 0.9541773716672417 -0.05187761618138183 -0.11012209252852195 -0.4337753870013274 -0.7866774569499211 0.44852486633472033 -1.3650942192507904 0.09310660165683528 -11.369186761954195
-0.36992303252356296 0.54420178143773 -0.12543127850814362 0.6248751801995243 0.008901793606116648 -0.836009916306958 0.13448051826999224 0.5021556121451609 -0.055131829719304616 0.5467157954440869 8.448032312048232
-0.31166480576392697 0.27079004623382963 0.653091282891327 -2.085280259496889 -1.5847701047925213 1.7907927087692974 -0.11160389098895065 -0.24755017813774893 -0.10361656449511007 -2.3138411164784825 -27.902261619305825
-1.768714200283459 -0.41506106907579504 -2.49311218269958 0.1725497048060977 0.2336111256370947 -1.392849681466793 -0.27104842784737476 0.8247574958408537 -0.9846921560172819 -0.2874763493206538 -23.21767223518892
-1.1095193606191789 -0.48219961525131166 -0.43288748772716007 0.368830062608764 -0.5486954724778847 -1.702712077914439 -0.34066821199220176 2.794075178279833 -2.1326345524375667 0.531068994019988 -8.52686684016101
0.03380712620431602 -1.0930287822747142 0.029792043639139204 0.3380220173445747 0.5148383086802191 0.8864747871202031 -0.14577901504144214 0.5822733263105063 -2.4454936480743603 -0.5878010517975417 -17.57974460231
0.5240628632996785 0.7698264845233073 -1.027690333808671 -1.0994133356229832 -1.029794175397059 0.1115978452003407 -0.602889289379518 0.843275935798203 -0.8751295260581713 -0.057430979873590644 -15.821747240573403
-0.3670022717396135 -1.119784158638514 0.6846362294830464 -0.1821190700607451 -0.7646599445366751 0.9115000081781168 1.2211578296772763 0.26913938327373604 1.8345871535333096 0.7550426778135785 34.29689601160264
-0.2533181178912072 -0.813670867775721 -0.39666665630911835 -0.1934512518947434 0.5438438708113723 0.17866987927680525 -0.5859764736630195 2.659372984138298 -1.9448414912114547 0.35022135124926373 2.5089129733401374
0.8912826428276039 -1.832365239206831 0.13253672389889218 -0.39366667649191256 -0.9480008861054059 -0.13975087188155416 -0.8403583119391254 1.0726178737019179 1.199664881618003 1.371527543832065 16.138493921791007
0.28226803518948074 -0.7924114059874653 -0.5342748743587298 -1.2959710190568177 -0.35715721927074473 0.3500931624635285 2.3064792393836187 0.06051131302393394 1.209008820967965 1.1434695596214781 30.25237906942335
1.144797764039408 0.35199375606945177 -0.5273580731132386 -0.09156058878651667 0.2928379006151882 -0.03397271918299384 -0.39215763525336494 -0.6378297314028167 -0.011061634005314121 -0.11117199679910188 -6.109174651131934
0.8723656610292276 -0.8336301331699756 -0.35179186504691157 0.7889915268422623 0.12290175842187522 1.0878655239587127 0.42142421304222505 0.8519834427930713 1.91313087024701 1.4432708219885038 51.436754781370546
0.6101383531594485 -0.3462439990244343 0.814637855828764 -0.9236037308699053 -1.1756714555282042 0.3697690552004784 -1.3050536642844843 -0.2603947344677395 1.932118238354276 -1.5998975286857107 -15.19264033980675
1.1256953364763096 0.5483907817336177 -1.785002275781385 0.7823625967839268 1.108430155471546 0.6223552157762232 -0.7446982242328918 0.34735997158976306 -0.8533045982066042 -0.1864027997475886 -2.960208340913117
-0.3554736735229716 0.5858598148153011 -0.22924138899386592 0.12070100367874706 -0.06590560376275248 -0.37971048928133033 -1.3432660051770977 1.7178863756893932 -0.20627466004106276 -0.4954837673137069 -4.539925690329982
1.2310392736103473 1.2057941055407604 -0.7709294503731623 0.964319385069231 2.026443416643039 0.23847844776858562 1.2187271627418816 0.005597879578070934 0.026360730150748697 0.7997170910871687 34.28654396186874
0.2899340852988061 0.37734861882630416 0.9930374749472994 -0.81091475775098 -0.13786960624530378 -0.33819621418621726 -0.3663357398575302 -0.19136178537556026 -0.8590542074376315 -1.0503057822599102 -25.329175182149292
-0.3101236152379131 0.8726669392474614 -0.3619195881230797 0.9829232214031973 0.9522882211837431 -1.4883969370564085 0.8456938646637339 -0.4122306990444117 -0.10905369892405038 1.5004672250948101 16.088551787221853
0.9535065882145561 0.7119765999370973 -0.1509381934305576 -0.6842621002059844 -1.3229661582526726 -0.3291060220741287 -0.9034557311461449 1.4442167815335454 -0.4073759814988572 2.494646676644627 18.073596940041774
-0.16416911484751756 2.0177284898261765 -0.7904786019727497 0.014664507904791187 0.14013035664088971 -0.059689608286933815 -0.5628576582047142 0.7949457657446845 0.8324863161460919 1.0840790272369734 22.670841400304248
-0.5311605564429057 0.7693196032629072 -1.30193709469163 0.06704056618979377 1.6466035261158272 1.558123361892056 -1.0550711673543187 -0.5212270346529465 1.141708408894641 -0.961155275277565 3.1076996749312134
-0.4812396234681243 0.9743379196417997 -0.7468020590056323 0.14379626010741473 -0.0016125863279963903 -0.20057931474071855 -1.0386639659454824 1.0135484819812104 0.7488337682131934 0.02723576440226423 5.0166688426804225
1.1791468657107582 -2.273076148954214 -0.8283522660307994 1.8701390475414046 -0.37435214679012774 1.000197071234123 0.7358014684159675 0.1642484915779912 -1.5177354072503313 -1.4089450337234668 -16.021516895068174
0.8416544066720083 0.6627567086409506 -1.2656806000926986 -0.3169389142449445 1.1295625853199942 0.7066294541281846 -0.3180590725843219 1.0105586414809156 0.2939067470878557 -0.41868087186134284 11.91844829677525
0.09463789060762193 -1.9670193046420277 -2.424835724239813 -1.0398879533839993 -1.0608793216591188 -0.20731211971260693 -1.0165412161335516 2.086797515347093 -1.5936918172891943 -1.0523021221749385 -39.239467705567066
-1.9696615072098835 -0.7070590380041558 0.16689624593449293 -0.0016141313867054897 -0.2123484227126321 1.789824483784252 -0.8780991670842839 -0.6131871719475797 -0.5978700863739149 0.15305181179459038 -9.31531123203363
-0.9902026277008349 0.918752761476574 -0.2035478838838535 0.34596995073078873 -0.04457583197822768 -0.9105918638010768 1.5826880274225013 -1.3752498791089287 -0.8587150358090029 -0.4847763080908421 -17.040841976454516
0.8870233269889124 0.7046265069111175 -1.6359197199976938 -0.8457920499389237 0.0705473617811333 0.7261769064599455 -0.3617043130628814 -0.4792105213241094 -1.4187064535256986 1.6030400574301058 -4.8019596398685955
-0.4636456096162669 0.7792370336458107 -0.43409919495248034 0.7466372323243343 0.6918820032013601 -0.5100268768026922 0.07747507702943618 0.05387557894676401 1.4710437269944856 1.9640925959293976 35.59814779139399
1.034941802533044 -0.16990778080364263 -0.3137221152865406 0.538075025077506 0.07738750595675802 -0.05478958472969858 -1.2419171598124834 1.4817637690248109 0.7321740600612696 -0.7556343844648402 3.332002976083296
-1.8957315631469465 -1.0383736819762213 -1.0714244077883708 0.758786148753763 0.6337979033917078 -2.27026946293332 0.4372890222770191 -0.6891601676695801 -0.4235654754963855 -0.8794248308501132 -29.986779122358065
-1.7550395768059526 -1.5874576670182265 -1.2899868157286454 0.32229954823785095 -0.15415927927427114 -0.727972519042107 0.23935830426813015 1.8460409825387567 -1.1670575934157024 -2.0866157168653996 -27.644769116729435
-0.0016011296357162869 -0.2696267993227784 0.781159401179536 0.8781852210443167 0.19012287759713956 0.9501588267404691 -0.5116356729221033 1.032668322070187 1.024911746095036 -0.20611323488955224 24.742942089074123
-1.2304226636832365 0.1742278089751929 -0.37089941640100044 -0.46435158234964796 1.2739460797278572 -0.12181269793789105 2.0742227434136105 0.022128675963228317 0.05558281525359585 0.6580714874697187 23.33081250628719
-0.47315964314754566 -0.24034552371497525 -1.0176307010517234 -0.008633094914325732 0.24504819718883455 -1.8082991681610099 -0.09418921072034407 -0.03816050857893111 0.12406263469457464 -1.4408876233891152 -26.78474511241742
0.716144700917212 -1.153822286311858 0.9911761632439682 -0.9880721447594352 0.3667751563891371 -0.8678885767260183 -0.23015582215672936 0.8332947107792616 3.669279087712876 -1.0990741607228982 22.954741947838556
0.3261811652039293 1.199671800055254 -0.14757920556641485 0.41228387426842467 -0.4736360359825377 -0.04620844717993745 0.5604623629111122 -0.10681715983774115 0.7929929463651477 -0.8400059529338405 3.31814417944833
-0.23009958667601904 1.204522319093776 1.1169994089252486 1.1314239556018404 -0.7436294717529012 1.2129353902035738 -0.5378978006684644 1.1775357202755237 0.9068958253641312 0.9058766438595482 37.60219889919928
-0.8115045026503797 -0.29698956427337225 1.8633239112113824 0.8864604311146459 -1.1411359060984942 -2.032113499727472 1.4304336229329215 0.6396530706290926 0.4988746223478947 0.6413572406535796 17.47856619767922
-0.16042608762273552 -1.194397783832439 0.6861755798263235 -0.4504945888950875 1.6104192478932344 -0.8039368839729845 1.2536813144162346 -0.7841701327855606 -0.15619927180769622 0.640936477036094 9.614258667115127
-0.44990680615740875 0.19601401667420298 -0.028322051397385632 0.5921237221418046 0.24092419504988782 2.590548408639448 -0.17021958805273307 2.3209828389663625 0.6493254696890496 1.5659946104961466 57.32768358610714
0.7097896555042391 2.212117610358791 -0.33935714626636176 -1.19901448351451 1.0274615583072162 -0.8260637611913442 -0.10978561392235578 -1.6737109386913402 -2.051165278044139 -0.9280606514141806 -41.325552130538114
0.5024029613841093 0.4291235353311582 1.1944917351204363 0.5424218188844039 0.7748383586251478 0.7554511075116264 0.39281000673284105 -0.27591408027572534 -0.6388465198471209 -1.2248948417795371 -2.8538558251000765
-0.6450728926872972 -0.049034312126865584 0.9553915914341831 0.9934222988362347 0.4773500683503536 0.8801302412969396 1.1674673129232924 1.400667498938261 -0.1710531612132397 -1.2469167751689265 20.033380934064237
0.004861664246515933 -0.5864599371479565 -1.091519638637418 -0.502495289819775 -0.22950109738316832 -0.19634798957835367 -0.45419531335469326 -0.4814883186200581 0.792972271366129 1.8027889240767538 11.132651395920467
0.8386148668452202 -0.5474415453518986 0.3720267293846956 0.9325442297888229 -0.7087421304388145 0.9514100887415384 -0.9587218927250447 0.4647061660079804 0.4174558980633394 0.8435300365312626 15.670019910977249
-0.5526044080994733 -0.32112073356438664 -0.5952766991356113 -1.6369635226006465 0.0791727421248204 -0.5061429547136499 -2.203067541804523 0.4014899910816089 0.2837203277066702 0.9097344535948949 -13.760580333766882
0.7639808426779815 0.7557453089264728 -0.8780851984319956 0.18692493060294152 0.11401898144855575 1.3812697353113055 0.31291340438241033 -0.7141403338803357 1.6308631534758986 -0.2432341089237708 17.234646588998878
0.48185116707727826 -1.0927266760720578 -1.2891921478970896 2.227636800031441 -1.5681293928031654 -0.5736144605106115 -0.9909539729918402 -1.18682345699768 -0.9060451882326386 -0.23960779912783325 -34.386547439756455
0.18140984990901068 0.8052734754411001 -0.578326282738145 1.3051884049994513 -0.5992563057627825 -0.009639103358365776 0.21302423268954288 0.23978449567630283 -0.5658224256044735 0.8907915348650037 6.804401994220575
-0.03504990556191265 0.13488725733024043 0.46847273125409017 0.38951282196542597 -0.22429826129820996 0.7520929980054567 -0.036176442226204523 -0.10161820468677146 -0.6197174403068415 0.14288408939043856 1.820400384510886
1.5597790251383863 1.3735268208530846 -0.5394537048416614 0.31799459909694017 0.589792053444511 -0.052977830528149236 -0.6728500710169998 1.4455944349474414 -1.024381086348723 0.5641624585411963 9.09438099497744
-0.506870742847697 -0.5425104673841511 -0.8512892277697587 0.09567213269653739 -1.0771316166662857 -1.788692781521868 0.8838265999553897 0.5395481800449584 0.18369235598417133 0.1617821913313743 -6.085337255745219
-1.3637999957918543 1.0395161910963493 -0.7194190225274953 0.7672818387996571 -0.3314893611310174 -2.0677803830694415 -0.8788042480855627 -0.3348064195005217 2.0139354962273246 -1.670487489791884 -19.65557583550222
-1.1062321003992375 0.6898351794342208 0.2743294351423273 1.7617407027431813 1.9519624730999559 -1.183433836998216 -1.4811270176914573 -0.17804849264817715 0.0810801608837815 0.02102770180558813 -0.9775050873941475
-1.1766929224116265 -0.2911106230947862 0.9644296069690528 1.2016639647244332 -0.1221171580129718 -0.1072410976032409 1.1266541586936423 -0.15218902061850867 1.0003954008065064 -1.2760607966262196 7.7495350522179045
-1.2138179750748082 1.6789242625419498 1.5106061167204532 0.6230271265104573 -0.22607070711364638 -1.2911491698306607 0.0433029237615373 -1.309317485129005 -0.6312631199138508 1.2067704378315471 -3.1419859608415734
1.280174741953468 0.29176708317737365 -0.3060371187373541 0.9875845915326198 0.7762281415083457 -0.21222346981110587 0.37550781814389717 0.630059147562791 0.5211852658814503 0.2562519711581507 22.520262386483303
0.9195051251052805 -0.20406807062486693 0.2258953130954239 -1.8340547778090328 0.6829777852062472 -2.2916742697892314 0.9971715133083231 0.4065101113910873 -1.259291318000955 -0.2914104047438924 -19.447074650452855
1.0482329621760844 -0.36712414246314695 0.7178776908968376 0.5690721605404168 0.6883651524237433 -0.9231547493085958 0.12464662882843808 0.0945594924905012 0.9076789688912856 0.28070544896628236 13.393773522152367
-0.7467095224714554 0.7968336109564178 -0.41154481341792654 0.8304443462674845 -0.15427529800111278 0.47094403688293945 -0.5294657736172083 0.7296437385605247 -0.3870176312079557 -0.18848039867118513 1.6499218384870098
-2.10175333205871 0.3093301342587862 -0.3985992381932034 -0.5180081842284534 0.3173126708238579 0.35005547177949486 1.2559093247800042 -0.9795318199510417 0.6366578591345935 -0.713244668644854 -2.570276470304374
-0.980306319093271 -0.6668916760871209 -0.023310475959960258 -1.2892561025365177 2.347350363075474 -0.7539155552669747 0.9065794631082381 -0.8501307507900939 -0.7077464771657184 1.9576304174070709 13.07382392437431
0.9675883222374035 1.738472692291794 0.7652586440329836 0.9407670614525308 0.028845949035619455 1.496160016785231 -0.48370589668239816 -0.45111366835683586 -0.42612684271511037 -1.6244079753632659 -6.669256693798266
-0.8216015811220054 -1.140375185203231 -0.5690949505120176 -0.47247306385085874 -1.7824245422948473 -1.9719620508022133 -0.30754717452070746 -1.3295197929030103 2.3598153764159244 -1.5708969898776821 -33.11445441755892
0.48408548153688885 0.9536500362818902 0.5575003673392392 -0.6787005835341725 0.05680469914788037 -0.8798811194070593 -1.3829875859329686 0.5156871697267684 -2.5042439116400312 1.2247744754639458 -19.29618836835219
0.7584040651513018 -0.5860029436921871 -0.14562377346721395 -0.4643033192543064 1.2433136384226984 0.9083635620075867 -0.9951325254372145 0.820995768981269 -1.37504759461752 -0.47347196096119726 -9.603342677553842
-0.15218733551851513 1.4022448450552327 0.9523613490082669 -0.9584426670511746 1.361569217311234 -0.08998773218064772 -2.394865175604709 1.1103424153217065 -1.145594625096032 0.16291381415013167 -8.295306025602349
-0.6860326031369033 0.3749796035064481 -0.7770266811912028 -0.7688206016591823 0.35578522830343123 -1.433307362128197 0.038167555624439534 -1.293557722868104 0.09071080364576778 -1.3600872879964243 -33.880229511567464
-2.0838801461136796 -1.6775205976861698 0.25352270037514407 1.0211750353795335 -0.9641814415107101 0.20546782109136422 0.49182622866601794 -0.3501429772738014 1.3063141511358736 -0.6625710159036453 1.0431010185931457
0.5810477196726657 -1.6498576824653457 1.007489708819251 1.0809309881071492 -2.157689785493582 -0.7320001413254897 0.39146834328318414 0.48405325159265145 -0.5350662312511937 0.23659756783268027 -6.280358834068367
0.2937359069188582 -0.1881037892547211 -0.43604063404567844 0.05325842390709835 1.058993235543559 -2.63408207318474 0.24124871751376742 1.0624857596261013 -0.32499989823697195 -0.5039444267914902 -8.982233106703607
-1.7842675659526919 0.2777667289852561 -0.03870504568552428 -0.6124738427534695 0.16431575566398712 -0.3193112656539634 1.2737084384114388 1.145123523008488 -1.6826447582290718 -0.3384225513363456 -5.295659925086747
0.1200569246694892 -0.24362728025373453 -1.3476289636729537 1.5060381954652855 -1.2852404619136284 -0.27900088805379225 -0.5074595628169194 -0.09078167725004195 -0.5553445375123677 -0.06640238575276838 -16.630101821202363
0.8730897512330208 -0.40563655440158025 -0.01387512679332 -0.6874956033093773 -0.6847535026554112 -0.37336366161090734 -0.062344386011891864 -0.6082699643409336 -0.4831754035364967 1.200249047371258 -5.3264220621843315
-1.090599319807851 -0.04297627441038499 -0.0020976927068052697 2.041028709663918 -1.6335182423931742 -0.045980833536643784 0.16574371510900537 0.4657050192102668 -0.29704921167906556 0.15422399967368744 1.4461848984152903
-0.339211823442962 0.22450766131060285 0.4015409831542468 0.5762704538446212 0.23642929685200964 0.38932836942019916 -0.4594095702974972 0.5419410863466722 1.076834248247123 0.2131350096975353 21.95722440766996
1.2107214227604246 -0.27637268722421265 0.816136777261103 -2.1152813972374975 1.7436413226227803 -0.3879575688753357 1.6638823861300893 -1.795933857578854 -1.0808771884694717 -0.6296671721300696 -15.92499069075851
0.6448372708792894 -0.5128380751270121 1.6535331035818182 0.059697189757105334 -0.981909237475784 0.9283144527815564 1.969267736560234 -0.3672654205603847 -0.13284649870963436 -0.6159331451646899 10.183420301313806
0.8354995626015432 0.0787502621901939 0.2238897503308751 0.12268028848101178 0.4365157633344659 -0.4958220769508282 0.11866462744292938 -0.8628216367226531 -1.8881649893753443 1.6747865153176142 -3.9177068796004235
1.4019772359053762 -0.5542661645842715 0.5992112872725709 0.07974258604556726 -0.0023523441503295337 -0.6059335551312354 -0.30808827945738765 0.2844839035118197 -1.1238089100065254 1.5993285837192932 4.669869708318615
1.0278389796996066 -1.4113937038237163 -0.7572728119398751 0.9119910402926338 0.1811954062248548 -0.17964002287610906 0.9483535178827498 0.17469204371185498 1.6429853050147152 -0.4619314864844506 18.105596400816587
0.4258865925034979 -0.8488544868515913 -0.5030331970175738 -1.9806114636987264 0.6621381846541735 -0.4653535902172018 -1.1917637411471427 1.1366806390791264 -0.36991905197808084 -1.359816765266984 -26.465576779380175
-0.03696762298118893 -2.7554407145698208 0.35917716060171584 0.6814874320029976 -0.20815449456399024 -2.142761968457872 -0.1085820873334837 0.1553574738793759 -1.1751911939787019 0.5539862039670577 -21.19699816925953
-0.4123984223899774 -0.07264587375106099 -0.782970325411632 -0.20139530304006706 0.9870396961641017 0.5733343011765197 0.06980323827358069 0.3164702959280684 -0.1882827632943058 2.2243315310419134 27.70429031291089
-0.28192949397739 -1.4140778043160442 0.4702036053483208 1.9091412532717251 1.7183864109920324 0.6046123549710495 -0.6050877979367788 -0.2861199631127125 -0.8703964035432372 -0.8125444879277534 -3.5850898255374712
0.16929011007818812 -1.0380537252410091 -1.370566102605587 -0.0556906328542334 -0.18808401431244803 0.9477946289964525 0.2898252611245833 0.8732520125605316 1.5889195907709308 -2.1635565239383796 -0.5450919131539678
-0.5148064074945694 -2.2178506188538374 -0.8820097311218718 -0.7251063491284293 -0.17400936241148737 -1.114602865500083 3.044828241024815 -0.20388458975603987 -0.8421581861588384 -2.03864065480637 -25.538781454064708
-0.6433586354652142 2.163120385568997 1.9394101545547355 -0.28422680094547614 -1.4965895869194796 -0.7022320629860185 -1.6458323656884317 -0.4370577583749882 -0.5566272819455398 -0.08592659224801014 -25.360798991930046
-1.209564396543061 -1.0218890078109597 -1.4702056803231818 0.4187209196161964 0.5566218904029674 1.3384601653604915 0.4948771040834492 1.7833577638998523 1.1093205088709353 1.1960202590114142 44.51536377700455
0.8569134938449237 1.11305025034836 -0.8123826313732732 1.5232067438769035 -0.28241113333895457 -1.0098397699661694 -0.2585533396109069 -1.425848477650856 -0.4637555436486293 -0.5235206514654749 -22.67565554356792
1.5234209584894558 -0.021661061198321865 0.6781152080085195 -1.0718746436548898 2.594758854789213 1.5358022679797292 0.6459723605620641 -0.7368772009107134 -0.6603996215756295 -0.2754707912486376 11.84625382215164
1.1248835786727074 1.8649178459603906 -0.4325284433607984 -0.07144458471640816 1.4634490410041165 0.2025941841344661 -0.19612973059542843 -0.5916613129437144 0.3576924377756636 -0.03363562047273914 7.457607650843405
-0.43831076042150663 -0.2811285240600045 0.13194034830104184 -0.938217682661708 -0.19857769731202682 1.8979067524341056 -0.5667173071459202 0.653092469929672 -1.0932415125165478 -0.14083306783219496 -4.891235523655601
0.6350998763668243 -0.06604119740707877 0.041453442075250764 0.7845405789044053 -1.3822058430564435 0.05233791447208174 -0.024251297048968775 -1.315651048322408 -0.17336507480653293 1.4239936760439427 -1.7633652828194073
-0.07771574930253641 0.5791855812610622 0.5044167162365387 1.4751675560239395 0.11517857913774691 -0.05413883265573725 0.3290631569573817 0.21389622716970272 0.5813678946410135 -1.518047003705031 2.708378218808827
-0.2645923088359119 -0.8199470166507141 0.2540553856860974 1.9508685600959257 0.6947881461216999 -0.5433907449007203 0.6691281698165698 1.1372177595670092 -0.3601330678737659 -0.06952510570706182 16.716638906081247
-0.8037425096455572 -0.5487988414393907 0.6519290101261423 0.31751521046025993 -1.308197335276668 -2.005194560841162 0.8106481219167316 -1.2758634310729997 -1.9353752325048343 1.4180214631548176 -26.757278559282277
-1.8058788590778656 -0.5661752138117655 0.1689165226613321 -0.5219808825108733 0.5007781766628152 1.1479103548493372 0.17689498612420768 1.3158872519375022 -0.9166835472196867 1.125108117142346 19.345854380048863
-0.011797857194931717 0.13451827736757205 0.6243875707003745 -0.6080974343759177 0.642866729298674 -0.008040172577229757 -1.1518925276857972 0.547128637500204 -0.19642961218101984 0.2263793960814444 -0.5191615490154398
-0.40929456488310384 2.0612426796817513 2.811971381941575 -0.683109198186033 -1.29587721731827 1.186097916667749 -0.02475197354521522 -1.1157414963123806 -0.4780538483177521 -2.238888621673139 -24.91115949077872
0.7413717453714495 0.5594600812825651 -0.9645347844183292 -1.310999046468205 0.7324679657978336 -0.23434554065398944 0.1868566351964141 -0.7125983448221499 0.044025919527597504 -0.42094384461929235 -14.168112100205553
1.7874920531740177 -1.0710940587015454 -0.18599234432412143 1.949145470365687 0.5430385670304907 -0.3094185248438114 -0.1683881998649182 0.9515906867386648 -0.5516364622728787 0.4044859127078568 12.555055622542707
-0.14203068741182365 -0.7963696061796101 0.31055666139555 0.4890152747196026 -1.7812149318387376 -1.1033242754643644 -1.3844051476894674 -0.7950423931600895 0.9343302334564972 -0.635029173298047 -28.542467774470254
2.7112106165229943 1.6783212668145033 -0.417301770346911 -0.4911343221140944 -0.7629150591190508 0.40243267553789386 -0.25987466797740755 0.01910527071732838 1.3566132943796336 -1.667797699026344 -3.0353012364087384
-0.101686225820794 2.273774111905052 1.9324635374081036 0.38086848648951455 -1.0674039051508195 -0.9352939599711513 -1.1991649756337417 -0.5128302871282172 -0.1441596693399626 0.23864994263902967 -7.69269702482455
1.5901288511441465 -1.4394581903475374 2.0368172314200317 0.20427416747528226 0.15192692244045877 0.48317167536438277 0.5263390156516543 -1.309335193890916 -0.7039428144320216 0.02025537514399046 -4.70910139443953
2.1542853038476903 0.5597791166880893 -0.6184358276122861 0.17074067876764265 0.13733747197720422 0.9528139557037608 1.5601890838571018 -0.5810724955050826 0.6897397999769651 -0.8619201219413322 12.784282365039017
-0.9976621467957795 1.3777442626332794 0.2832764622081417 0.11655842538467663 0.6012034893008844 0.6934657062517728 -0.07579794787952178 1.8273697689443187 0.46317569178463924 -0.2023591630215359 25.734070131095052
-2.259982341567311 0.33611845126774065 0.08958036374575214 0.34864529429185376 1.119989286266244 0.8751969044728103 1.2433472209262544 -0.4782886637793072 0.22039291712030057 1.1757302001482106 30.192171190596714
0.35241890878686466 -0.2652889000190339 0.8494751551699059 0.7155298707545715 -0.8337690764127222 0.06715633382632377 -1.2862055999405424 0.9755566914999174 0.7416187415693847 -0.6105495716495974 1.7865938554237495
-0.3385125681819323 -0.43430029027918765 -0.1547244622992947 0.04679968034163008 -1.1707841124230256 0.6223334844062761 0.3144742161981903 0.38428543394617887 -2.603402850499433 0.7912349581492952 -13.515014428717736
0.18675400038840925 1.1249802547381282 -0.14376103674980345 -0.8746872844909436 -0.7297141490273567 1.1574417993959796 0.4891002246550219 0.11193696403386891 -0.1510675138167757 1.3606506237210696 19.29427426187871
-1.1732156991743443 -0.8590383028275944 1.0553599333488282 0.14028571484810684 0.8707083611177083 -0.4566585122869053 -1.161112432066496 0.35205904019987605 0.47017003290913517 -0.5248550099556978 -4.145902812730771
0.8127560944219412 -1.1293665526170547 -0.13205021145829485 -1.3635823335291661 -1.1757333865488162 2.0034956488202136 1.2397445462423238 1.2475331683339355 0.28574905758687424 -3.116326983944134 -14.071241108139404
0.700481785746276 0.5279454813697116 -1.0390164366693708 -0.2404111644718776 -0.1051312840206322 -2.0184041169832505 1.4071468106543517 -1.2389877721772522 0.31030400347679615 0.5294604985988609 -7.728650250605014
0.3818392777845555 -1.0154404183470538 0.6583014906270387 1.1697070658741187 0.2999117856685205 -0.9713025772560916 2.350587878307869 1.347366878865744 0.2680013340584882 -0.20037626726731797 28.73741540597191
-1.4258884408991532 -0.417989558945163 0.00011207766846272277 0.5585645888049755 -0.9545826579659211 -0.33176911506289325 0.290326210887323 -0.5838555793778746 -0.29811649666780055 0.18551117851887425 -9.834585954230697
-0.7031042469529933 0.7152810807420503 0.6843496184165759 1.1224142054248956 0.8008296370282036 -0.8867023652173152 -0.316023848329112 -1.4412603020128296 0.7880428078934657 0.8124280114771003 5.358077517229619
-0.14268029107385233 0.25358455853163064 0.15770504115283082 0.3167731049648906 -0.9382899668571829 0.07195064508146758 -1.1660518119588585 0.6908274927468985 -1.4229109388850723 -0.8426699352489856 -25.188286104997896
-0.6537649451878367 -2.0226742353653178 -0.3039844868292809 1.8628409973020796 0.21669878469541834 -0.11918616230387757 0.5627596585297664 -0.12895682137069966 -0.1269738187360607 -1.5766739516332453 -11.327088401457466
0.19527136913171736 1.3744353513085494 -1.3519764828691117 1.054842383965664 -0.6448358838021416 -0.15947487878071678 0.29192033668086975 -0.4244149618702249 1.3195754653587548 -0.5049086991971701 3.536964093721954
-0.4758982185501726 0.9002045194418207 -0.6654582096617723 2.0270387539029833 -0.0991319376274931 -0.19428973576874792 -1.001227357805581 -0.5810377494978493 2.466169991348375 1.2445503458845655 28.079183178437837
0.3267400451091158 0.6534793452366511 0.4073551383785367 0.3230960703972347 1.5635885604466802 0.7629122864637791 0.37716176435860976 0.19856679990209036 0.8658288368642618 1.3419871484443167 40.25275453404383
0.38799858862084874 0.41178413967934724 -0.02713248566650271 0.30713745377827234 -1.835397539984681 -0.7471675679102969 0.19238900021100833 -0.5642978011093512 -0.16023537290762155 0.9359617882234377 -6.320881342484931
-3.093094839946255 -1.426531262969499 -2.310952458520656 -1.6543750751398003 -0.8108294372033857 0.2865779259567205 1.2847066992259055 0.17501527856287089 -0.3837036214199142 -1.3317808136792035 -27.110557477257878
-0.567775941600205 -0.7583987035971054 1.6697722133192703 0.9997424055453584 -0.7741045708248055 0.6106228990549231 0.9546412007081735 1.6993569733628149 0.6806805904238262 0.6194393467253937 39.72389060933412
0.15820407773097708 0.4762758731170639 -0.2533447388925602 0.4157573548877536 -1.7885779330510059 -0.8927417300826362 0.07838250772060253 -0.7138778520135924 -0.6573318139430787 1.063055382330291 -12.473573607286596
-0.8528240661090611 0.21142718506829994 0.014132382493658646 -1.6307448026646074 0.6584485245071826 0.681317576278925 0.2209315621064021 0.8819519289011061 1.4413197424341848 -0.5570939987666108 18.14498896066077
1.2650356929705953 -0.03156054502078356 0.2483764230910661 -0.3582956081344874 0.1880646609487067 0.4759601003718233 -0.8386282678661092 -0.9084832010042064 -1.0987891003167232 -0.936927439922669 -28.59497516198026
-1.6055057846591685 0.6762933502786634 -1.0762783817981207 0.3316402209561046 1.0163371603555191 0.02960448014368247 0.6005151077743648 0.8455015204520462 1.4646541042408696 1.0020024204097362 36.902692272410185
1.2416338659403445 -0.662967936792548 -0.0597636962996349 -1.2637038807442982 0.10248322190431212 0.8596233519936214 -0.17179388817307395 0.9674590978805548 2.4188084964859518 -0.3928479383723849 21.791083776601717
-0.3721469782249518 -0.6600223107321109 -0.7973910166082087 -0.10118458584878319 0.6782613921196883 -0.01909358653838677 -0.9249475684877423 -0.505039041528484 0.0456835272246736 0.8990285979557865 -0.7218489551224305
0.0032556622825007935 -0.8139116530132471 -0.8608643671124723 1.465054285071396 -0.9389242194720057 -3.4551186799980154 -0.5183606404192647 1.169136232401477 0.9128112196863643 1.552630780509783 4.96094635721996
1.911737387248237 0.4886404685793306 2.0442485388560003 -0.25862601997543727 1.6596628287936055 -1.8168446982760589 -0.0770572967854391 0.31953287555776383 0.43547056453869476 0.7647150855923968 18.88663132464272
1.0624775992865323 -1.1048735142567478 -0.9801123917737272 0.476569624689935 -1.254052987925684 -0.5963604491277864 1.124483179285174 -1.936113432458765 -0.050363725842397684 -0.19454151884998 -22.175286622251242
-1.4325769676627504 -1.2578560504546616 -0.09587192556034545 0.19671631930420433 1.5513966451113526 -2.338672143756807 0.9082030039335013 1.30080293648796 -0.1810652077892846 0.4673741316574386 11.099651690539577
-0.5535976062426061 -1.188901563370054 0.792536867397468 -0.2871610402561131 0.9378754062521983 -0.4444387411960331 -0.8814521903185651 0.6235819434260308 -3.0840234037283625 -0.9946844753181417 -38.45791422017259
-1.4819609375980245 -0.28083521542667383 0.3670597993505573 -1.3122282984334088 0.4796306591399012 -0.7667795040054467 0.7465332650482847 -0.9406802183637453 0.4253144002844593 0.6864127822676478 -0.13603342096516347
0.37934745782208923 0.004658510010848608 -0.29768554109013795 1.1026592061942877 -0.14706040993616382 -1.837300313106003 -1.1370122548332071 0.760707791978849 -0.7559138873461779 -0.7457741730770973 -24.105418740154565
0.26120235313001466 -0.04600255685581611 1.3664931750163933 1.6673365218685223 0.645850958318749 1.4139484443074497 -1.1971679777698911 -1.3572475231425472 0.45691309225221216 -0.7288538023234145 0.414882788799547
0.15690593181816073 0.1285226234902191 -0.5707795660225137 -0.7749651219962755 1.2318688050102988 0.7109248448959447 -0.11155588965584148 -0.9486157508909022 0.14669649545836946 0.06439128482423177 -1.8896761295954014
0.2357819500762769 0.8982808824668256 0.603588965355442 -1.5120124079312829 -0.16790804984961838 -0.5079385186381813 1.0298847008541019 0.42065753907114894 -0.6607308835303664 0.6675231460195472 6.1554051884175465
-0.31546564415366113 -0.9709311774683345 -0.40541864477834927 1.0618848846388704 -1.148066275499641 -2.128132800524261 -1.8501692279960733 0.42938250546013984 -0.3756972384119439 -0.6736224772328508 -38.0060502021113
-1.097469264034631 -1.8218425640661058 0.014714060945261313 -0.9049353977547042 -0.6971620146192249 -0.18881932824193068 -0.6605097524520633 0.6741024933213645 -0.04301379799115185 2.740876916855099 16.412778040958024
-0.038602064162023504 -2.0737870893403922 0.31037564190938827 -0.6933805005100351 2.89668598264244 0.5160835694403472 -0.3294580144888803 -1.327943994728622 0.17895716179687912 -0.9434139030808881 -9.759707841966824
-0.47461091354546375 0.6730027307559532 -0.06600109269901128 0.5238453548349924 0.10831291520438163 1.5812423292231534 1.7875236004329766 -0.16765574377400794 1.307065264457613 -2.4317643809112894 10.953105610504792
0.28540178743956224 -0.7646764928179575 -0.7164011799280448 -0.6481582087706713 -1.0306143104991632 -0.45217999644510876 -0.3144329876148656 2.2775487428071077 0.6592959018030268 0.44116622447366366 14.258858434591428
-0.1977896158449312 -1.7737575289832448 -0.5524124931405087 -1.500537813888415 0.2331244602821447 0.08374679176898613 0.25090329584664584 1.0154024933508567 0.15467438454334329 0.8388414085623367 10.401000852997111
0.05550613994656039 -0.012063854242521363 0.5139785082789142 0.33444078304696445 0.9720695532736741 -1.0596170202809692 0.8881610168504938 2.677001614891335 0.03704123269933286 1.2242084447912598 42.79187010972773
-0.6180009897360643 0.09199037479807785 -0.18102048564655257 -1.0011996086106185 0.6915109926599493 -2.3497710992703467 1.1054183033707343 0.4804227307094911 0.9123635993250894 -0.38122783378873915 1.0254608148208377
-1.353847098398808 -0.7527677557680591 1.614232985101198 0.1695910239930692 0.8118587598196776 -0.48516715701281155 0.9784724360064285 0.06531052740791464 2.4780872368534137 -0.6238916839286561 27.921633658701978
0.8456550132292907 1.5695368783111194 -3.5906198274379806 0.7526842967348947 0.9197623463950413 0.9622115505963482 0.17144981541334728 0.6905672917421358 -1.266944239877104 0.5268813018322706 9.215012477119952
0.4431469898392459 1.430733046576702 0.24961754538366596 -0.6978753550764452 -0.9195485398994354 -0.7363043309817254 2.7456612777873617 0.5663624496445103 -1.2351198602399824 -0.12189228070390146 6.376084621608651
0.37151039292260135 -0.19592444074790072 1.9517084877485829 -0.7772837462635558 0.7212051924108684 -0.4937582256021174 -0.7100317504838828 -0.254606677080875 0.7528002349309013 -1.2128627890363277 -8.32707730173824
0.6837508475792455 0.25022685914542747 0.3073623115575307 -1.7431364654059165 -0.41352571403144706 -0.4834765258137157 -0.25494994294207285 1.470872350955273 -1.3659518603117105 -0.7076074748846994 -19.39833422530054
0.1541417505261103 -2.101647985545441 0.6562055530154504 0.006890907316770111 -1.5567114102075912 0.18872138065351354 0.13721607841319175 -2.1169292899105994 -1.1027121646033315 -1.4003306594514644 -48.02621070237022
