5000 30
1.234635822109746 -1.2843988284092067 0.09142378939976446 0.49864154435148444 0.3644948290499994 -0.9477994962681018 0.008959958778511348 0.8527515819840944 0.7445658447395381 -0.9314957377673859 -1.4699035087008565 1.0500569021749695 -1.7273237016009273 1.4510306829906099 -0.2377012254846351 -2.1101287951592274 0.19643681672180083 0.388212112253666 -0.6944443035921021 0.3084045743025704 1.509358130943972 -1.0640884777921749 0.9975800444253315 -0.14972405935248703 -0.3412350872333467 -0.07550099442888913 0.8260109085453154 -0.17216397167763517 -0.26358665535632236 0.9927595228763332 18.003787779856363
0.5841390154870064 -0.23783846103034506 1.1564976111626746 -1.4170011910265805 -1.9634206412601198 0.45269603457118623 -1.7986109838194106 2.190921909854166 0.14248389496504377 1.9018956962895586 0.5509847438966374 1.252123738107053 0.8593028207671285 0.5573787242112603 0.6579528840162384 1.803414354936231 -1.1718805225214568 -0.2042964652925086 0.7057630151084744 -1.1635800629111237 -0.50019599402885 -0.5915972167490282 -0.5244528283666532 -1.8174258236022591 0.5763363225344027 1.9328121756149501 -0.34240056570047467 -1.0662294388162832 1.2602711335084278 0.17403029537623693 49.41126799190873
-0.030034323238954636 -1.2834152023908596 -1.0746424686848055 -0.00045656814750085314 -1.352818306147041 1.7189025950098697 -0.5365113857344909 -0.48369162925827175 -0.37372687047241726 -1.3325064423571042 -1.1462487045365677 0.31417884176698285 0.818367804922452 -0.4944334910130021 1.6811991202857788 1.8142325502523358 -0.4450706911522761 0.09556136223280018 -1.6170386735083606 0.03827950099785516 0.2741322538267862 -0.7602663195502843 -0.7002011342080835 1.0050016832472692 1.4184090630502693 -0.14302283007539637 0.8719816444850903 0.6474705249655508 -1.002005360447178 -0.338443409243842 16.055893229180885
1.6061551850405378 1.6817197676808293 -1.0906551942749625 -0.6252003514939408 0.5047321578130195 1.437347989982901 -1.3325272917098325 0.23987254501742694 0.4338622481323772 0.22596673857116248 -1.8345044518523084 -0.3975635718539014 1.395120617128062 0.8039452693949268 0.23758876953240693 0.040579098673207796 0.7432864414952802 -0.49259595842751014 2.8449050466300987 0.49202923439554475 -0.521219872784361 1.3068501492048819 1.8992293570695626 0.03545781469277717 0.3861799140441938 -1.0816923197936543 -0.48533314382142084 -0.06153065762164348 -0.3698264638745916 -0.15305169214753622 100.88212433731319
1.0599401192141444 0.46420643263142425 -0.6612432531167869 0.39797347029249475 0.8808972219991259 1.6024016722238956 0.8921277045627249 0.5171825068104717 -0.0967448455731892 -1.5450134779780116 1.6560143190372336 -0.12961003855690043 -0.08269385100444769 1.0433237974742446 0.8679988552527329 -2.1452632266064295 -1.3348223119643938 -0.14000196229969586 -0.0892050320860472 -1.826771336439103 2.0364549918361483 -0.904650027634352 -1.0091068938316852 -1.0927982446482252 -1.0673617984480204 -0.8840472758143205 -0.07632987982583951 1.6536996275703872 -1.5498134862919009 -1.8521135942612135 -176.19073530839225
-0.9969613576848931 -1.9343207906354523 -0.14349327482433058 -0.23601190169843336 1.3866078062511495 -0.63992970353899 -1.369369643023147 0.6617894837622352 0.9757513555623503 -0.7073792668963568 -0.7290973787193437 -0.3697559513193726 -1.184043834715843 0.08070059049641114 0.7129619534221421 1.0640484469885352 -0.7032154903307708 -0.21440266363638713 -0.22452385841274314 0.17991746798031155 -0.298562063428873 0.5269201633042198 0.39223229942550036 -1.5058150475963443 0.5554741255538465 1.4468449410865292 -0.6020158933166648 1.66412616193239 -0.6535656720997637 1.4606528182114533 63.61267487139797
-0.3895802274937005 -0.08740821202816623 -1.8922579388161684 0.08150051508821138 1.3683299177293209 0.44186008303534857 1.4960526002425183 0.02917905991778824 0.14711911482336068 0.2003286136352948 1.0124701476816125 -1.7547997311429306 2.210743419071701 -0.39235865894654887 0.9113127743018958 -0.6705632337735954 -0.5775590233715763 0.7568127984759224 0.38272274548542595 0.7615733205579066 -2.007713175730869 1.4452955456603895 -0.6732778962875686 0.5293951144196715 1.6435181126005092 2.2736575148707745 -0.06404788187663654 -0.7977231638511364 1.4005195020505892 -0.08022258887700527 161.02507161902776
0.9041723712082154 -0.7692371168682848 -0.13555083184504932 -0.9071930017328448 0.35237501731645576 -0.01989107583356909 -1.5134075025897806 0.20024927596290856 1.7474290497817222 0.16484862015786175 -0.9034043640905615 0.15709513869564246 -0.3297129100268454 -1.23939720952068 1.5590564285017525 0.29766210509793284 0.7222095213298478 -0.5270688203125344 0.046167931367349535 0.06974351798980735 1.6363294753027449 -0.17536716511021344 0.5165314692523034 -0.05382576838686505 0.19214354534546121 -1.599563777815812 0.5866266931439856 -0.4303950635579851 -1.2393484550463971 0.14302272373394198 -15.681285728258139
0.9180569060057406 -0.7095298899562275 0.4410153125643127 1.6191909093883223 -1.1822509296134198 -0.30267867260518155 -0.5774386397703808 -0.21617419177560718 0.1076066050098695 -1.2419950506921966 1.8116327105005083 -0.9300641185166538 0.45086778916823855 1.647538354349826 -1.5540119858879544 0.147610351485536 0.5774807788613825 0.803985495725344 -2.253664252021158 0.8672147831469895 -0.36800041279335377 0.9592806600176604 0.4524529961402592 1.9004353431008927 0.08772112607541965 -0.6917470824514151 -0.2249079504546705 0.059930790238712214 -0.8739253512310287 2.2550607917026326 90.55052028696404
-0.5887531593920778 0.18834208075647974 -1.556291525334674 -1.2495128601398513 0.25905894251825756 -2.427367506746802 0.9684128755191164 1.1289871649971117 -0.4161524519185191 -0.2617654840263646 0.6968953809691997 1.2504627900594418 -0.34583246271183077 -1.2080140773281751 -0.31909395072098873 -0.6761562863000559 -0.7676303166031981 -0.5631576590117597 0.791417808005319 1.415373573578318 0.07153153303231394 -0.11760179457237958 -1.7193752907631874 -0.07626809479200702 0.6070706983118667 1.285276051003898 0.2999411795503451 1.9190396388855273 -0.7029319272436214 0.045559232910618766 38.716536508836576
0.2924459472576956 0.1704656124790783 -0.20469552544410605 -0.09765012741370598 -0.5216151667323665 -1.3470750063580836 -0.30495511866552194 1.585796837460829 -0.0593835353174938 -0.3320838962845549 -2.654824390599835 0.5200398060392821 -0.8728670858989819 -0.7003265393963243 -0.7268668527916241 -0.23365074474632838 -0.013346123094601864 -1.5973786265257883 0.1147174110768615 -0.4890546002043994 -2.8270194013968752 -1.3349851414990115 0.36388679012795666 -0.5668563549983267 -1.012182083043802 1.6498071813727178 -0.36703331681180434 0.21257229066451863 -0.15762655142339388 0.6009531310308807 -167.78763357063542
0.12376163516590154 0.024118675312733196 -1.7167679971549175 -0.8745228369996797 0.5060843272815525 -1.0266117159088837 1.7891400613856947 -0.7907254951000016 -0.6862771147222183 0.233826617753681 0.11993832985233133 -0.26323315104338746 0.7345841166643913 -0.07323584293501242 1.1616350001083977 -0.4157136470053463 -1.5475332589757411 -0.5007050263109561 0.558732516065277 0.33081712166748006 0.6265584133376605 -0.9606757893016288 1.1589933111895223 -0.9617760950503997 0.11204261642120412 0.20081244609978305 0.30283364788874806 -0.05974158283113638 -0.4664483883015337 -1.4119071742303195 -56.01397388660483
-0.1732286840320954 0.8998975550064227 -1.1592184546349726 -0.649715942472694 0.25880076906820787 0.5144880289638931 0.8047557594113682 -0.516470997843912 -0.0075317426571301005 1.1119148834211732 -0.6211791030198874 -0.1712316140238187 0.2509319144482508 -0.18802450073013535 -0.36233597510835625 0.8253122267636733 -0.19287610052428708 -0.3249446312746521 0.4618283042049912 -0.7366387644370334 -1.6204387918958336 -1.3174782850355293 -0.6805315187428538 -0.1723188252001129 -0.7044115641164465 1.1395586900605 -1.9433020382546304 0.07752783666471096 0.5840764444650622 -0.09212748384616501 -110.69089598403644
1.3249323468571454 0.43463878469904604 1.3990139478353694 -1.1944343418573 -0.9443761262990976 0.6209163780616466 1.618529283594275 0.29474039789195444 0.01269679130919295 0.6930149835492619 0.4693102203241842 -1.4265820912988942 1.0283663698030245 -1.24072174818322 -1.5517985373045258 0.7882323837752888 2.106982450351833 -0.3675637676880985 1.872508433269549 0.021903302132980883 0.05221345794744671 0.40098794173259433 0.582207616890084 1.1855631664155886 -0.8959046178834923 -0.09849057844831022 -1.3063177603156517 0.7511168480818049 -0.4195064842551471 -0.9273415312155 32.77460246846001
1.4364849884910043 -0.44346074615177955 2.28364956130042 0.016349588795968636 1.0600346013949975 0.3452568406728387 1.153277244510055 -0.1489814311644748 1.4169504234858419 0.7447891467112557 -1.3842768278026993 -0.6894347740882738 0.9047038384712168 -0.07612075907998198 0.1580948798164399 -0.4006987816819207 -1.6169276853770307 0.31183482873747603 1.7364669565735806 0.38378069451692065 1.2698627544458219 0.003099765328802716 -2.4725045168348183 0.343738342735437 -1.3708340157213486 0.15403802102430478 0.6027852475957446 0.09055867308703107 2.2365341009996107 0.504171248787767 88.73701535741368
0.09668626288051999 0.7004061335721503 0.35257758019685875 -1.5209381401511648 -0.7670760799413676 0.14786612117297668 0.1986442748979541 -0.2049336891646633 0.08222694533724684 -1.7212510276495632 0.03212900510551741 0.8816742084327291 -0.007391803559408461 -1.6581302689303214 -1.8070725844633704 -0.6530402898830314 -0.5401301875885495 1.0152875033969977 0.9069703478826354 -0.9853635712450936 0.5681560192871753 0.685792168512322 0.6475184787883347 -1.9320371969965615 -0.9104514361317738 -0.7097929928204029 -0.23414688786036011 0.24807238803083573 0.11641622617765304 -0.010431673731564993 -108.59111571171002
-1.4993774926886376 -0.28978031231487905 -0.4728215147814954 -0.4637282569149027 -1.3800554787784032 -1.3915574935162067 0.12207118718381532 0.48319413774144854 0.3782347985433622 -0.485011399968851 -0.7875898882997958 1.1025567734708532 0.28585886826644097 0.6549644973126829 -1.4749927445911541 0.08513616291522168 0.12452122643945338 -0.0801820729698751 0.44165864351352024 0.4115644070906233 0.11681836672413323 0.6089834282989572 1.1526267535276289 0.9086341359474001 0.7113505077186784 0.3779515436898187 0.4679140775585581 -0.7672705952358485 -0.14268217362662425 -0.29264871372875906 67.0082813039075
0.4683302403835396 0.12217462911508513 0.38301855335878526 -1.475142119545019 -0.4938757862126298 -1.323225659414484 -0.9935792036388712 -1.1445836843638124 -0.8258057076353134 -0.037848938272669365 0.934995189722092 -1.3914123358914605 -0.1503046647411895 1.2926624141192349 0.6144354932347886 -0.881906748368712 1.8049446508483917 -0.8465489965438923 0.7983244088196084 -1.0954636314419357 0.9613621714417618 -0.5496202447551233 -0.28981412530245554 0.02474971653305328 0.9812886955359179 1.7303172492678607 0.6709993917706887 0.7946205729540526 -0.4592250680673593 0.25610719090230405 80.8741576378283
0.8031833155704728 1.876582649172949 -0.48367477630070205 -1.194468057397241 -1.437444573843602 -1.0675162127626023 0.36343738371068013 -0.42104471743227423 -1.5919548403333394 -1.1362596191860708 -0.22117418199198635 -0.9757608246842534 0.1915121250145691 0.1554232413143635 -1.5049916621890245 0.8393213055512279 0.3322479119965636 -1.054293375509096 1.6856879998135965 0.6315304809353175 -0.7182185010416848 -0.3721837106098135 -0.32210793863510284 -0.3739424576945556 -0.9012385552041855 -1.3087472522878643 0.1559363605469065 -1.042597496487409 0.895876624175501 0.5636396838503885 -108.30442641820862
-0.14826774646376112 -0.3608556563424773 -0.9545789702852409 0.16557260978268812 -0.19112810653616027 0.14891226397976864 0.6030533809909253 0.2517616421280323 -1.1912536435234844 1.1595422541663936 -0.45793054187110827 -0.5449763683537137 -1.2377470798825498 0.6790229931629441 -0.26619282464728056 0.2835567935237138 -0.48849748489889755 -0.7819618989542633 -0.009560607804985004 -0.358838827968186 2.3501888675944698 0.7850226096101602 -0.6451082676758316 1.7001182381193582 0.0776816118702531 0.20562272953174832 -0.4908257080439415 0.3663791448262119 0.19624487617933764 -0.9236547180677441 31.855303764153767
0.07192553962168168 1.1063469824855314 -0.3740736901388824 -0.18393191675320664 -1.3880139858584168 -0.9313912669125038 0.09754723520679143 -1.096668728961272 -0.5759756282370417 -0.723779536454498 -0.26579395469375655 -0.540644026194763 0.11440065175758873 -0.8898787367912065 0.8518119202205294 0.5388840926827401 1.0816963544523899 -0.37775344120106613 -2.2401711769852133 0.19519374236475945 -1.5612292809123756 -0.2891423110134974 1.6929049561768217 -0.9857281573119799 0.00663242211378454 -0.43763826144953566 0.7762909828070458 0.33355741371872055 0.17089493286716578 2.8675863294963206 26.767962861898965
-1.1812363451177588 1.4285747786329486 -1.4411144745773834 0.8007822361139365 1.0571487819894434 0.4512659711469102 0.4871664825714361 -0.8091705620048012 1.2950905385979559 -0.399271697632115 -0.8149942686626217 0.6532364811498464 0.8164976108142122 -0.31518723190416287 -0.0008918850060995318 -0.37572760289783275 0.4918917090569588 -0.39644552650220427 1.4430214838514048 -0.10358009936219305 0.5831851661478945 0.9025110766626662 -1.7956280955505994 -1.5931760531122128 0.3816496745551582 1.641906511571184 1.14452244094803 2.019422083743746 0.18460679032267313 0.5989190884091086 154.68825382257995
0.18173868673586074 -1.1434217052577231 -0.14269565505170423 1.3627206997995451 -1.5544023202433694 1.2328217033182796 1.156050066406598 -0.3020314044042847 -0.8992651552669235 -1.0038981464392829 0.3565307661620566 -0.5062482390897822 0.4729602028923904 1.1249270635067237 0.7991608008239313 -0.9217185038057831 0.2330779074001899 -0.3716409695746477 1.0360019945590742 -1.0603767913043358 2.0529602060300136 0.05919120744268389 0.23221253250601026 0.07040630459339209 -1.5288850034208197 0.3990018307125352 0.14630125382282233 0.8401117817848358 -1.2777542155595392 -1.325728276259346 -22.707733227291897
1.4039874559525654 -0.23374986103582193 -0.27293132137695264 0.21877780322520549 0.7226227260390278 0.5856364196837257 0.30322767772425957 0.18583238262481028 0.29183943157641923 0.47070115650778444 -0.2365641174218125 -0.35813477352432754 0.23537633527652513 1.8583204410685235 -0.4415110857925778 -1.148276050607907 -2.1681318549077226 2.0863013455097135 0.07033358258442883 -0.5270537277925593 -0.2132359309663253 0.4600368623820695 1.8549317189169734 -0.1376086770102636 -0.8255398657678177 0.3058563747533287 0.5369352204818898 -2.6583790844551602 0.9940071444175707 -0.7487263079027257 -13.128557086685436
-1.318946303561591 -1.1110755375737917 -0.687271073288017 0.12065633900346821 0.2780189872320438 -0.20241779412714556 -0.4723060051296965 -0.21456245914377575 1.2795188139486957 0.28640484377803743 -0.2220495705061068 -0.9709652992236768 -1.0209082631380615 -0.3748153953607713 0.2263816627621956 -1.4270422626736712 1.3474472837470928 -0.9949254093487985 -0.043923222708978846 1.7232735573871825 0.8429145045503146 0.3734940670340858 -0.6975708375650578 3.8145928418393896e-05 -0.24437466668236846 0.17880570483906527 0.4508548943269117 1.264909970464995 0.6147058695126537 1.5139193937405127 111.60123678655123
-0.8026913719541328 1.2647544110162638 -1.0861339171209252 -0.1534015272597409 -0.3011920360363817 0.561732715501911 -0.20030716493238931 0.5869321692254678 -0.1855043563115759 -0.7543624429855835 1.0307155241726096 -0.6164436113123158 0.6508948934971929 -0.1486423214646291 0.9723217709047355 0.8133268911740626 1.0857161544802552 0.027718889350850533 2.2568871817814355 -0.8467468253303977 1.2518887699833425 0.7138628930448357 0.4545912501827426 -0.7848437461359524 -0.9268144031776269 -1.797207152946138 0.25588697880751227 -0.8894375303804687 1.7158183110443144 -0.6277415330539287 54.62545669811835
0.7972401336640159 1.5011428604010988 1.1706332007746947 -0.35669607644744283 0.9903835834236893 0.4603009039003763 -0.8841727139580594 0.0929360937784248 1.582826019292348 0.9721417672647156 -0.872629709972308 0.14659675441533251 -0.47648749338275287 -0.9462052152396991 0.010736299895155796 0.28896432840978714 0.7034840588577129 0.10435139312183792 0.13129812872803318 -0.6395876049636012 -0.4294905834628084 -0.02555167356088407 -0.49817666266801236 0.7564921360221301 0.10624168796243827 -0.7572730951326012 0.5995963129851896 1.0208495719727277 0.34614230354576314 -0.13179191310761657 43.22825689429189
0.07615467306016786 -0.4832710814810727 -0.6352639129361981 0.23347493005892736 -1.1454348536979317 -2.27610382405107 0.5975138055847989 0.7218652195592353 0.5310323456780679 0.5039647229654903 0.7495784129066105 -0.8198821671333619 0.7437705519784485 -0.1681624072197931 -1.9460436576701077 -0.909928593639535 -0.2428019487359246 1.537137266277672 -0.566754581002548 2.298567952622752 -0.8229586600083001 -1.469626499550925 0.692496586338574 0.4678839936528795 0.9944408710878765 -0.08580957479137015 0.9703225205188786 0.519813889959918 -0.6447860626243996 -0.08143098346411466 39.66823824241817
-2.043509013061007 0.5226628518670342 -0.8375659479447934 1.7475835014560603 1.2311096536931212 0.4769327577526712 -0.9677445602152154 0.22748294717447468 0.49452464945893765 0.12265319020199814 1.6357183200949783 0.7803231612454702 -0.3882429080679251 0.15223973271954727 0.20279710919325952 1.853684790665407 0.30131008483444094 0.22971873430667797 -0.36472145628773983 -0.30826311920888233 0.6688923672235394 0.004237139609333807 -0.30715158897212164 -0.8764704938363076 0.46112037681732465 -0.23913505466635637 0.7345373634482525 -1.3010551374187733 -1.0574481462040524 -0.04738066197051946 8.950153922127615
1.5041728298421004 1.122448012096164 -2.4769670461145106 0.13003861802346214 1.6133438264582722 1.331125520522849 -0.34820346986948175 -0.7051489569429078 -1.3391377022525222 -0.08586631861922986 0.922777016865685 -0.9258295482663756 1.1463531601526722 -0.39330248344115026 -0.7640141970568582 -1.340271907264719 0.5828952674357392 -0.7962396291905667 -0.11251656845045578 2.2953130666001247 0.6211979847059197 0.2830922768096156 -0.22206378750244696 -0.26131300550625297 -0.03570658351621347 -0.32351361953973684 -2.4667743736531977 -1.6980882513148778 -0.8169972497654383 0.37243817546831226 -121.77281382888157
-0.26352955180497484 1.3519450908445392 0.13643810615257657 1.0146205529260368 -0.4618684788072594 -0.9162207591204471 -1.0262101263927526 -1.0644738227777109 -0.6027799179864014 -0.9653629501845211 -0.2638782491225735 -3.1034844968498643 -0.00877906038437571 0.5923375365320269 -2.7130515611161448 -0.7888220534310711 -1.7504055670768064 0.37692997639767006 -0.9997091856400021 0.017790615215313485 1.4906984321495964 -0.5700527827576407 -0.33776878142361144 0.1373906935622911 -0.2485355759564319 1.1548138167949429 -0.503703461649088 0.3983762972794762 0.5300291569665755 1.3955454268682652 -66.43763321932855
-0.6390727750016612 0.5385393205850494 0.8379947462210912 0.15558966151031117 -0.2531634914059195 -1.4538411866901253 -1.1157972970148335 0.10132034051304509 1.659110840346741 0.6429245060665103 -0.351817427990412 -0.34863811779785314 -1.73970077689493 1.0414197341739915 0.5561803668664262 0.25975754627278 0.7138064875191258 1.0762222662029186 0.4305135425563995 -0.4972631297235542 1.0431459942986514 1.7747943171404632 -0.47816683796797144 0.19332188443306575 -0.5160074430543854 0.5437090737687188 0.2655655737924403 -0.2965707035772039 1.1060161762312155 0.8688498786637936 145.47252816120192
-0.14084189114600565 -0.4312509941829442 1.6033000416019643 -1.656508150645167 0.6023532934523058 -0.7617109991530251 -1.7235556067138031 0.8730487253699447 1.456039908261154 0.22044142826734295 -2.2682230945394584 -0.49190829301988986 0.6863949580652986 -1.5238833601651338 -0.9502694515908818 -2.2314083992365124 0.8494834828313451 -0.6769155082707302 0.7240013204650985 0.550135403483581 -0.6609582612552534 0.9596718527559296 2.019366433784846 0.13318874954067647 -0.6871729465264806 -0.7141952717262228 -0.5694493992149795 -0.6547503674430201 0.08449443481893504 -1.0276591658384373 -101.50916421487088
1.120452844218555 1.352242892301076 -1.4274898905555449 -0.27807974039413064 -1.591243171095685 -0.7307509539854927 1.6499392895008356 -0.25894679213001653 1.445565609290767 1.0316219610159856 0.49866890854711476 0.729853574463193 1.6552794762613796 1.0085783567517723 -1.551098749410186 1.7981253131698116 -2.3648544226055566 -1.0567445004048368 -1.751635049693913 -0.21769943116645143 0.08720442130217149 0.2855516246469975 -1.0495715521176368 -1.3203057508775302 1.1697912407192461 0.25018974337805966 -0.5875157991927581 0.2451920617820116 -0.6019140139724377 0.9468381531689453 -32.993061897845045
-1.2363795686778851 -0.5756510411658703 -0.022288476895540636 -0.5049185365582994 -1.6715660305343207 -0.7449616796923885 -0.03031217710937648 -0.6879404084310732 -3.3376591264911304 0.19387525600300298 -0.41020583016800505 -1.470842038966233 0.8943392873714564 -0.85588095723526 0.7083532186296307 0.6391703386252267 -1.525228344746785 1.3374498277547893 2.0992078827334715 -1.322904998912927 -0.5059863550837066 -0.21276562631329263 1.0825395397941149 -0.26201930916626887 0.4966812249948544 -1.5060172325898322 -0.33512385351143786 0.6434933125082786 0.5087742291664017 0.07075034495758901 -39.40486221608184
0.6711187578727905 -0.6691578074246969 0.3953371103655729 -0.7821164154638255 -1.8571219362382094 0.3017073604215275 0.1493635871862329 0.22309397538915546 0.7984637301052228 -0.5917731253663983 -0.3780201148657415 -0.840831009113376 0.13659073694439752 -0.49842987567100794 -0.0004330114191792348 0.17340137341404885 -0.422135877653512 0.16500202569914532 -0.376854217720761 0.07921259107008137 -0.30189886483168044 -1.969822439988438 -0.3420854561685951 -1.2915110325925712 0.37396889788778664 0.8003714982933032 1.1683147406015142 -0.19349664677235948 0.04342946419435255 0.09598706566713211 -61.705961517913714
0.2381937101522678 0.4585278611623941 -2.087977344976806 1.6440921178147452 -0.32496782631731785 0.9226233521069812 0.8889909464033251 -0.058417616511700104 -1.0397756462451597 -0.720721273264614 -0.3644203044152225 -0.6288897556918991 1.0318998837117817 -0.24871869158066642 0.3428265356920746 -0.1546072531522995 -1.343866738030668 1.6886793272485536 0.44592157699183604 1.205821328378627 -0.395435164679564 -1.480410707386065 -0.91678507661043 -0.48044271460780313 0.3018704721200822 -0.05000571927866329 -0.2265512752279945 1.0476254750420644 -0.8027549127170471 1.4744051979461916 11.003026385102885
-0.7390028396322095 -0.2894057149185231 0.37287551409711883 1.173233651813567 -0.32029991525587564 1.2481451083059485 0.9883771348917499 -0.3635395066969013 0.8503063826843649 0.5563492540892886 -0.39014466330434794 1.2275093732502096 0.6124986369093356 1.7043677641662127 0.3317524540496805 -0.6770808613299096 0.5317853780414176 -1.7367060219237223 0.2289497474334632 -0.22411938548165805 -1.7608703217180348 1.386424393202331 -1.4043102194551471 -0.8762429521778767 -0.3667015309938529 -1.388169305053359 0.8287198779083752 -0.46996407959720454 -0.7296528432676902 -0.6081984858715584 -93.67430775484446
0.8388892940423858 0.8686234596767396 0.0006515286455194858 1.2511536191980674 -1.8279526555842387 0.6069187209394036 0.41649696849502504 0.16129278470853825 0.37310587277261564 -2.9697432012526153 1.9318863567978584 -0.13626701836464464 0.12221393664337747 -0.44686267218424863 2.269105727106078 -0.7566121934449419 -0.09979971957707635 0.04858887952960199 -0.12249076764629284 -0.020651543517682766 -1.044419882351105 -0.8790656796723609 -0.827155735569041 0.5871078152314652 0.6663258449567526 -0.13552818500564967 0.5165004560572691 1.1673981050759812 -0.084188489846032 0.04674279714697341 26.364713977467588
1.795963666838029 0.4455127358020352 -0.9467286030727199 0.18833106464258292 -2.1421601475555407 1.5657855909972396 0.4764877062852186 0.38704601690769835 -0.0077954834763258 -0.005195304546546719 0.4494452606787888 -1.330365093260527 0.11146243563294696 0.10087818840713979 1.1367805800852364 0.24536624841863278 -0.4606648806158331 1.4803921555870847 -0.35619293020682363 1.832411746801203 0.09170011857761085 1.1615644757451895 -1.0745802915309512 -0.8462674122134095 -0.8062421372319971 3.1341215832015936 -1.6778913022011763 0.373735323447096 -0.26152644493286653 -0.49007390038289406 53.20855326980839
-0.8780709990403742 -0.5119374808249217 0.4246165641394217 -1.1179018244543035 1.2418238327711537 -1.3915860337290606 0.4820757215243679 -0.009146366090701569 0.6388555723359138 -0.038030036185097246 -0.23026219546388982 0.4795970147518698 -0.03768494975658694 -0.6753226460017794 -0.7724128388146161 0.020060896693784344 -0.08159373850663945 -1.9038948214291465 -0.7296329913033536 0.6053493125796114 -0.872319324402124 -1.051172000129703 -0.5501399994670648 0.8162006112301443 0.4787772930111177 0.2769123604495348 0.7708831538006953 0.15803619927952448 -1.113744316170931 1.2377020218574994 -40.62245293437023
0.45714663306589254 -0.9172144995500022 0.2814570010912738 -1.5830115601187384 -1.253071657461158 -1.456748741792518 1.2318187867860104 1.019670056460134 1.2325147779146897 -0.4843926551232564 0.7906228045314876 -1.7898804262542063 -0.4149329673272025 -1.1071702492138729 0.6059162959996623 1.5053158873324617 2.640898442015609 0.43341163551145695 1.2526566417553042 -0.7169570887570841 -2.0445862072846555 0.2908906119126083 1.2724650419761636 -0.7763000954799602 -1.0508423149266737 -0.6064588483796822 0.025791611538775207 -0.15078482779080177 0.004557142801764918 0.5289206135157918 7.115707183633388
0.09395458382802678 0.4143386484192782 -1.8236538634947224 -0.7137063535227988 0.02610313683531308 -1.3898242701989216 1.2949036423496392 0.9653626998757454 0.9953364449783147 0.361397244859324 0.5929402184692165 0.14648370872910854 1.2593475751769918 -1.9188796773428805 1.0912983760310249 0.5008612452451162 -0.22058928447680862 -2.620696112935878 0.8221878801862983 -1.2141655178975548 1.0031791243039356 -0.31894707928869354 1.4051983601423446 0.5563474153396276 1.3785487159731773 0.38571565580040584 0.7791844496849973 -0.49695541132866977 -0.5986739824962417 -1.1645671399800839 35.29988070608723
1.604187075537736 1.3223784620553904 -0.037656493358008886 -0.713928681021164 -0.8411318094164144 -0.2349643844804102 -0.35311516375585544 1.5529543560129362 0.5747042635425492 1.0742016194106359 0.27938730785020993 0.6500793885173098 -0.4056044097860744 -1.1118977243331472 -1.4057506057502014 -0.46228986220685575 -0.35010380171505456 0.37628417821614085 1.2613313035380906 -0.4196177038641422 0.29304351086864333 0.16224568347462623 0.023549006188454714 -0.7768849486156164 0.5106900808978947 -0.6097949870078436 -1.37417057148345 -2.0452474800150173 -0.2956909747669792 -1.3262256420119574 -155.0466719258103
0.46379455305883877 -0.44529581949453384 -1.0744963405910526 -0.6940610051125159 -0.8555013366231451 -1.5544455726825417 -0.26676886881570616 -0.15807893530908093 -1.512094814209204 -3.3152603550896287 -0.5942783028948909 -1.3890850705809061 1.1423333679293954 -1.613204711996149 0.6244774771140982 0.5595666681143402 -0.14167459681039005 0.30923874135509943 0.1963441455763176 -0.6069657520285128 0.5726448741873332 -0.5105774792685073 -0.1150579858630183 0.5155608201639691 -1.0117592276640828 -0.3648677081295203 -0.07173975148259011 0.8233257054955733 0.9180443707133826 -0.10656700115727617 -68.22158099594866
-0.5365075985300988 0.930855200731145 1.7775005669823718 -1.5231724045253066 0.22028753273247614 0.15165222006285908 -1.1501095294092736 -1.2243517453839619 0.05293746544624985 -0.034493122550548275 0.7096371165481911 -0.30643043224423633 -0.4121955647244581 2.6438349548102584 0.21813241097258762 1.5424480745650815 -0.3036320926544098 -1.3205693553272215 0.8639301576786356 0.8223258836803543 2.204494843785551 0.1941139819169125 0.2877930099299684 -0.6173743581377976 -0.37518807827382783 0.8943293941003613 0.4670691988537651 0.1408708183188424 -0.7624714692645392 -1.1523827926236598 69.47632346534613
-0.8656936148186254 1.6303643305119768 -0.7523982989873892 -0.6041063569142157 0.026593624154838322 0.7636412625837673 -2.29669267815374 -1.3127914173201818 0.44990157182444956 -0.29484326813192324 -0.5985046053871468 -0.004110322563720611 0.18277499045946055 -0.863794509016856 0.2608828090074692 0.5048343617700843 0.30277189584155245 -0.7996189445602386 -0.07280864288851809 0.8721149267178651 -0.8215329967679619 0.5529731515108349 1.9530570536731797 0.44429425932647326 -0.11551418543297609 -0.40774974863288554 -0.6512961598759958 -0.4380685996648331 0.7410508223505894 -0.7984791270431312 -16.7734310011383
0.9803073223141369 0.21265472083080394 -0.2613450084204368 1.4333098831339384 1.6388950512735518 -1.0572772643425705 1.0451855473930582 1.1633798695133097 0.4319640212916095 0.5206265606764933 -1.3541232202225741 -1.8412136910398014 1.1465555010764659 -0.08218451438952118 0.4744531217717465 -1.617987114241527 -0.5732743057863352 -1.1355271883738292 -0.036863808677146885 0.6868261902179645 2.319611601393563 1.1140834787097316 -1.5842328581807252 -1.1254147279884545 1.3467208329138132 0.15625765218404877 1.111350753085446 0.18893522383122602 -0.04350073667873807 0.3402248514177895 67.94231300159953
0.44823207127113696 -1.5818123421304533 0.3658502907561631 -0.666893046819148 1.106202165285281 1.7830159391308313 -1.0319903290908972 -0.8635382273373289 0.2450649898684305 -0.43093653732919496 -0.6005127590868661 -0.03596702534163283 -0.18282277127709087 -1.3138118008328612 0.4052186321546863 1.6229521611353876 -0.014402091477471802 -1.7071180164327449 0.06446361983882476 -0.12913518158210333 -0.09346241195200301 0.9755837006949459 -0.6718076855596483 -0.1679033435035402 -1.716733593544484 0.5617095531162354 0.641340695037967 1.1909830582986944 -1.9890181945814385 -0.4573293532640303 -83.02278344799868
1.0758229409823095 0.5788993024240425 -0.92720442672827 0.049166610391354566 -1.0578037348793643 -0.4984523975575299 0.3585100068379853 0.798606462857452 -1.3343038534042164 -0.8877531369985677 -0.09689914180068815 2.2415581876311497 1.1888144876744708 0.6283324279154645 -0.7843548495713104 0.05969700193624389 2.8828216425754984 0.7686938535309683 0.6821742416742361 1.2876836517836285 -0.2285838251993415 0.45505563466504784 -0.1928276324752147 -0.6732536734316847 0.37865024800572833 0.41402000121020255 -0.18150018042904667 2.151116662214817 -1.0031843483099576 -1.1077632831601532 117.71572748445007
0.23794942843236705 0.7286948244595048 -0.7544589621096719 -0.6271161348802238 -0.9735828066999053 0.5666736118196379 0.5741892648765471 -0.5515906762125206 0.2126189983219752 0.7190359763107201 1.8267461503573432 0.6371434219453145 0.130930305758588 -0.686800760048373 -1.3248350803399929 0.4890339895944089 1.3476086944305026 -0.0540140583381219 -0.007600680441331523 -0.5899376046957966 0.3973255888713452 -0.39096858903016624 1.9654867613523896 2.347464782067725 0.32710785299044903 0.44818759027295535 -1.6563242877002091 -0.40062131023389885 0.8223815018708346 -1.6761860744335026 61.12139780133199
1.3847371817317475 -0.41178867077966175 0.5705477877847208 -1.1596051644651932 0.6610396289987683 -0.6841499986024948 0.1484718931806545 -0.23313416239079046 -0.5039931880865798 0.8102510175140986 1.0862086732274716 -1.4136099563771423 0.42755082555697266 -0.25765664355509316 -0.7602699830346243 -0.9090732918955514 -0.5607479363106337 -0.06766652431923953 -0.689301459283226 0.8185078692401626 0.9223005241331224 1.2306671310095734 -0.012940994571860622 1.2490614680508685 -1.8190882437454063 0.4642346515315675 -1.9742401710104738 -1.6931460470106656 -0.12310886785490198 2.71242422472088 -14.958252915758507
0.6411875744748974 -0.5918633900344419 0.4697388052116766 -1.4785461704282417 -0.12316726988837451 0.1835184896376724 -0.18183397321958267 0.5540891540707845 0.8598255416489893 -1.2461921108307992 -0.5936614326142609 -0.6830501266865215 -1.5401929478185759 0.8121173068651414 0.09326402898656196 -0.2710202812001034 1.725659042202468 -1.6334544782665255 -1.2806128838420667 0.29744730193043273 0.07169551816798043 -0.8339210812550202 0.3773000483172562 -1.8790556570810393 -0.35839765021050435 1.8605978639008873 -0.050531218476476465 -0.19964909361266175 0.3149979993738013 -1.094045076314683 -94.25601513546484
-0.8141099094633605 0.7850660661702251 0.9930256291150839 -0.036827592994129264 -1.7058272469517946 -0.2003934636641999 -0.757430796176604 1.5873866219480839 -0.7910260671470277 -1.0702116440987668 2.3538752076900433 -1.2941814049761389 -1.0780991508463789 -1.5707625674279353 0.12947406030280204 -1.336282531647894 -0.4738045707508764 -0.28446474713123343 0.4629744244279845 0.9420026900493162 1.461023060285948 -0.8366726418928471 -0.4889788688752353 -1.40050234558413 -0.38395457705413083 0.5475792086428579 2.3082753791273767 -1.3143731233893827 1.4986458376424838 -0.9716072612072704 -36.152223825126526
0.47479721126821267 0.470498612814679 0.9062616654271086 -0.8505056141009618 0.1974168727713401 -0.7063485205927791 0.8672471750060262 -0.7039087204373472 -0.103500624767063 0.12429897239057308 -0.8958883772925949 1.3159270784269865 2.015714274418542 -0.008387944132798015 -0.554070699858841 -0.1299923253503052 -0.3398449249628659 1.0826555697012001 -0.39100623661061107 -0.12236470227388319 -2.387162834244263 -0.4888035092915938 -0.01602111634678365 -1.8352494327366613 -0.036860248152489894 0.35860492984478665 -0.5826881670644456 0.20345611334410119 0.17650981041089772 0.0791436567499397 -75.81545069133784
1.4146881359598182 -1.3219004599726902 0.18201640537054714 0.49199489395366086 1.01118521157387 -0.8180259006470608 0.14429250885671163 1.578116922122314 -1.1442794957517581 -0.48040563302059797 0.25718384307421005 -0.7151521656067483 -0.09747807610609498 -0.3142741645557792 1.6233487405358273 1.723178487015315 -1.4101232042044722 -0.42390562331258347 0.20969873325809693 0.3725680986991029 -0.7488770863597727 -0.2169431563954515 1.6532307187174144 -0.49962101597085745 0.4718953749595385 -0.12390478476157468 -0.873781812230543 -1.0295270329511779 2.2001545522642036 -0.8905750819504168 20.351025953100596
-0.052962489955480536 -0.20968524425494087 1.507184414849386 1.5284304923395373 -0.31963164270040284 0.5179417101257653 -1.2662228751639115 0.9653425743296125 0.1489468141947136 -0.8511708375583757 0.4484589960067761 -0.42954253819070853 0.3108800949927244 0.05700033133030617 -0.9649622293332687 -0.26106461341430803 -0.2919467706335678 0.30261587235440496 -0.627865162766994 -0.25656508878022133 -0.534313328973581 -0.6892630512673484 1.0749025950190292 0.19728836452782209 -0.08017306920530687 -0.7200190343879562 -0.27810791283467384 -0.039917764107271034 0.9044345491023504 0.048431067417801656 -26.07788714594573
-1.1750013109240938 -0.7877551882599845 2.2372268149083387 -1.3857562510901769 -0.37251582041450876 1.16818640015459 0.38560294969652814 -1.7813974114316777 -0.6645534262331068 1.2053827816937985 -0.41761286508637646 1.545282321603697 0.20709287623080444 -1.1847766717607808 1.0012467488454728 0.52611085873121 -0.782867015691715 0.20024179201878733 -0.4474997142857971 1.3331167267120596 0.7243789324329573 0.45590230233158174 -0.7737041557707293 0.11809544179699898 0.15920525435258231 0.8782361109057797 0.566029929852399 -0.1927160107925315 1.1099652409212002 -1.8552325510998906 52.88286898127543
-0.3299217860822866 0.7454332453171324 0.13636429310680886 -1.7620628646011496 -0.7697558463283322 0.586035238329134 -1.7616621838300945 -0.6963044239597471 0.5807301497437625 0.4415259931147919 0.7367021685865845 1.3971765861247727 0.9127188623095511 -1.463659446985105 -0.6207885172555054 0.45264864208519723 -1.1803679848232556 -1.2505735560190168 0.6551420640695226 0.566752596228195 -0.5288653701255889 -1.219706849014864 1.4635153337584412 0.46592583163469753 0.815379805801795 -0.17339241538986186 1.1697800566591132 -0.0030221064478196742 0.07491510807458573 1.6244983203440846 86.91540143308472
-0.2864008493405636 -0.4286217160442292 1.5609105290525298 -1.338897322376419 0.7330199173116148 -1.5378959875086649 0.5952939332513467 -0.3261873615039627 0.19547099115415872 -0.7974298549370709 1.0710775665336265 -0.24937980372412497 -0.8143935463653316 -1.721572568726682 0.029980069816571822 0.5911460224244938 0.19482208999262102 0.2168096149725527 0.7757919380712055 0.9944077890366901 -0.2930015729321179 0.07819588047091715 -0.5324866375243866 1.0100449638155982 -0.32864985648535433 0.012319696595162043 0.5167961045741988 -0.8634236212686344 -0.6138073583251701 0.7894550261586875 9.085162110349149
0.3228401528229812 1.5882837132003256 3.0539467107481006 -0.4790352328562253 0.7707228996688682 0.5052425707943512 -0.1878310138923971 -0.1949966866389089 -2.11324536687149 -0.33451346859202297 0.1077778828256283 0.9375024129480903 1.7699396744414773 0.11760045319064935 1.0108842935747582 0.9923522902931625 -2.4251428708689513 1.0047506494477845 -0.159472733433882 -1.8613390765879956 -1.1343127449805879 0.1429535525715323 -0.20655253570821716 1.3469956813414894 0.40159341374957386 -0.6385065115589644 -0.13378598228403302 0.8408270359284582 -1.3591122178815234 -1.1454201459210127 -55.28624348018678
1.1965768963567003 -0.5377603376226111 -0.051977203814163 -0.49655404628129657 0.2829439520665284 -1.3713566300017686 0.4758671976059015 1.0013275728174025 0.1375550890873998 0.9778997423170273 1.1334518444255623 -0.025327526090212257 1.293146993763734 0.34890680300093724 -0.7330673684569149 -0.20837339306901279 0.7370143006776073 0.1235260586722641 -0.5102785064615424 -0.22271741283039287 0.713232886112886 0.2722704738483268 -0.3156250712390326 1.1467232477728861 0.06007013786538075 -0.43661319868699516 -1.0301708364906694 -0.41254954089008566 -0.35078007474365286 -0.9227606845975233 -11.805248876574666
-1.0052259772177565 2.489913283639541 0.19081234527664415 -0.20393295846440243 -0.03715815390776591 -0.43329019382016076 0.6450503755106577 0.28330176732495066 0.5542685157626535 -0.0010268566062791068 0.4432121189904763 -0.47088933400703475 0.01552800889098233 1.6432927328723834 -1.5700345143006902 -0.21498725067469063 -0.6645233516124919 1.3075883347303132 -1.3567589722943296 -1.7413698009924894 -1.4716042831281453 -0.14557654458794095 -0.30533676398434995 0.8770208625188168 -1.3439051927947063 2.0924355480254357 0.5821597656717791 1.5713568715790824 1.299812267100998 -0.49483627208253 42.623558174655145
0.5938001518825469 -0.5012573795105213 -0.5716601564499648 -1.0928896645696353 0.3559502664923809 1.060772769045779 1.173645950194182 -1.1205093924376002 -0.6881999092645446 0.2013774122415944 -1.756687320756559 0.8242737929625295 -0.7445520926657795 0.8000124621159066 1.5557112332456124 -0.5519684295992237 0.928053895851233 -0.26402485887191235 -0.16605951531767282 -0.9800542987505135 -0.3660025189949538 -0.6058653595188114 0.7079231474360729 -0.16254717909705668 0.6361571148419596 0.10411831765094003 -0.5917529983474576 0.006344475105653595 -0.7465425538260588 0.8391847227886048 -11.223939317014793
-0.5848490684397161 -0.4091045468954902 -0.506653340190893 -0.39351959122040203 0.7396959386837721 0.4185274722324739 0.4164993739410982 -1.0581772652897463 -1.0946427819771747 0.38753223583366136 -0.9687991377888784 1.2647386593421472 -0.0871485074626805 -1.7818468069420212 1.683551451602037 -0.37644975742636766 -0.10477550889448446 -1.4273986987102423 -0.6753968547250032 -0.5842482623322433 0.6202404215383405 -0.7585577915248334 0.7712588540779395 0.4690790849827818 0.864876811262181 -0.7920900116922933 -0.715062595538118 0.38395375259549236 0.18760148226590076 -1.1841331823278174 -75.3258582360837
-1.3644923723827087 -0.7909928942274681 0.956079179292467 -0.07536835452168768 -1.3137131363487917 -0.7598527829907059 -0.8090312760317032 -1.1318963431357087 1.1492325322556827 0.3004888631587432 0.2283444688270769 -1.3043815640904504 -0.47155104360910055 -2.085157553041972 0.34840004584355444 -0.6348048178890389 -1.0172069390449612 0.4095031350076595 -0.2948151874249507 0.20029808105007083 -0.11153784934496914 0.7910171924565047 -0.8997024580724168 1.8267571915140144 -0.05474865257373059 -1.352065872684242 0.04184646731390172 -1.009416261788661 -0.2906910533167424 0.20440613302201383 -105.58677443858296
1.231057791584964 -0.506710071994016 0.18445447888918406 -0.5644610454492929 3.1374496613973264 -0.5880471716316453 0.9837828311033738 -1.3489576547440436 -0.34351967582839904 -0.933526460550919 -0.0013840765344959208 1.6249668505379387 0.7082464677291754 0.40014315125433436 -0.3606736797831314 2.6688863978388473 -0.5939023387681724 0.4169478534370198 0.20000838157118742 0.21365077486653603 -0.572488594171482 -0.016666623223953875 -0.539860933766611 -1.1806964483701656 0.6690477640924838 0.8370113087795007 0.5395210242224103 -0.6801863728829212 -0.9510782796139068 -1.401208572548894 -17.820226018634017
-0.4408278355150057 0.6591944530089413 0.8856784743115897 -0.7128349016304356 1.4923965595878774 -0.9101443279875375 1.023908695116519 0.4124555613093491 -0.2413413001607635 1.1311674786092785 -1.075188395354813 1.1503474523857466 1.7354433300848169 -0.6232295368255636 0.7728641495341916 0.42099457648459093 0.5666425999423524 0.5802421487912938 -1.1638175229261956 -1.1844925240601432 1.8697330137086845 -0.45680447644312805 -1.0458563966154693 -2.577259953884528 -1.3932329199224802 1.4938164962321046 -1.897271854656995 0.49286798437094476 -0.6065799316339268 -0.8884817034086376 -104.32275059470601
-0.8518900935779434 0.5759804153032074 -0.6694949339667079 -0.23704385631044503 -0.48964013152005104 0.6190044935105529 -0.5619463396930576 -0.2837484932271918 1.4187939358687525 1.1772548680324115 -1.9477297804553089 -1.3913214034539874 -0.07286506346315252 -1.2686588046391627 0.24354539915243156 0.26470445247330365 -0.36931472316544356 -0.2138062356006143 1.2591571755679944 1.0756685541736393 -0.3500310331984201 -1.912569813738219 0.48044071942285593 1.1182585052251701 -1.2823529050646405 0.9623491953436746 0.013968558997604682 0.685318316351289 -0.9903921792045132 1.0732274530162753 6.909777161522811
1.1971672626329575 -1.1032336652679877 -0.4097797140925053 -0.3719342635279546 -0.5957760600077896 0.10041062720039073 -1.0284896166306223 1.0212057602839677 -1.2132216088106644 1.601978873208878 -0.23331838397412857 -0.31710462796636724 0.155185864336391 -0.5114408672689378 2.3749042523171133 0.4042791316626062 0.6455184890032873 0.6357870097360085 0.2032770416438649 0.7223972900831889 1.0987045821452697 -0.5423279098218499 0.593782692715226 0.9980130195903043 -1.065524514353874 -0.6993063868480992 -0.7393128157247096 0.9564922514658779 -0.524018004793876 -0.38291996678144896 56.30869002050941
-0.28739176148140283 -1.4413642065799614 -0.5571815557641754 0.6605758961054756 -1.4849714512735601 2.498313114186557 -0.486655167872801 0.1955257867387812 2.5116711847620783 1.0143701558760951 0.7360510401621938 0.49334983628084567 -0.986081442229082 -0.6405807736470208 -0.9731167792392575 -2.5279393314749856 0.15420312714434936 1.0484103275911179 0.12608537285480428 -1.078644365113096 -0.15467344182216602 -0.9456242399152996 -1.921875519984168 0.41878087471410724 1.4405856297730504 0.13990865180412446 1.6306125642478821 -0.22619487403983088 0.854215828429183 -0.4535648805390122 5.995976385767534
-1.2033526934697658 -0.16113045830782188 0.24228680586997905 1.2507459830730243 0.6458631521789971 0.4688569480935235 0.5521988768709574 0.6732796467311272 1.3637813837127473 1.122724363506239 -0.984983815964019 -0.7881188207903221 -0.42225744827523387 -1.6144796712754206 0.3188483504633435 1.1141919092103607 1.0790238172137085 0.18856173258127687 0.2643001318232466 0.3675914554038614 0.4394333520925562 0.2726661328891882 1.1265372164072627 0.7572953215513515 -0.7704598666718144 -0.8462553207256258 2.013354901325977 1.452142708720508 1.798210856134856 -0.3436637180708442 207.1150578020212
-1.3493257856004532 -0.21667353014648466 2.3356563312419842 1.0278321518154159 -1.7548977564435524 -1.5810967325046157 1.6737811506075821 0.049285724433274954 -1.0554177822320132 0.28894706507503237 -1.0757329840985088 -0.47106343494388286 -0.59864675860253 0.6723076717608583 0.49935537196623514 -0.6806669593130297 0.3328672358133432 -1.190167286858559 0.22276232617176217 2.16727786412383 -0.7689696319137312 1.0874687574485624 -3.9545789617009794 -2.682343670962654 -1.246915560318506 0.09364433260031081 1.9149284485866966 0.15843271216775642 2.1030345375303345 0.19534645781759966 -43.674481157611694
-0.13690783478898708 1.1380198574354305 0.2076717739239797 -0.2260253070110497 -1.1805263510872976 0.6726663913674541 0.8180257674268393 -0.6138704398362856 -0.2704418354053763 0.14447654014118755 0.5789145717860519 -0.1114051180371103 -1.3527773737454434 -0.3980949640170363 1.1608467516410061 0.2571291585539966 -0.9428612868849755 0.27832991245890304 1.1335566436228004 0.5552945240491367 0.7720238396221379 -1.319809874729872 1.167083468683809 0.4498771896199635 -0.3517837964866543 1.0587495361738597 -2.01074899612395 0.30884417486434534 -0.5137500473311427 -1.4417690735367115 -35.837370819636476
-0.8053526545388225 -0.18180139559793101 -1.8250800250033425 -0.47990610085371466 0.3032822124765217 -2.031131756802828 -0.6312309206260253 -1.6521803345854655 0.6417518017864603 0.2013625950599957 1.4232920794481756 0.561896848408933 -0.2561255230745959 -0.11084435692426584 0.6077728392919984 -0.9775026085948718 0.6675589644925194 -1.783754467335797 -0.412642339972303 -0.7369150442436393 -0.30736988467299997 -0.031149310007758165 -0.5360379139374204 -1.7938429778189584 1.6540932361459866 0.41936811530530876 0.6140282326389845 -0.3238270866690916 1.320046971079914 0.09257383179340758 -23.99065038332271
-0.7518657747499845 0.12192199889022805 -0.291523744531285 -0.05883573229475737 -1.03493009110693 1.1107791134128795 0.019847406637623594 0.45388482073677705 0.5640177051976181 0.888122142718934 -0.5432091065830484 0.3149408372621204 -0.3760578368320371 0.15912412028113343 0.6410828814087856 -1.3863023114642665 -0.42282980624290306 1.0167551308053298 0.9795235393503604 0.42054286450046646 -0.8936806977104101 -2.1409476636042832 -1.117427742397607 -0.45920103982956484 -0.6703167763656982 0.8877775993921463 -1.7973908027576573 1.6205959617247505 1.9214310317997487 0.8988274537825479 22.671513244808768
-0.8006706751611222 1.2056254526194912 -0.7337116303308272 0.7786018367793442 1.4945514487166265 1.2903329936528183 -0.054262299549701354 -0.21467972983030428 1.2324251652433211 0.334916493180814 -1.7316665507402367 0.336669180874205 0.39035845408400105 0.4729930227233934 1.8378279717808366 0.411472673124427 1.1072954749135024 -1.4254532575357257 -0.22574425569688972 0.23316964104737758 -0.35819736506699545 1.8614791191593043 0.2927114797735121 0.10147807759091872 0.4004601173783665 -0.49449428847211324 -0.2275916123337313 -0.9001985142006806 0.6132227796095038 -0.7570999456892911 57.06513790571553
0.4720251579943863 0.1309883949211418 -0.44858245457351176 0.2561646751832733 0.5569757290933924 0.11603250506074944 0.16310510255457694 0.45954652298541954 -0.849845009834945 -1.2094248207227871 -1.4647734362353413 1.2038699854592367 2.5320436053156894 -0.42652874739270535 1.2801013904927476 -0.254870121410361 0.8663073537084985 -0.3551800520928988 0.2721242590541778 -2.921201470567875 -0.6595345092975035 -0.651616776886311 -0.46512408903689273 -0.38269796920980004 -0.18352297322251143 0.22200510240441623 -0.13041573421683425 0.5140176488015457 -1.3040404453432857 1.1380614532967799 -54.63128605196251
-0.5314935779471335 1.9328253459305236 -0.5875775247199589 -1.1577251925434626 -0.7569878257906252 1.0632523174078035 2.235508619132575 -0.2715692242222947 -1.3093554550121165 0.056781150876749065 -0.2713867086168498 -1.4698882079803608 0.3363373152909054 -1.1851472665667664 -1.8311549187369838 0.6166960426045139 -0.7598925167471517 1.4854838303115683 1.912648130133998 0.3306101453151043 -1.810817524632298 -0.14753156062110293 -1.1897481860688774 -0.85558639876273 -0.24660442182717385 1.0229222005278242 -0.4694868901062332 0.6131185876511203 0.1708787761581208 -0.19883003297468554 -57.53392349018217
-0.8460018806784261 -0.34002402924500424 1.9428055359152567 1.4914385420307241 -0.3207288535734389 -0.17112930945149193 1.3010293153781642 1.3161154953864789 -1.7365361313402021 0.6430259219775469 0.16544848939426673 -0.06601236722958263 0.47311671605749045 0.4987836491780366 1.8564022435595227 0.9675461855106122 -0.3088093657678325 1.4443879721206572 0.5579932101141024 -0.7358640592547422 -0.46624836197086383 1.235658271709311 -0.8327726344098871 -1.8034581183619973 -1.2127695121166102 -0.477748552447974 -0.19032885450090944 0.6020576603100031 2.4850195795872603 0.6409159127726727 106.267745609515
-0.4528580916748913 -0.9220337683072903 -0.9210544995475627 -0.036808778917850844 1.048749370912968 0.09803489699543576 0.13645782741564344 -1.1460246363056736 -0.410869098097254 0.7328305432828262 0.6632336107629245 0.06111266348292135 0.34482698738345297 -0.8667171291362933 -1.0244538396278011 -1.591890168863527 0.27127396477315446 1.4761017351232795 -0.546087772242684 1.3893630718883077 -1.1620458810402094 0.815893803809117 0.8508555627321527 1.3549781406040777 -0.4501236390455552 0.010560898455904716 -0.7971154663795892 -0.2556698391107561 -0.6080042037017107 -0.025629691640339076 -9.943837091005088
0.07553187897797074 -0.6371697516209014 -0.6020247736108914 0.16738625564751683 -0.15857644286849545 -0.9613783489842733 -0.012410746879304383 0.06953840630639375 -2.386691965974189 1.0607169482959988 0.3359474437188689 -1.5625530385156985 1.1908310483024467 -2.634400830266598 -1.3195001177258887 -1.2264197554447296 1.847536229571723 -0.07483448662570709 0.7746001308912148 -0.10294585364433126 -0.2829603134966282 1.2824184176845133 2.091865086039645 0.17392398354437644 -0.48964159535370827 -0.5096204682929133 2.0065267729489253 0.9052359738782844 -0.49218700869122795 -0.774737272378739 38.30107382081573
1.3890248070880626 -0.925899317193203 -1.1088654032586232 0.7696750021427711 -0.19368032835232504 0.06190943784567475 -0.2673941719166325 0.5981645921303983 -0.6025791615812393 -0.5672482649284594 1.337571868884951 -0.908361572794525 0.34423089522652206 -0.576456848939709 0.6745425441523807 1.7468487950089613 -0.5627666483237712 0.3921469868222952 0.928277769136365 -0.8160426669644749 -0.1831227858388148 0.7016561422795182 2.744201618442497 0.6693195440999679 -1.3117563779299726 -0.9450508096778181 1.1969539082017422 -0.2579030843362551 -0.08401604873003776 1.6256010745464562 132.13692130616383
0.5470662925409923 -0.7129498324451982 1.2278597085620508 0.8135632178432057 0.3544584982585846 0.5062559119287807 -0.6679544067649105 -0.5729707513125626 -0.2808145035817965 -0.5244158537572684 0.7146881732452013 -0.45762905536445825 -1.6702256432345268 -1.2713812926716703 -0.6923294246974375 1.4168653706280419 -1.1337285292695964 0.33630740129862746 -0.5196092412636832 1.0044156154512092 -0.05372261305225146 -1.7749782698027792 0.006350974600633474 0.9748955001759981 -0.8334795592434416 1.5551262358380211 -0.2972904647301235 -1.0193421852167668 -0.40685108514060503 -1.4397088552733004 -122.4333167054127
-0.6143535139245844 1.7717021809210736 -0.9726424491889002 1.0713631879294234 0.11648714533008182 -0.9783992012232648 -1.691344997235809 0.5211431769480286 -0.15895241084170622 0.6346774355526862 -1.141645055535802 -0.982420120372786 0.8249510254024068 -1.7431363733960357 0.019848671579955367 -1.85676513264759 0.006415168771807054 0.7362337833588662 0.9862890324615513 0.7427229307316058 -1.5455741615994654 0.02329481278262327 -0.4055775353394192 0.03751516629048934 1.2188695578815547 1.4542089790614015 -1.3256426546526534 -0.5670101715934849 0.5310334975136624 -0.36356505800388034 -46.03456192145879
1.9933273047471527 -1.0189940141612868 0.032383116181278475 -0.758818409615783 -1.4907655058211358 -0.49242992254225826 1.2641983625321225 0.11958744522908525 1.2100435713788302 -0.3428546046035443 -0.967027748311225 -0.21423312656474133 1.226460877573973 -1.4296397008521327 0.25826083731553073 -1.4345888702148304 1.573013713566639 0.10014322628069358 -1.2269584295244045 0.6039711975365728 -1.0415140796107325 -1.601270930537699 -0.45680723512980503 0.18065897337987818 1.0142259688557729 -0.5210199704235879 -1.9117751084035859 -1.9335061777655442 -0.16105727355518776 0.5003968390563664 -161.90219104127152
0.6506373711870481 -0.17142900673262554 -0.9633031777097043 -0.291516351120787 0.9644584923290734 1.4989197775926977 -0.55622981131799 -1.2466047653583365 0.26421734196934643 0.4845140572086752 0.11637943556743675 1.4332205170121912 0.30846236070088645 1.0007393309968766 -0.3484492907381452 -0.7524828186665645 -1.4613522223990072 0.7500628911935157 -1.0740483036797484 0.6785180677302681 -0.23159800877305858 -0.4455540108848257 -0.5775503274528363 -0.5631275081717487 0.002573123883787564 0.5985195939851509 1.5481620515590686 0.5602572496033884 1.2173346596064423 -0.9088353193400001 43.2777958303751
0.151509085551997 -0.6927798989794702 1.0321482712431174 -1.4736572932228256 0.32239677813895534 0.49479847629388746 1.0839007439029822 0.8270574218645149 0.7187106770054731 1.0822378484416562 -0.2981891806962408 -0.4955983957187771 -1.9016471638130485 0.20788549257348712 1.6714539647437525 0.7617405669378531 -1.4891921149258163 1.3334151824136555 -0.8541999349043903 -1.1139411941440043 0.9102372640091858 -0.7424952075017905 -0.3048298271217465 0.8420369804590673 0.08117940251449672 0.07901465195493973 0.41183760831884664 1.4277260981254398 -0.3563286268884029 0.8746950957481717 84.98970271450409
-0.12034027007472035 -1.5113480016573155 -0.796209310301413 1.2816110055228436 -0.44536163262956197 -1.800922508764465 -0.5106236265044312 0.3134497014549959 1.913671531523438 -0.7597191617317306 0.7802601224011393 0.42570539441438154 0.15787794765354105 0.22205663309003065 0.014289850755796757 -0.13418188819022536 0.6995866626889068 0.5753038445552441 0.741913219463567 -1.2262278226749908 1.008378657785494 -1.0970829283431398 -0.9179220249557 1.3020736063807252 -0.22367985643191773 1.0560790003147427 -1.7303875951624785 0.5898267029751314 -0.1911616867831512 -1.130381318693493 -16.2919172389791
-0.8973783209433762 1.2063786686805347 0.5646980273593526 -0.04579995091804128 -0.2298317813679742 0.20169118647470544 -1.1386658220898953 1.5650450893857055 -0.7541787308220192 0.2624668610281052 -0.9467618841354997 0.7007313509224986 0.2482677784332282 2.350671195205222 1.1236513620076034 1.4026194200704987 -0.4609230386534926 0.6809994534449505 -0.5332056546046146 -0.3043677637459182 -0.23751779782412316 0.6293147861301619 1.0361984206216035 0.12093107523792858 0.47642019405872776 -0.1221635195102734 -1.9713447515156821 1.6774910861746617 0.5981814046670036 -0.3959209133379018 111.58036741122406
-0.7212237546336578 0.3006019662945925 -2.4818398955645034 0.7775368249982856 -0.32311336974040133 0.1726331291257652 -0.7360579264757046 0.4681938435414344 -1.843464837274113 0.349062120334123 1.4000943197037268 -0.3121392488600901 1.9740587041848794 0.4129301728022536 -0.28730356351280173 1.0211434307822953 0.8271379644462026 -0.4515036157183965 -0.6324646580654482 0.113390329321308 1.4497177030688835 -0.6375072879658735 -0.2889089835873522 -1.9217146679201238 -1.998800121236407 0.3045221928793969 0.44790750225758186 -1.4931073149124563 0.15606598399614344 0.017264204282064443 -73.90710521699847
-0.7207561979694599 -0.4335630966761518 -0.03522987286093719 0.5851874883649166 2.055731516366602 -0.036603211149193474 -0.1006940679299891 0.21033579432877006 0.5305973110089343 -0.4736624052299841 0.02538469293083284 -0.4193088913824951 -0.6293293425232556 0.11484850244011782 -1.3748421123655803 0.5367846333094393 2.255495907174861 0.8971700350689391 -1.1111532723680049 0.7757327086065658 -0.7878763916491781 0.365847490072457 -2.0038099332827644 -0.7983399362866882 -1.258103293723224 0.1796845991079609 -1.3300434832490868 -0.39948904146550157 0.385551344197298 -1.9332480764996989 -157.1377234866659
-0.05021035909641383 0.5022019783853041 -0.436271059220084 0.21654804682139792 -0.8445236286387614 -0.040097943711856626 0.04558250106567438 0.6986832330760263 0.4998105791250865 -1.5841269566200225 -0.8765071348316852 0.1218639023940062 -0.7411854646741715 0.10860398220079276 0.322219667839219 -0.2271629820601193 0.39549537423583614 -0.6903960777301512 0.8076517093786625 -0.4551970707079049 -1.5121655721621305 0.046735912331876135 -0.6162707635214218 -1.88710793799214 0.6149799535220586 -0.7504869481829657 0.9164683520497456 0.6178773580791593 -0.13282286492183473 0.46488520147841933 -66.65297489620563
0.6976359249642613 1.222243478812082 -0.6845905106217012 -0.5388443619372262 1.0650262844760463 1.5577585116678991 1.4206385439398603 0.1762726625406746 1.457670546667858 0.6986601810117763 1.6076211318251665 1.3637682047475321 -0.8460961924202172 -0.018126755277604604 0.3286449898180772 -0.721996214128188 2.439932959811036 -0.09808603212917229 1.985213104394012 -0.6974582039904823 -1.2552979561604818 -1.218889229979758 -0.5949405570292324 -1.7938381063224482 0.8389613491758817 -1.0437311870822858 -1.3218178639937386 0.6013037239366064 -0.07206595575125091 -0.7848429301845192 -36.46300264375433
0.5394844002417866 -0.09657678633227847 -1.4023218499153791 1.4948309931556576 1.795645711455159 -1.4658494303045095 1.5342101430863815 -1.5233479127540759 0.5091612758557589 0.0708807922702101 -1.0211234054655467 -1.1720274633132668 -1.733531803732133 -0.31761064802443467 0.435807495251167 1.8007275518170853 0.4820017478093323 -0.4383086810336883 -0.5546399818817633 -0.1323574010381173 0.4894576179799722 1.4662399525244132 1.7933974616829906 1.4168481529716708 0.3125791830177052 -0.8094924627458577 -1.7062931326806725 -0.9946470235129504 -0.6349014063762187 0.24492622316671495 -2.8699583262766533
-2.6173673503351798 -0.5267934730073505 0.2724111901395748 0.2634985966515243 0.5521737297024776 0.3979911919100979 -0.22871366548462016 1.833890813760834 1.0019949558493084 -1.0123783788608118 -1.0889516811606232 1.594887773189037 0.33107392263300606 0.6567968378787485 -0.7016970818144144 -0.6012756511762716 -0.5068363080749133 -1.5825093375731725 -1.8249666048613975 0.04726407323026273 -0.28072631238791995 0.29710123987469117 0.3201871786440591 -1.3993321741263953 -0.593479326629441 -0.7598531413962875 -0.5002022921564525 0.027059451111088623 -1.0921879505417784 -0.5655875176022347 -177.8671563925564
0.3179049607325491 -2.036581046446592 1.2742048586591224 -0.777739893118185 -0.5264648839535986 0.36398732221346347 0.02137131703354318 2.5922917814787105 0.2855359516708497 0.8708252797132794 -0.11941720092407747 0.8571585164378588 -0.146747075977055 0.04473519153449124 -0.6511521869758455 0.17635462041221356 -0.4274113419138778 0.12785369916075542 -2.0604319227995704 0.7634119714214235 -0.6722066776172703 0.7374277283994013 -0.07108029635488006 1.2960059137672888 0.20777396926834693 -1.613593535712635 -0.3704018613993475 -0.4562669810630509 -0.8545834856481908 1.4770352675415093 -7.765603532841531
1.9366358001688908 -0.28698034583378806 1.6505166560398752 -0.7653603865516102 -0.7381296163691684 1.5406544255149894 -1.2380247282503276 -0.09542513781874158 0.9595907134611704 0.584495522052195 -0.6791249544201999 -0.25239099557449246 0.16348153276407984 0.9408131172679454 0.42485374839653856 -1.34167885706925 -1.5572749001314787 -0.048178585506092296 -1.5106391564874706 -0.5243207689153216 0.15477016977799696 -1.1634321700708183 1.5253183479520669 -0.10652985766569668 -1.293784200400924 -0.9207893597085752 1.0892972206717955 0.10285919307202172 0.62982360892195 0.7995638287856627 -36.20098788791512
-0.8783779734823896 -0.6364245705233262 -0.7683497004569296 -0.7597217100168009 1.193967393864153 0.41658605037397906 -0.7328572791451174 -0.569355696709098 -0.3849067951989471 -1.8378802884774388 -0.6757798641975574 0.17456543436236124 -0.6443919112754186 0.4005429567292781 0.16865950173545607 0.30996477927602945 -1.5232254365353295 1.2981128252725798 -1.1672234595645883 0.3356453768979911 0.6018992531728323 -0.4584922255673961 -0.6652580372331711 -3.1473490769233203 -0.6142410032105462 0.8548101957202621 -1.0079419994795198 -2.348608116993023 -0.5725255755383261 -0.23820472281660682 -246.6487139283047
-1.7641000815818995 0.5920053852839872 -0.9944542654883706 0.8445827360401009 0.6050413516981489 -0.7060657960268966 1.7547620118779361 0.5904064997917858 0.4615450605591855 0.01103091857281018 0.563264101725412 -1.5031700581999907 -0.2525019748329655 0.02455847431264207 1.6006472208895457 0.2859056119023231 -2.0432586018779477 -0.008394826975776242 0.7424004639928716 0.15241336834034752 0.949235645377327 1.0592341166804637 0.16648974004703232 -0.19169646110461946 -0.5715792000666247 -1.2373317589165618 -1.1127592048476969 0.356784405612055 0.2694004104399684 -0.6280044664611303 -19.435155573535337
-0.5567448493609962 -1.5921286088514572 -0.7512447370032845 -0.8576676097539344 1.517721202238676 -2.3091090991107435 1.0566819890932149 -0.08635264037774831 0.8568976826688913 0.38511654221863123 1.52184493299629 0.04126263665216234 -0.2852420439709228 -1.5322837145524624 0.22468909235736878 -0.9336854332902405 0.32911371922040006 -1.4014992324641626 -0.31546555714857505 -0.055957864995010625 0.9563405924578552 -1.178889063478304 0.032169618959387074 -0.23577046525837636 0.959531084979542 -1.1730490700693637 0.826866339882115 0.664317995019096 0.18324922797208115 1.35875500735748 25.52946651976922
1.3330346417071077 -0.3586171224351539 1.8648057203516963 0.25113425597378936 -0.42855653046885517 -0.7223738674677832 0.08810401051504814 -0.18902370294931095 0.9354363409648526 1.0855605082914377 -0.18236778513749421 -0.4452025128973318 0.9441536623052127 -2.1695956513958996 -0.649345150792129 0.29446196648219297 -1.4295022878835835 -0.8836401906460329 -0.3266322573497066 0.8890272985521259 -0.6159354151085279 -0.2241040234021935 -0.6036020960281788 -0.8099772774079712 0.1751347103674626 1.2735543240914085 0.8645834828037766 0.3465643220236155 -0.7095177452761482 -0.4925390013267492 -55.11141659102428
-0.7028330204588163 1.429430160774754 -1.4927391873816787 -0.18158154348369826 2.167532605097368 0.028104106358595886 0.023983989297064166 -1.5069865739581152 -0.365865211175067 1.1878869279439181 -1.5916735263731314 -2.3253025965246557 -0.9774548820187707 0.6939371298631527 -0.9871919737509508 0.6669150209603633 -0.689284961180607 -0.885672841987769 -0.5854374584647034 -0.5206359762106088 0.16512834644696203 0.21891906217622525 0.4838594758515043 1.1131263893872725 -1.3724430943694135 -0.4412858115908881 0.5514830522066108 -1.180217194090593 -0.1269697873541613 0.44402039094456536 -105.6256171066562
0.37053843364438405 1.1638174791458256 1.1262426922896076 -1.176111661661737 0.10106020437409015 0.7329295924635529 -0.37078050809075086 -0.2523775757333846 0.27292803826775897 0.15025298169469903 -2.050846108032367 -2.129216952687998 0.9205480030946599 -0.2569862939722613 -0.0715681962889548 -1.4009291458648632 -0.059798225314256125 -0.10419399900729213 -1.912152111215099 -0.9667148467124009 1.5231506774914843 1.5810533527854032 -0.5581667512438361 0.42051175948624686 -1.6163587805138937 0.44417125079388864 -1.0419142626824809 0.06642089618191127 1.014061875333168 1.3820524805221734 -36.19332834704239
0.6832289228984444 0.6046429115641075 -1.3161161863636759 -0.0968619126394985 1.2186740042665232 -0.07982181291091163 -2.483299474548862 -2.8284728798612773 0.4768759983981845 0.0072971971067059774 -0.48717497815570154 -0.45226606271847414 0.41679079063781616 -0.7110624771927655 0.7448557881807325 -0.10758652183439939 -0.5527341384667266 0.2384113153080487 0.9193758746309769 0.06381161730627619 -0.5244068758905109 -0.7690208883384718 0.14097616806974383 1.473364517143004 0.9293788625579787 0.6340026011046067 -0.6244542453806486 0.3732483000135313 -0.14849973746805262 -1.105175840606483 -20.752628717773305
-1.8146419005027308 -0.3236289287242381 -0.02477674763914256 1.159935924361837 0.10600142681635964 -1.5081203940906465 0.774188345861074 0.6461863167599788 -0.3297195120413777 -0.09024694433720955 -1.0256184946137172 -1.2988550334970743 -0.5983506762783327 0.21059358972773407 0.5103818990399644 -0.03354848653161979 0.9680374006321281 -2.26582701719019 -0.7228721111628552 1.0910382676151673 -1.6645990072384516 1.3984047499906034 -0.3115873120023839 0.4907740743709365 1.2967904854038341 1.2029592613086393 0.32587148090377155 0.4999943498325524 -0.3936337074587249 -0.907193678067961 8.719534985579006
-0.6266230820529544 0.05347108994700336 0.6030885480554992 -0.23780920011431306 -1.8192455259030367 1.173573400426319 -0.1789550314070085 0.21852442972500524 2.1565007157442087 -0.8917252730814051 0.08596937313826428 0.46288132921840597 0.940264189063393 -0.31531126336736975 2.0152292420039384 -0.5011871761636124 0.4912202909534316 -0.6044798846244731 -0.25767811623990705 1.526979485187174 0.10362751474696962 -0.982845005725843 -0.17353368226967647 -1.4940392612797504 -0.2960810725063867 -0.9066811054695468 0.09212806406747681 -0.7547794039932 0.026332403852221804 -0.2733008034271004 -47.67152509970719
-0.4561251270171838 -0.9096450672482189 -0.22307225792208746 -2.1462323538242143 1.6495493650678554 0.7302773888128467 1.7346994245498404 -0.2156735039801564 0.6296037356318559 1.5654508570863543 0.3594132788002417 -1.0694805794876852 0.9048661506964347 -0.8168022220135822 0.7697092620474533 1.4394783950224705 -0.8392672870065383 -0.005079062164304652 -1.0518458247742912 0.41635910832129414 -0.35916041523007325 0.45357963896411363 0.010579678488965875 -0.010753121876991097 -1.1447486755499126 1.6153094711992686 -0.9561045954225368 0.38860007927328105 0.2717251824258085 0.44293265488550815 55.010419357165915
-1.513061851030724 -0.8107134451370116 -0.18911886396814673 0.603049430221845 0.13212065390465624 2.0329530687304245 -0.05523162418261708 -0.6870329149673617 0.582952334183479 1.368219822682296 1.7648176603179118 0.060659640226702075 1.0326663611141418 -0.6832646511135507 -1.1905956035141165 -0.6842631309676589 -0.3001737354358342 0.14411445460932992 0.605288040066622 -0.617144553549425 1.4597369575277581 -1.084407475834284 0.8795024194492805 2.029799478298566 -0.32373377997715275 -0.06766364645087221 -1.0163083330335574 -2.233341723587234 -1.147491517090346 -0.6358095597584483 -60.32116469819502
1.1409204232367185 -2.3140710526518298 -0.44133676056683974 -1.3378084949352194 -1.83857436713223 1.1739415449921 1.5109523193743462 -1.4671139224787748 -1.7188249874262027 -1.6394960175677458 0.7395814189843674 -0.10063484852511083 0.09371653444982109 -0.785636775331099 0.3987249559477721 0.41534817184263273 0.09989711454625413 0.4384657039279789 -0.15808918396480973 -1.5862554791359367 0.47517100493769504 -0.24404801203803275 -0.4423784838400512 -0.7560139849587039 2.6690923824730164 0.9005955198112485 -0.3639456196744603 0.9750966569509156 0.3717891502825902 0.29368679280515825 44.51244829421037
1.1243911312876929 0.6904504342458749 0.9460476560923728 -0.3492713290275703 -0.12297302284707486 0.4341905554771952 -0.0774081636677013 -0.48004258129287614 1.8519977232463465 2.016246654466471 -0.8198886468435782 -0.7881383945968354 -0.4647798013092203 -1.1755898930008644 0.16053547263850534 0.3473035118320872 1.5898231857215948 0.24963400629818747 -2.799487254786717 0.22853017952307791 0.816219812799297 1.2758112128396646 -0.40344661703751056 -1.1172281086875147 0.11059124710805293 0.2261083800760878 0.6304487020158263 -1.0318033480959306 -2.009395827330086 0.7690878912400662 -40.06445566826952
0.31651705011970704 0.5944242114015236 -1.4696385939937746 -0.39280719997647234 -0.2992362400372286 -0.7506583011569858 0.28030158926171234 0.22912173496994231 1.0870051305878499 0.016482135015946673 -0.43787717962217043 -0.6419750436441112 1.9145551534927086 -0.6083146061721261 1.317167054901899 -0.3582697658161289 0.4418177957179872 1.8000404340062761 0.08920897330820059 1.0532194200879463 0.6822110584770703 -0.6032339651724367 2.0221106446160704 0.5793587243944365 -0.7338520878535744 -0.7380474714113715 0.415796423373238 -1.3130840530165993 -0.30948454792874314 0.8745493076973205 97.63174790186328
-0.9302775519386192 0.6227020494371411 2.1052445098929846 0.4975846591656566 1.6103761832327412 -1.6049724116171566 0.8166575158118221 0.3083069450756031 -0.46374790861408816 -1.3364724945844353 -0.3933308993072177 0.413728862290389 -0.6843352118235568 -0.2839015624405232 0.3429057329526864 -0.12303105855761887 -0.5907658764422206 1.2234314408178646 -0.19119955421758178 0.00014513585191190193 0.6494793519807018 0.13175730434058247 -1.9002287944453866 0.30731066893061293 0.20020609010870863 0.8136159105400365 -0.5134711551621547 -0.18387425555865006 -0.45504174437914796 -2.6784548412028437 -108.96311389224343
0.28706543036294074 -0.16575668885002698 1.0696910811136806 0.11435000114972546 -0.9549775926560107 0.3327907564222029 -0.9317524766070832 1.0041291944223136 -0.27281251183841276 1.454027440665795 0.9487802361004556 1.3590948999937111 -0.0666694961363938 1.0189998565861396 -0.24104361699019458 -0.5901077628473133 -0.137154991301554 -2.282199779918065 -0.32275688535146535 0.4235108027446963 0.8204727537192756 0.5402981670428995 0.8125466235624561 -0.7283127607056213 -0.037490409485338 0.5389063655248465 -0.17359161057390443 -0.724084010520753 0.5718841356072218 -1.521579974714469 -9.446837538335778
-1.6047349145224201 0.13613855729170823 0.4887176762119322 0.571761106532106 0.9295506402840567 0.7390267109353257 -1.8632090011701057 0.9269077188580582 -0.20719005394016568 1.0181154960691137 0.7166942402549276 -1.2730152054600372 -1.7740506808564276 -0.012862660955795741 -0.5438873560708474 0.43517218578725503 -0.7248264829160639 -0.17003342965099824 0.47559888059946565 -0.9573489681007484 0.5726530082276895 -0.3865138151176895 0.7197338526444641 -0.45772574869286936 0.4734059177526987 -0.21014669995470112 -0.23539397564954662 0.09001383539950991 -0.2672293336707487 1.0414127550598367 -7.703476521124966
-0.20864731385262356 -0.09384915576791227 0.32864652495270913 0.04996532288927938 0.03350762678148084 2.6913809204413854 0.7470360770735968 -0.1367173931656594 -0.3075907971382546 0.14805992651232186 -0.7324163736524298 0.954753759339205 -0.371710533712756 0.29819163629328377 0.5440466959110835 0.5641009125541933 -0.5286702298990675 1.3479505738291728 1.0920649645427252 -1.258051507307006 1.8785740752700484 -0.5354664704890596 0.5171609836958664 0.7366659570192576 1.4772725502771071 -1.4123511571521699 -1.907079560847101 -2.2760057084837224 0.17283267301332453 0.8838577585755283 24.644318171314552
-0.14205126354061845 0.5783836715084446 0.16195739466954376 1.1537514919822989 -0.015761774874366676 -0.18567374539305895 -0.6096010776186783 -0.462974493703193 0.2677166459844944 -0.1053148030877503 -0.40895301072561596 0.11091657542574794 -0.08232674804299597 1.4243509730398918 -0.6609557153209633 0.16948758068282083 0.5673921857720107 1.9276789024002292 1.135375405521362 -0.7059693513158817 -2.7115511640303014 0.4457726565756266 1.3979909067214027 0.03753540247370078 -1.206767441762762 1.061872349767536 -1.2844564069916717 0.16747717126279518 1.4516604862882918 -0.013514323570073348 53.20468609567848
0.34809310710459396 -0.7657524924779864 1.170098003727488 -0.746862186535793 -0.9804923006059102 -0.30303536490962935 -1.1952652957685683 0.5229234102382015 -0.07158331004553677 1.2306946648341393 -0.005272787413438092 -0.03297894619748041 0.15794062814109894 -1.226257719936123 -1.0989622297647517 0.011254687249087344 -0.8653039599923409 -0.6892270319607926 -0.4845436789532085 -0.22513419511833552 -0.40208845837799617 1.375202451616903 -2.026892241554472 0.39108195329165224 -1.9922188523528752 -0.26087324054385697 -2.577059360800424 -0.5718275291377344 1.5771967527799362 0.32212684630357863 -175.12804901549535
1.634708219657171 -2.281682926309504 -0.6974264801798795 -1.2578972876809633 -0.20463590036716583 -0.11607962178796809 0.9650421415398862 0.8489113803607594 0.5620884717007399 0.20959809427956202 -0.6769157360279391 0.6809333795955831 1.7285212226684221 1.2397864428902297 0.8415251739880321 0.578898755056894 1.1311420900487639 0.8416863568432491 0.9406308587268439 1.0130655600052896 -0.8942329293281042 -0.3833536565218686 -0.17485870826258343 -0.8558749212009696 -2.1245382231747625 -0.06384454796497557 -1.198448428114111 0.24013297996037158 1.7366035637420254 0.7228579271895657 84.3760361548417
1.8528104263033163 0.3326473466869626 -0.6511055790875084 -0.12298048358087513 -0.5862567085174764 -0.5432223388514869 0.12413242997934623 -2.0048718526343072 1.5903752834140727 0.48330315356110437 -1.8747938643627142 -0.3958926366183197 0.8807816088086083 1.251415189376339 -0.8503696679944948 0.8139949620904228 -1.4951390454513132 0.8082692849379146 -1.7236577694995623 -0.685325653469858 -0.8242242668706705 -2.233635093633788 -0.22004616354661413 -0.43007474047335775 -1.4321951103817523 2.0820331251788833 0.3644948090673084 1.0415422124317757 1.1292214159041467 -0.27119998424633623 -55.28188897170871
1.1507912780587375 -0.22770015081822126 1.1610794065271703 -0.6373329483475949 0.13572155260198782 -0.5227590206585849 0.5857013490923106 0.613835468790716 0.2102382564433319 0.13849360294294252 1.2924839169129114 0.8371851188774181 -1.0335627723726977 0.5855521936809254 -0.26876287939332666 0.2945936033082973 -1.312991435898595 -0.26564787966197234 0.2155878323358604 -0.06227286476659297 -1.2238809347849307 -0.17927729394705968 -2.3235370580954817 1.3388163232037924 1.9928962120889704 -0.07098096571619103 0.6438587166966568 -1.7872678487372649 -0.47971093231615125 -1.302601997553692 -83.12829173174559
0.911795335826364 0.07053070826300005 -0.5400746831938315 -0.5918337913077757 0.20306225403680933 -0.32345809289794425 0.42227598417229156 1.2195294072943368 -0.4776141045513719 0.8314789955260701 1.9506610556020938 0.05293839638667093 -0.999805848769877 -1.1806582953291611 0.06306077551774274 -0.14494351779662407 0.15688908350859837 0.3344376920449819 -0.09699218915274879 0.04677598739792042 -0.8766822476480645 -0.10893891138970718 0.5257735242204378 -0.14609041613445395 0.2616212481754028 1.0204494488769595 -0.02008327214844258 0.8182787914084454 -1.350536140898492 -0.46561444869122603 2.3410628169834258
0.06578910933725383 0.4857709848792953 0.3968232673396855 -0.7773788334641378 -0.34037765330429287 -1.5277024528211498 -0.32613245747804726 -0.6407002027214618 0.19245401351218158 -0.863576598260398 0.7988650660806996 0.1828045437463932 0.002801375265198767 0.36084330273751164 -0.3618523463040989 -0.6440381045548988 0.697203339715789 -0.2040482414690687 0.17688328457725316 0.1471820615735799 -0.012812902266396097 0.0547876104547365 1.556585615942727 -0.7259703537875973 0.45032807266750263 0.5863232020924571 0.7485878618664752 1.289890875570327 -0.6345571161569263 -1.5717693200482945 26.22068686440653
1.7292099366667515 0.6990753319386808 0.5522133402112759 0.8488518084402761 0.8225437899114508 -2.192903054825415 0.20559060514623048 -0.31095976102570533 -1.9613661904679365 0.17421974211728536 -0.5821611122204083 -0.18619262733842584 0.14744169964908943 0.7517988484498497 -0.9798150418773051 0.017847013902483208 0.5975105162185028 -0.4245213122362833 -0.5723611935044455 -1.9076934414670004 2.0126920832110566 -0.6397425997242657 -0.7142157629664244 0.5580483113191823 -0.7181708173363175 -0.5436291846021225 0.8716872391930223 0.4953559869350008 1.4615717967910318 1.2742128058072633 34.995465397689124
-0.22610590574215972 -1.2352030601194943 -0.3122519839707952 0.40713912482399234 -0.7461578018845322 -1.1494359607257603 1.248035816173389 1.080410932330946 -0.6324933308439397 -0.690923643611356 2.24182436088247 0.5908342549033746 -0.5580944577184923 -1.3047750726235536 -1.771454864591757 0.28338247106308967 -1.6430504746261276 1.3369672955949057 -1.695105472101995 -0.7910793266630167 0.07698401276299013 2.1706969098927913 -0.8164639145081692 0.23680191280012183 -0.3482908019438269 -0.5837262542330567 1.4566450983510209 2.263693139066896 0.6255191525183441 0.5404874662394504 74.97911911250135
0.5441270749809407 1.5901084914193993 1.0798504004482035 -0.476387922410514 1.028692764184673 -0.39362833100328254 -0.11594406271585973 -0.8419020341206621 -1.7019211593193748 1.498860148590353 1.8552063468921012 -1.867015272070644 -0.013402021815607828 0.9535418277474889 0.41963598681260583 -0.17053661873692935 1.0702053309442572 1.261368942405022 -0.41700141969543314 0.34053968474854934 0.3353766096169592 -0.348775538536553 -0.8392486119460738 0.720502060149935 -1.1639723657510601 0.496022441118336 -1.3899817669809076 0.3174456668973711 0.7054723583346478 -0.5364707001457437 12.050333760667773
0.4876979666018534 -0.7813005037727941 -0.7233485905070024 -0.05289634233761315 0.3284889549046322 -0.14649864084806674 -0.28191395122833435 1.6810124541698803 -0.5941116132641108 -1.1612499918603276 0.35713940436242636 1.2494261943512417 -1.367670976090785 -2.5151117809644292 -0.10489828735747778 1.1629094049771627 0.35361157927684367 1.7876591285304892 0.7979622032791356 1.3765941441134923 -0.9430019189986969 -0.7668119137013325 -0.49340266557904716 0.5144384441410843 0.8079666106312479 1.3867927854042919 -0.8743292760313736 -1.5303281389007226 -0.47303972390921206 2.0670143792371745 57.97822683931224
-0.3903813839152397 -0.6007747487363575 0.5277794629648562 0.31344709888622513 1.0391693606281625 1.4731848790672788 1.287512529986144 0.017385035755024016 0.4430933857278555 0.7765639519595355 -0.4494574799031236 0.583123100159446 0.8844645947981011 -0.4904130632270253 0.5166660216043282 0.002541354134151073 1.1604162217917342 -2.410669840906424 -1.3206761527640278 0.46058960010322764 -0.7214276929462461 2.212575615578869 0.2831011310403204 0.959515977681939 -1.746340382870285 -0.18936442761443278 -0.8960768127611163 -1.2113931873414785 0.9081144171082542 1.605584599169406 42.215257928203314
1.089428566300272 -1.153151285667224 -1.0559388337739577 -0.18302980944001568 1.1397464662280312 0.3660406229639235 -0.6453373168331362 0.6161578527792332 -1.1524955083279784 -0.38858340678406184 -0.6408700075161626 1.8766854369415815 -0.8642547843115268 -1.8031705643442193 0.29222735788120247 -0.7381586318926878 0.6805606923197778 -0.1955392329315581 0.3458427554534725 -0.15732028595231565 -1.1579734839585687 0.9172261596080054 -0.2914487827596555 0.20591092348807427 0.6014252627290289 1.305630928208189 0.6651808514812697 1.1188696823976783 -0.3162815094000818 -0.428178066465252 39.612392471035
-0.8137616170375515 -0.47792802922089245 -0.08712329448208717 1.1341206737322387 -0.5751558130828361 -1.395908827033397 0.05909685259624384 -0.8987925810549252 -0.6982375987650853 0.7493328045630945 -2.3647099735044605 -0.8259155890123561 -0.11008242676867931 -0.49394903566029763 -0.2473038342661839 0.7835653766722875 0.5177219165288214 0.14015115517623458 1.5130092982234846 0.7236981450562179 -0.8191824395186594 0.08807682024697631 -1.7020680641014865 1.205786046003123 -0.5357587242365034 -0.19244397576321595 0.4467896272587541 0.5419158621051678 0.6754913438153065 -0.7154055092467814 -13.990069908571797
-0.7917413589084626 0.9169844195728213 -0.7121728309676171 -0.7796501268160825 0.3010812168463566 -0.36093189225768374 -0.06338805349630618 -0.774747016351207 0.4480506659274113 -0.03957067340155678 0.4904779612091359 -0.6281830920590168 -0.7716768602992464 -0.22813582866807017 0.9782698617523312 -0.8112652979910548 -1.2670249845787727 -0.10026123950158426 -0.24321572831664445 -2.041575512847532 -0.22898214981159618 0.8420238317497425 0.23744018013473386 -0.10551672817328753 0.7919666450391901 1.8821035236942203 -0.38609595396178575 -1.0624222401246175 0.3279156834922618 0.9681491401319651 -5.94106930484406
0.3680887712956109 1.0187903200907615 -0.2213211931459754 1.2455109629460728 -1.8043276737899772 0.5997368306527567 0.40849825839557324 0.688924524044658 0.8196347134861333 0.6989691206389106 0.07014429862079208 -0.18047788282255053 0.2649152118388153 -0.5765856921914708 -1.4438101473660971 -1.0767542282892106 -0.1424285137799886 -0.9892056768787207 1.4750107512259583 0.1111821497127387 3.4423998852887143 0.010593100788227828 1.0166552241567275 -1.4700189852458105 0.5217962609683193 0.16258300257919467 -0.5725893888344782 -1.3269637250235329 0.4135258621222958 0.012645570025257775 27.281990576095964
0.7404186982953183 1.6117130510286275 0.07720179674431557 1.6592213748019091 -0.4023160848907727 0.8442745093201739 -0.447690204838836 -0.21581518876064276 0.6173088289996654 -0.5331395752445176 -0.01721424268683488 0.10337012769741132 1.392306297528537 -0.8023453643247916 0.7767079952701925 -0.19675557101416014 -0.15755725506064425 -1.1728407280962163 -0.7174477467570433 1.88053599050653 0.1652316888582766 -0.9400807267816073 -0.3213821129932029 -0.1200647355197164 -0.4482073251494771 -0.7173618798717573 -1.318785766383422 -0.24471818392842629 0.0011341303144740728 -1.313746439770768 -113.6882633850922
-0.41265233095856657 0.6713515918102614 0.15123022854725127 1.1563999598995474 -0.8947343153330136 1.644008511850211 -0.14145979950875087 0.32208221148991434 -0.37228184497038075 1.747013605200798 0.14461032273761004 0.4896473547722036 1.7033000490937993 0.1329606747224559 -1.3275786869642403 -0.055156198681725076 -0.24666382122957328 1.6339769570221885 -0.7789499868294167 0.17921409054326717 0.22975198469825406 -1.104141201947452 0.009686026799839143 -0.18802205557440824 0.18487113015758513 0.5522078364400106 -1.9875594794559408 2.7717118344002594 0.20907064455640553 -0.37506122974285444 67.32182766899201
-0.7582207398848922 0.7097466675694772 -0.8868659643253444 0.8883403004471814 0.028717405162875156 -0.31022080016478637 -0.6660832796844119 -0.4337091708190587 -0.18123008829750545 -0.3665446874923145 1.3612615343247103 -0.005531333683917233 0.8906844533297151 -1.771919174993567 0.1182680809194571 0.138498645091793 -0.9893062238292553 1.755717693627571 -0.27536307653365893 1.185985935941945 -0.9248144080034101 -1.6169529000276104 0.0848213666951059 -0.46067721454630794 0.9438062315456989 -1.0845844826558182 0.3817628048677363 -0.21243960628274453 0.059865473141800345 -1.053519160100161 -68.1773606535385
0.9859223541496246 -0.4624575850579505 0.1993951029982307 -1.841197412338741 0.3250700540623031 -0.8110999982090034 0.7397736324554381 -0.5141957176361727 -0.09990811543747544 0.925730382675296 -0.7714951648790642 -0.1477749403205829 0.6262341875537017 0.2963974805862112 -0.1719823845162613 0.31804946101865966 -0.2141990259798443 0.47657441081827834 0.28473710402667973 -0.4398680149764528 0.4492426175710377 -1.8772047870792798 1.0529636538472977 1.7318069639077744 -0.7451311200444368 0.36907444796686095 0.4720736899879506 1.3036061339370877 0.3880278488228149 0.2710460905270734 98.77583170945547
1.5119167800326614 0.688608688800847 -1.146883007382549 0.1570478063951223 -0.8832128155796889 -0.12102415878730251 -0.34954550080374935 -0.47463631214070806 -0.7040950474982829 0.13487481373409005 -1.6852014990450706 1.8340706587831377 -0.7363626852145307 -0.8051752770545565 0.1950479272767613 -0.2516842060972817 0.02616083570693703 -0.447786002798629 0.15969906366754277 0.9062585061371592 -0.6650243761100034 -0.2526777974423843 -0.44158807616422996 -0.49324393682859413 0.10554335749778936 -0.52146122296931 -0.17670079795579433 -0.6972998823837404 -0.3775149912910992 0.22359396760058806 -102.5534900908983
0.8053499314537328 -0.6697987576097709 -0.058999753848874154 0.6589942066957469 1.8277353735042694 -0.3910485847594754 -0.12352813880457014 -1.9246632078872614 0.10755046725254523 0.7442670663204592 -0.6996952617652297 -0.3725086261571553 2.6514246957500327 0.3336746027050761 0.3806939031769571 0.04706249353501061 0.5188609214479597 -0.973301655596294 1.2361345527873666 0.3666327428881208 -0.6824820324807466 0.8181511781609084 1.2709543323221275 -0.5748627941994155 -0.8309984438812369 -1.3253068310961786 -1.8131823907217726 1.2868777788487202 0.43954124335928807 0.7118671626234143 42.266328081670906
0.6670186590340922 -0.6991855272243406 0.4250561586978658 -0.7847518966740014 -0.3237171115719762 0.3003219317253603 0.04699940057313397 -0.20813339445953444 -1.0779605393980474 -0.8441360786731733 -0.46545897956191296 0.3127425644422955 1.0262228836449756 -0.9159269780253945 -2.753760736511534 -1.6490885900300694 -0.7109234852881974 -0.45378780857465423 -2.297862936769609 1.5564120142928215 -1.089027967921212 0.25869331758156533 1.4204778708497277 -0.15518637499881047 -0.8100471434985804 -0.7777413316764201 -0.6838084432364755 -0.5494309094118766 -0.18104704762101312 -1.8035438731278093 -245.89140085105427
0.3784861705934924 -0.1941890426174585 0.8035824617293297 1.6178974280404321 -2.8719486886849297 -0.14785950343521354 0.8360310394484142 -0.45890050387874365 -0.7928346399341539 -1.6861138686890955 0.12086695147197078 0.8662123075689173 -0.1148785232907546 1.9066797478299657 0.5094397194250854 -0.28369085913001574 2.2424209574772034 -1.4421995215990575 -0.902725947154619 -0.23631716299533692 1.1744801183740756 -1.648715154538271 0.7045842848521765 -1.3191715731113578 -1.1808070000536695 0.07999569038538054 -1.4279183221206282 -0.1354424369739721 -0.500896155014677 0.5140878588068826 -95.92167410048283
1.2427299122667474 -0.3034027492590139 2.060270489431071 -1.5775551134214219 -0.011731401439706196 1.118162559840274 -0.8912211229347458 -1.5247167372234074 0.38555625605026067 -2.1819041270456725 -0.08686759030263679 -0.16581706972076388 -0.9937405207188672 0.8349742477195211 1.9636986762924167 0.6144254939847609 -3.498231550167469 -0.06972526434073009 0.7870166185690379 0.6136171957277358 -0.13618556188257314 -0.3098467867516024 0.20059272077389556 -0.10221749245615325 -0.8373651054727724 0.3745263229160777 -0.5439306784902214 0.7315086329733398 -0.1841622111634405 2.6373649922004483 34.6111430345115
-0.7827798116718652 0.06981486763837078 1.797899923247374 -0.7136459281677267 -1.076487600406948 0.0953964878239189 1.115263767703307 0.6087919044825931 -0.46182356666652574 0.7192799299574537 -0.808503548984866 0.17261572043041293 0.9684718170239526 -0.40333077406272816 -0.14946646788990908 -1.0865509631498225 -0.025049990180013425 -0.7426757463685341 0.289619809062434 -1.6723334591935273 -0.8562738875471936 1.450139522907221 -1.3020533784300812 -0.980100315775438 0.10358991594421953 -0.7260297472653442 -0.1109636227409493 -0.13478923792683886 0.5937296470019001 -0.2546149631518246 -101.77048554830527
-0.8636137770151293 0.45654594609897237 0.9926224398597338 -0.7146166619431071 -0.42053212372740345 0.7378754284538214 -0.2639174160144943 -0.39189189993310364 -0.9291074416785094 -1.0317726019627385 1.2154039870548594 0.8012920331366014 1.8610202900394888 1.2854280220953986 -0.3532516299442909 -0.9217722310848045 -1.3587799671847685 -1.3763631253296646 -0.622319098381533 -0.35591973501273333 0.1502888250891194 -0.7916060276230978 -0.5257853619378036 0.4483735799919163 0.004945723183613911 -0.8669395961552472 -0.995997094208417 -0.6174384111848112 0.2773111323002694 -0.6071351404292743 -136.73540540364385
-0.026592842472460503 -0.44416278506230955 1.0512235593353534 0.3873614183355739 0.905643041573105 1.1073041591059192 0.263192695647543 1.3166843601318468 -1.102572256513404 0.3562391948389623 0.7207968237747852 -1.9430321114074176 -1.159470887738252 0.8910640474893436 0.8045829157216287 1.9726276804597238 -0.8986118237947631 -0.6923888186036384 0.7246064872440036 0.11249071851222421 -0.03517290984612414 -0.5088583365350118 -1.950133401861686 -0.5029343077129994 3.454578969636093 0.24906672187269951 -1.2420622292565828 1.1269231903415204 -0.9170326466133899 -0.9838471849892831 0.4329755118284879
1.2132649276880771 -0.015967846110719 -0.8206186093816812 -0.10667422355521286 -1.6305838688723555 0.3991639496946728 -0.5735870067760919 0.14818841734010718 0.12574323754773567 -2.0091215466130055 -0.47621143573586877 -1.0645842863905584 -0.0867581047064833 0.043531640420339884 0.8709816470192357 0.08626999228079799 1.4059841942267788 2.436690240788028 0.12159072599340462 -0.4310798632564528 -0.559042094295594 -0.025553697848590236 1.2629965185274432 0.1647277674330323 0.7681970144025755 0.7126537129549099 0.5972602001858545 0.7511303059159891 -0.3529141373419179 -1.3722230636532893 71.80021499369417
-0.28237382933614624 -0.8056043300165917 -1.6516800149371038 -0.08549395152430024 0.8442690823596385 1.0085498356297249 1.2447095877364316 0.3125165872932737 -0.28976088539693534 0.8200406723027561 -0.6743759382421599 1.3405610473005323 -0.9233341428948884 0.15782328465384918 -0.17860822448398314 -1.3325133021412083 -1.2519004512363539 -1.2114450796909422 -1.1413949853257936 0.3372732298209194 -0.27385395215026886 -1.257621770477229 0.40787260561274313 0.22469798294768786 -0.40225223783963737 -0.3864036162392323 0.046566884579684324 0.051742543868114124 0.38032348730821525 0.7785677779954377 -65.10955017872931
-0.1875937856231478 -0.5858594191828129 -0.3018237631213481 0.5443193610233064 -0.1517617036992157 -0.1433085690621734 -0.1839996623752226 -0.3307338347979724 -0.24419845855718314 -0.9354562478338403 -1.857244488822021 -1.502330617562123 1.0372344868453778 -0.07697738524568987 -1.1167152811085905 -0.08983403046658191 2.274788359901667 0.35100828250311894 0.3403256921838418 -0.9250954565304079 -0.93928176985071 -0.06920750040341342 0.779364846796969 -2.0230677929930687 -0.022348731006154532 -1.295769759204106 1.4061665122957399 -2.1987105606179735 -0.13384320191919596 0.377010423922543 -131.6919629552101
0.04683599830490869 0.026187653014082143 -1.876501707549017 0.2718091060103351 1.1671035774935483 1.8235526620026887 -0.2679775569389552 0.7781722444047687 -1.9066273119094983 0.2738896625236358 1.7410452012413618 -0.30045054601899174 0.7513573313208233 -1.5238093955455092 -1.7928778018750537 0.40918720713631457 -0.12277038469054037 -0.6644973839484576 1.5884693172189859 0.00668643202819615 -0.3033760095138095 -0.0698593851596011 1.4409420372716255 1.362766861342211 -0.17389688862508093 -1.1310758786189878 1.1435597924513818 -0.04164787206019816 1.2127340800509614 0.19779753666252556 96.39068442600414
0.42650595088794147 -2.160033325020931 -0.5330216046876394 -1.1847076676496884 0.5252804272096215 1.154205518142681 -0.14967784662083278 1.2420292739496361 0.23713225072654837 0.5781453538297407 -0.9342987288565042 -1.300069116732455 -0.7495120049482157 0.12257650755679271 -0.8143861661991193 -0.6117117342531306 0.7024373857632537 -0.23672090768908713 -0.11481762128918152 -0.6102249261823601 -0.06420678111025771 0.6383325298123087 0.39433592176052434 -0.15723336013670922 0.3514426371539618 -1.0090194877914795 1.2604831174578437 0.4280613987670126 0.08900719875069685 -0.7281675295527579 -20.94040600385983
0.4998793514186642 -1.0133604032578123 0.2456430977112601 1.6728059614847546 -0.9897070048088551 -0.2761569406358416 0.4237260501122359 0.528490694491129 -0.8607070583979612 1.5746265622088351 0.4877228716541775 1.1515304157309825 -2.38129985695454 0.16362624856096994 -0.013968384546662996 -0.9410331449154146 1.9975665282343875 1.2671326126512967 0.03132871619290045 -1.5757132857889709 2.266200882117664 1.4684623567845045 -0.9091386346193194 0.39363371542567716 0.8226925440798307 -1.4343346372935522 -1.2660293320404088 0.9182611477196991 0.3186380403858846 0.7110333362927993 90.3327941951824
2.399246607399446 0.779898260627611 -1.6103247721364888 0.5830805903817006 2.407136707260553 -0.7664856522831625 0.3357556492925418 -0.432035940282483 0.15083453128219065 1.3373873507275167 1.9150343940154202 -0.3212660880007655 0.46722911611137513 -0.7321843574274981 0.07740478573586207 -0.4172057825278837 -0.09827282731717407 0.9052018116251984 -0.5099317713572351 -1.0913824021867473 -0.854615990281727 0.45660737331196555 -0.4745779395549223 0.1269282075456122 -0.8272331867483683 -1.5399994734925835 -1.393550401648125 0.6313923448475705 -2.7673277748809366 -0.051710255688283205 -165.8703062393605
-0.029299595709925054 -1.0303682878434974 0.11167286589497559 -0.7080224919518869 1.0194251794330693 1.8617039707289167 1.4046721982574455 1.4958605307329047 1.3939539990023904 -0.7066186823034274 1.2884818745508109 -0.9861324870006243 -0.7548789303134429 0.978067777616596 1.1502896946909151 -0.5618834454833211 0.28653998679403087 1.3929770056478301 1.1289346418526653 0.7620972080920572 1.4984614410321209 1.5167522387173036 0.4585436651007835 0.09860207634592622 -1.2348990949942487 0.10296844846821844 -1.350357765588215 -0.5931199546926248 0.15748754827690303 0.4921893478913393 135.6951721012422
1.500643689352979 1.6370942352783464 0.38927536650258787 1.6205685124082618 -2.038855255768159 1.1376304404912874 -1.8451727035777918 -0.1384510831755321 -1.6681164157219075 0.4797666269753914 1.2450803255526774 -0.21383879887758983 -0.2007966640597719 -0.33295180216466136 -0.4719164091318845 0.5977560463747003 -2.0335861007113487 0.5197655417608906 0.8825245358902027 0.923401534183021 0.1960492956594721 0.549024661035717 -0.8591380643707827 1.2603819153760611 1.597221720374829 -2.4973894438095954 -0.32893882206034286 -0.2903283519155828 0.8285340612333847 -0.37291573581669535 -0.6126303742825243
-2.415158547150531 0.8006910088496036 1.124023048833884 -0.5338273329249817 -0.4593150407236101 -0.1129293931892581 -0.6606619130785107 0.16014209166284216 -0.1537303797956307 0.936295158628159 0.043337210526909954 0.8724860577893868 0.7704311250164977 0.8093622523333812 -1.9950386715822033 -0.7817420549058903 0.9431649842924844 0.752900721338218 0.1818368519091223 0.4882025928851842 -2.480911615901655 -0.563905568708073 0.18103940558480927 -0.3468458681545979 -0.8216814438065937 1.8429456451817148 -1.4092930072135834 0.9895278043349244 0.11255909249538999 -2.2957450127522105 -83.79274216913147
1.6258103447736236 0.9875052103698458 -0.5005179271989377 1.8030850276840287 0.25391241418479965 0.14696046945741628 3.118199997423271 -1.0751997045198152 -1.5957905962839023 0.9261311169514516 0.14490660550678 0.0004186019775657945 0.6402530039544125 -0.2822466068183754 -1.2749433728412394 0.9660556495070578 0.3983387670319444 0.37704655351749494 0.33413648183230416 -0.5517284702656235 -0.7044049373306824 -0.12927238182931158 -0.5217384980817266 -0.581458824822029 0.43457385609667315 0.4301115353238981 1.203837929398783 -0.28045033729268426 0.3997175878539398 -0.8067401834347003 22.81799774941823
-2.164247094487915 0.44004931690518373 1.3712591114039423 -2.1514969650410647 0.06371805132651286 -0.34869483390385114 0.982826338068861 1.1844366405661655 1.5541589162408795 -1.0595923839324715 -0.3752236274614827 1.207558451646237 0.28765717417257936 1.0106126773690516 0.8336734722376828 -0.9513597307469557 1.5101044547936588 -1.4800108826722733 0.39510282826656296 0.9695767023209091 1.9314767104868207 -0.42050158001106747 0.5009070994894994 -0.00545239056553591 1.0143654372285118 0.2604185309033969 -0.014593688038918992 -1.8278003018648987 1.501176573067602 0.0688503946829092 131.90592599922093
1.308887889324793 -0.9274266908621648 1.9974259952609825 0.1473567931109172 1.287348342918498 -1.39145553403304 -0.16059835897956604 -0.5456191751725842 -0.5705403674736081 -0.41488608805307564 -0.36444196608091417 0.23770793937167503 0.3536138432974293 1.2755074303729996 0.45739042313206996 2.1124786404512355 -1.218331671825019 0.45630160193924346 -1.6999767361852995 2.851616113691006 2.1022005538239195 0.30524809865275526 0.08527332740045798 -0.017129025824611954 0.3298298365599001 0.25650442174276705 -1.3256939334651279 0.9334084604887685 0.8265242783875957 1.1527046525949372 179.57207181869026
1.8071640879646416 -1.6079368190232626 1.827822470968275 0.8875245742372341 0.42164227061776066 -1.195969978731354 -2.0527522279158767 -1.1124722568329202 0.10498954533798303 1.6040038775164527 0.007913929660532622 -0.47449317736170255 -1.1837409481873586 0.6836692761485614 0.6061734167609696 0.31358895677553633 -1.1665488115902138 0.7705247205958098 -0.5567293225919903 -0.256525044703766 -1.0230087418306901 -1.2370708924879834 1.037589174479005 1.7017393641805791 -0.9147271630801139 -0.5574924525517152 0.0006431790646591239 -0.12438794371430824 -0.5200574515041104 -1.021678604304047 -93.10645702608699
-1.5098165721848378 1.0973343192886205 0.06568789572302865 0.6356770241539487 -1.7107967442531098 -1.6794135830701733 -1.0662665659002057 -0.43240531525548104 -0.9304203639096108 -1.9843348192038521 -1.2241463978205958 -2.090775485698773 -1.5033809424204954 -0.035151459924538976 0.7307646578743877 0.33041813695387473 1.0612842677607601 -1.001662893668625 -0.5783364702510501 0.6446245437636885 -0.9767858085503517 0.5584261323891573 -1.3869798452599906 0.08226628374500979 0.44661961988805793 0.20076875757324741 -0.08798891568127722 0.2970298941951444 -0.6281209054274711 0.7987880734653896 -104.86108220605334
0.951059618589445 -0.319117965245763 1.6027545217855594 0.3995930128002193 1.6228927010528709 0.3029069770699976 0.5175183088600872 2.2383136031560547 0.1596567838655902 -0.20813070667672345 0.6824781172512709 -0.6597598953380676 -0.4746489463891554 0.15275950208207711 -0.9758589196906409 -0.8898924818474988 -0.681101763303892 -0.7312602859123993 1.358914888716145 0.16412505924075094 0.9983640245780497 -0.1949487335192171 -0.5611909705837446 -0.651909247761768 -0.5050547665866869 -0.6210735437686673 2.6845240135749506 -0.25182428337033413 -0.2505164720263341 -0.5667308149328194 8.266141628640298
0.4473637812737955 0.079966323385212 -0.5278958460144894 -1.6228676068525678 -0.35170199505966054 -0.7928307281771311 -0.9076097314799352 -1.781926513159078 1.4314174942894702 -0.4451203050673178 0.6310769377484194 -1.5228862390342826 -0.12042296549126658 -0.5123561987622739 0.5766170803019209 1.0068381444578272 -0.17057647331379275 0.8371294758962695 0.8253114204506239 -0.7980777782113507 0.26374642792740083 -0.37446487362138825 1.4362904119502986 1.6315576859853909 -1.1620691046637022 -0.029308197123224588 1.4479576662042066 1.497923812104934 -0.12611551545857058 0.4258082696841314 120.83903166923601
0.35450348229080536 0.9896730148869027 -1.0783844707750303 -1.2090120886260691 -1.8497008986942176 0.05210334404526014 0.354754220397957 -0.28295427034332377 -0.7760322954775941 -1.1295149728673013 -0.36173973373337903 0.16307678445606635 1.2319571332949062 1.3281693798475538 0.44800015850371644 0.2428168321836721 -0.07980653680557735 0.7667696479168297 1.4636860160070106 1.3073842888935696 0.8667828380582218 0.9407095039381312 -0.1425333858892105 0.5071686893187786 -0.44820288287663895 -0.1601673710346019 2.102141010859993 1.6352355636561269 0.17539380050432715 -1.7318879454629994 164.59936183067384
-0.03301777319155615 2.306356518911099 0.3839145122345356 0.38655365954728416 1.3429313523666597 0.8630363695884744 0.12045220815522857 -0.1469194375028441 0.915940045052072 0.622613273392963 -1.2350934145876193 -0.3090157151904192 -0.1269929403777167 -0.9953747150829868 -0.770151223221185 -1.1908086793477481 -0.5286499667578295 -0.9331458101422566 -0.6015241374433952 1.2009363143719103 0.9888502649333027 1.378159971278451 0.7701909500205409 -0.5419951939326986 0.22207352675716682 0.2267185713790054 -0.9130063477040501 0.6555969594845612 0.1201113625357915 0.5924696137362128 38.78520032366851
-0.8992937011665407 -0.9896506814145456 1.3674024429893379 -0.8531840040884258 -0.7006643919269195 -0.5012301310154447 0.3452141414781179 -1.6574451219541353 -0.27140188854851416 -0.3425971322522132 0.2591678683781065 -0.7442626859800343 1.8730025764372322 2.1892125185746205 -1.1395079988018235 -1.187122730837244 -0.13425439687376237 -0.268555665543434 -0.05974522349765291 -0.03734098277176917 0.34944284578061 0.5160256517704919 -0.1890238582528612 -0.1988458113182538 0.017650786917317623 0.22877263019502186 0.17098730932027423 -0.9666532270429595 0.6360985649187916 -0.32718310084758123 -18.64388927352836
