5000 40
-0.2745465400891115 0.14831449514973308 0.6027304364920466 0.22228190603900894 0.2916567590563248 0.9474332136177618 -1.0034559749201888 0.2972937429179517 -0.3871106484923077 0.5119780757574589 -0.27092002209907545 -1.429351091156409 -1.3747777106397134 1.9732365633263131 2.261301154729988 0.654522406588364 -0.46015833692703123 -0.0006959163322306956 0.05898826809056228 0.04521431544434525 -0.4297459436020902 1.2920044430860385 0.6724093366037014 1.4531981564408154 1.4889369077027719 -0.1398436028266934 0.40595892834522673 0.22330938485418994 0.4477237747027181 -2.1031370386182275 -1.9312865899762766 0.1278868697129128 1.307869539597334 -1.742616164881183 -0.04653311248399724 -0.9508025308586221 -0.5446670178266518 0.02144954885389421 -0.6532299811865917 0.9779820363946302 -9.098958085341778
-1.027183225398486 0.21308946502296996 0.26437929682707895 1.0461911334805363 1.0114572154393693 -0.9145631492259607 -1.9113250867941374 -0.7761568774643253 0.648795303032314 1.6994115687678655 0.8598517841950208 -0.48609626826490304 -0.5067405929080053 -0.8589770190131779 -1.0093785388719754 -0.8069374315443216 1.2049887668937405 -0.42708792558351716 1.43920657941991 0.28833715214547523 -0.6208716637270529 -0.87604987777296 0.7317028954975554 0.11123868002784985 -1.6689768931510802 -0.4469791795108784 -0.30528238021941895 -0.750337353465319 1.1738701616394729 0.9844189609442064 0.7503153835596794 -1.3348944783711638 0.2708047585237386 0.24142020031316172 0.9707084177926718 -0.5108734686218778 -0.8809799296806555 -1.262669059156928 -0.1597551150627724 -0.5586907252195287 -116.84622622866024
-0.5266040766574283 -0.09027302571103492 -0.06126128780587121 -1.1018428513281209 0.8257269135892203 2.076644179826787 -0.4589493016731656 0.03306751203290234 -1.5455423811069104 2.3184064925632715 -0.5222535816923394 -1.7373943498348978 0.16002671005181182 -2.0057453039223123 -0.6918257061411092 -1.8073294018631425 1.1411278523467907 2.0472769903834687 0.06862346701477483 0.6618226618381875 -0.5922066929605743 -1.6152714237092476 -0.3979350478984149 0.5661050415937587 -0.5346317231872555 -1.3773454458912644 -0.33439143867836385 -0.5751949294778099 0.2162235227567369 2.065440168930123 -0.33057712587543564 1.2170203407194125 -1.6171923512834339 -0.0985628653134736 -1.1650491488991037 -0.8708841725865498 1.1406726387626118 -0.7245052121374046 -1.0625550450908188 -0.5598347429526848 -200.66461435299863
2.430403962710686 0.4185443949956938 0.5560575429719273 -0.16920591479867111 -0.6609550057233667 1.014495109766593 -1.1946875639802799 -0.8785171678543402 0.09067148935982149 1.842333893165918 0.04640585844157141 0.24670653766884965 -0.6466952547963791 0.5045364750574621 1.8703255049378327 -1.42449520605649 -0.880693562618889 -0.8660497881241657 1.5361479281339168 -0.787718562668544 -1.0039780216955545 -2.4682757145871403 1.3941291224634027 0.5687520243323988 -1.75686821477834 0.22282092593732633 0.6191984983039985 0.6167809568734786 0.3232673203868323 0.2086221569577651 1.2125760255521114 0.33856790113498736 0.7266820130182209 -1.4010536680836116 -0.4834630680716101 -0.5130493341829148 0.06010145523465758 -0.09629532855660759 -0.09071479431389683 -1.328401958059105 -85.3744093447252
-0.28778806087473174 0.3676379870565724 0.5816868554227282 -2.561899365337352 -1.2973798228707265 -0.39300821304005773 -0.8353270103672326 -0.6476886183774577 -0.12249518953488063 0.39563754756783887 -0.5899626575716814 -0.06227631857468133 0.12068378668460057 -1.9787641139178056 0.3039537116444384 -0.29960683340818733 0.17921573567005206 0.21490073914092217 0.8236433537164197 0.07021264950069875 0.5614963358260852 -0.6089629528219048 -2.151825697039506 0.9965641904482064 0.6672607943101732 -0.18256155877846872 -0.0908933294353589 0.9368012987397287 1.0185144082938464 0.2518764846544394 0.9718749780494259 -0.6892652948488753 0.012451777825162899 0.7072262523057822 0.5634393136592298 0.46246619003703665 0.26799370591493515 -0.16336775701876846 -2.38907407409662 0.9542369510756269 29.278744898177543
0.03582483979752837 2.1735408827533873 -0.7300424147913878 -0.5549110232874884 0.08168887438800537 -1.0972781955496844 -0.33276888082360234 1.1069908419299008 0.9367557591824689 -0.1843505940105503 -1.271643924381869 -0.865723464497241 0.618104820738343 0.4128404493897119 -0.11519735787149496 0.5438225109438262 -0.355526429539814 -1.0631035465754528 0.8763356731014541 -0.5933716142781872 -0.794631872676235 1.7848266924298055 -0.76165300854886 0.23621074499005737 0.7169600357178924 -0.14688863747627715 -0.7808215706689418 -1.0807273507156432 0.4816699565605242 1.8100529383587107 0.3082787338979621 -1.4015395556275596 -1.229350679414271 0.41396086505242846 -0.02088312070863589 -1.044080851092793 -2.062236567635566 -0.17190573043792087 1.5743068217086935 -0.38346246916688415 -112.1634871149353
-1.3207761305190324 -0.25659682040049586 0.053691563934870484 -0.780801132554499 0.6864480422388992 -0.47807941749102906 1.1210118162994054 -0.3995208579784667 -0.5618552938895727 -0.46493507480369056 -0.3245496358895572 0.830351567460426 0.45043941640121227 -0.46184416517941573 0.4943504878100217 1.5883189976776786 -0.9813687291078901 -1.1171166364296872 -0.6766165374857964 0.5621706544672673 0.5779937338991507 -1.8418971114293106 2.4139962873803182 0.26393695924435767 -0.9865722406924248 0.6950754348928865 0.8117234573348866 0.517837757915131 -0.2852145994804548 0.30729188841634786 -0.07606883429852755 -0.9481034480705203 -0.8387067923884839 -1.0719131251822218 -1.3484781758727515 0.33817432672417896 0.23460438269667933 0.12308569829886719 0.8277664529587285 -1.0674863427919263 -71.93462208247216
0.3525637546191101 0.9008365569127548 0.9565632259227757 1.2520777667275726 1.1291726711493348 2.1578382437825523 2.4162898317194186 0.4147330412446634 0.08805267580567024 1.0549274067376335 -0.23099066864508314 -1.0043206959744009 -0.33941039013269153 1.4283376346060048 0.810448502123141 0.8266674902729372 1.1309160341046445 0.35897804461556754 -0.17693856016025106 1.3075451443338044 -2.0470739772948487 0.17781369225409688 0.5076178543431494 0.2794939184211366 -0.2572049199564205 -0.3784073550623516 0.9430583269151089 -1.2067784506585983 1.1961214007468082 0.5989574933413402 -0.6026527373173369 -1.8219703347440956 -0.6718179686619243 -1.8545012131112797 1.0257740969889644 -0.9171275016116295 1.435391107962501 0.4545394027487303 1.6020227898059307 -1.2290001257525445 67.92803949031767
1.4338760135457684 -0.3350807478074907 -0.0345002307073818 -0.7621433988645344 0.33517221953205917 -1.2596133632020585 1.0173728336544536 -0.9112504288508765 -1.660947104312423 -0.4710931506443957 -2.143193889334741 0.2571416340646419 1.8449686624681483 0.7681611297801529 0.13216845604667718 -0.1248690864006108 0.9642533889642871 -0.1579879709470275 -1.3207249787206081 -0.22052048352546416 2.1431743912108328 0.3092493965035963 -1.0226049400514245 -0.7567753610255593 -0.7160383926293347 -0.633648097093497 -2.9808494341765193 0.9671175333111542 0.949383428879777 -0.07568399764090851 1.4343745447723164 1.6808461774625754 0.3725629718297761 -0.9325757484751032 -1.1539423474704915 -0.23560788664580135 0.10758637749146893 -0.7211799820221874 -0.5076928489433948 -1.752166946908454 -165.6453285639907
-0.8689632103927301 0.9839095965017433 -0.09305950572485659 -1.2053836306984222 -0.11507140267506935 0.21786410644691145 2.2382960640442633 0.033191592150118035 -0.12709191915667134 0.9202176771619606 0.08392390440940864 1.8613217764280228 1.199847678758719 0.38151837911899905 -0.07574656338373958 0.7528108195340923 0.5841559182104844 -0.8902735087384609 -0.5948624907617678 0.9535247350569765 1.7771273987811367 1.2414957235318365 0.7469096712908256 0.1896312395649739 -0.6249188666037473 -0.6037324608825194 -0.27843866840966286 -0.24177439121760036 -0.04634967368560697 1.2353721691801343 0.4109612304946687 -1.3590295148993685 1.143512129153696 0.8724096216657071 0.3392023581048781 0.9814059917374417 -0.6589831963807781 1.3596995682996933 0.8785957258389906 -0.1348532872615565 295.0074728921746
0.9381121986088578 -0.6413708326248422 0.19687239277265559 -1.286970681273964 1.2087621763493792 -0.27990404158106674 1.6227748088662033 -0.4470078968226216 0.21836807662863064 0.024840688767766798 -1.0833448689829952 -0.37989628271402903 -0.4981119567705074 -0.058225805156888535 0.8468912237266134 0.9000400676780961 -0.25747240682596084 -2.3564682744641807 -0.08810020731169264 -1.0658834387582603 -0.6778288970996377 0.7966925913832781 0.8705993855352564 0.07818023354435855 1.6048198279675063 -1.3290711573967922 0.2966654889651383 0.8446683819411008 0.6714521371783477 -0.5829680157789202 1.1990045031524805 0.5222572887695818 -0.006713737535998377 -0.238313836414056 0.6378235279104499 -1.3007387131428412 1.4573228716457 -0.6843826277360993 0.0895043835835449 -1.0377174890193015 19.101529176633036
-1.8607008522140291 -0.6956768756250599 0.8827048444341156 1.493575968171142 1.107836821505789 1.3870240820331767 0.10062869438621155 -0.20384923432033175 -0.7418342342833057 -0.756671575843915 -0.8619091098428154 -0.11206941171551096 -1.3413381128344966 3.610851628969617 -0.6916055670533394 0.24103101055749973 0.2937071530413024 0.5845981604530854 -1.5666331072069968 0.2718768409260934 -1.5770515219756276 2.361180081470908 0.6239227815367058 -0.17204326201089565 -0.7710758456928055 0.6274147811240082 -0.8910102225681342 0.5421076062024117 -1.3260626780524005 -0.21142148606261746 0.20113334404993743 0.06743941591321168 -0.541158628921627 0.8458783965913586 0.0759055954057422 1.1251456310862857 1.6304069627178353 0.8855599501317929 -0.003639697355332055 -1.251407084691102 89.98473152132458
-2.112306649335104 -0.7506283221586092 -1.5184450944978372 1.6467481348271251 -0.7729981868812622 1.1409930754090447 0.5781700833006151 -0.5518491158958543 0.8638186655618394 -1.6981870736584748 0.030944437110199435 1.2806197181794168 0.029932368598607397 0.3903124271544619 0.23195764020708173 -0.23672699719206525 -0.6650703276780211 -0.33339712755478196 -1.2913309017981607 -0.779251038430491 -0.6630197231549001 1.5669813150537355 0.13032615713229465 -0.20895453671901085 -1.8966870254059411 1.07657833239669 -2.016650704202922 0.2401098620875388 0.9802475275333468 1.1924620747075547 1.2477969253310441 -0.2513850169037531 -0.1541839311502739 -0.41367093793152954 1.31712912151881 -0.4656915662043104 -1.543633785718733 -1.8670451903854772 -1.299756570128451 -0.04402336624723757 -168.90223207505065
0.18642159855913215 0.47268219837824543 -0.5787634332096652 -0.326604387965162 -0.18463677095137493 0.15718455126455624 1.411891545891286 1.1321917233433192 -0.6870894500236286 -0.6200594642052 1.18902661262387 1.1969360942157539 0.30277610062877325 -0.1907248547586258 -1.1278736947673882 -0.7081900374829788 1.0741518528211305 -1.073570706511351 -0.40285553718011113 0.39582860760734956 0.8704247869930294 -1.2372444342263011 0.2325695238030295 -0.11814490929676372 -1.6263167917213808 0.9784969146895631 1.5174701304737719 1.1937131469780926 -0.48183873335869737 1.1682554749922882 0.9618132729677132 -0.9148533115084025 0.045006097880831555 -0.14732169356701139 -0.5297480257401536 0.016644211463176874 0.659319018863297 0.5539598172184477 -0.7453415037614963 0.6421051552670732 99.40426795047217
-0.9675363033387084 1.9922186622504767 0.6057694437267949 -0.9342773569436721 0.6265417730323695 0.24744594212310625 -0.4023023292652937 -1.124415743680299 -0.8706095301774583 -0.12050137523705234 -0.5156108758215696 0.09143262876162028 2.3817346102671406 -0.12016947806908732 0.19167620343029043 0.8904059538159887 -1.444001592150119 1.759013038143965 -0.4209255310611167 -0.360101250847892 0.2960321537872771 -1.6048384759501106 0.08216484333027652 -0.3474034900668894 1.458405717201194 -0.9740302899298047 -0.22140875720700234 0.3864839156653793 -0.8826075910601874 0.45603226738024294 0.02614390224634029 1.4056991665185379 0.9391004783439345 1.076796605854855 -0.14200129237240808 -0.2485944066328959 2.383913055836874 0.2865772533751415 1.4965265474536613 1.6148595911253942 309.1235996180326
-0.3853148276362117 1.3805188046538341 -1.1129310220493063 -1.4820883269718952 0.37550096005431016 0.622907302138853 1.5865786547107945 0.2652251298874196 -1.4886722006262454 0.1614789319914271 -0.6616343417482621 0.7421083511052736 -1.5264045399035315 -0.720537518433402 -0.532261309992673 0.7957770717641226 0.9794353332036585 -0.7101885766512864 1.4061462546191124 -0.4055074648010001 -0.5977972368939983 -1.1928444260042257 -0.6110670264033249 -0.7271249479618596 -0.8466051860304444 -1.1645513055527066 0.8848135985322827 0.502481417711544 -0.3387233727122123 1.2557543608171715 0.6815630558742809 -1.2399962615461575 1.637223250456568 -1.3285021126094898 -0.43444867434322815 1.0772567348453022 -0.8964759493853168 0.22418758441447945 0.3833298542493123 1.3594912376987385 0.997664042551655
1.197085442549175 0.1696564475215176 1.6637620691773412 0.1742217325204648 -1.0990339949270487 -0.987759768603967 -1.3373687517741732 0.36230517043478244 -0.3099837489622578 -0.08695386500295833 0.4684006056344021 1.452134030623047 -1.1822315514295174 0.6000624669846255 -1.3006705815107358 -0.38042728411043686 -1.7217635284827388 1.114559446063466 0.9120584722525655 1.0720580717738561 -0.41265390419464837 -0.28675084372891146 0.28168236585292256 0.45270006555558406 1.060653059514331 0.5690112301288962 0.006257491881485382 0.6528128473673979 -0.3981196313141145 -0.9212664438457242 -1.5962847067520876 0.5599453952580533 -0.04575689558060404 0.19186449069391456 -0.23987644686261606 0.931446490540162 0.7510515467150478 0.5974494243594209 -0.6890091397528437 1.1558680198609235 96.26954497363296
0.6679037343948377 -1.159268692432649 0.30906286122415827 0.7962005044214703 -0.6381375722906226 -0.6870016991550417 0.1949644504965667 1.067018226343927 -1.040995459961539 -0.1736526838766145 -1.646973833124522 -0.0728639144716422 -1.7490493294745089 -0.9659151009447362 -1.5659581417808266 0.04719011834302581 0.552195961827284 0.5161666242588849 -1.433655911261815 -1.4665232202246283 -0.6804806014466465 -1.0986464492730297 1.090929076097115 0.8641720571685283 -1.9646936461373383 1.1541132143966377 0.27408415590288404 0.5027095129508948 0.17742407920024358 -0.6655127397060993 0.5429595612625286 1.2709549732013001 -0.5235199742268062 -1.1351540958751318 0.9459033404566145 -1.0713446465740195 0.9482566234855093 -0.6612997665528566 0.7979791827944154 -1.4565727266645552 -148.40991576062746
0.2501515199875061 0.24746867663408184 1.420818895691084 -0.8617039730870835 -0.2610578507475799 0.21452590053014003 0.13423634106576487 -1.5539560542839614 -0.0892105249048085 0.8426390289735683 -0.13150187732401036 0.44955804683216416 1.5786594717683888 -1.4256412253455624 -0.9255564688096851 0.45959875946335943 -0.5014485965982399 0.8808198232864486 -0.009316467014285155 0.8105700699478853 0.8401264944166305 -0.7209223585218436 0.13169000843182682 -0.290946472580815 -0.7248751912789712 1.1710260005262971 -1.1351933269333367 -0.11451450837679075 -1.1765684771287206 -1.8866112249089393 -0.2968433498988557 0.4369259479347378 -0.7507123623762606 -1.7987760735191467 2.0922172795496246 -0.6500541770722463 -1.4155554667372796 1.1470922959260084 0.43559068245889115 -2.3160476183125556 -210.3780144486297
0.13657332443468187 -1.321193214676534 -0.0785019324190916 -0.883345811116313 -0.0674360654845986 1.6597757319230362 0.551064216492647 2.2581973594250604 0.9957869982116186 0.13676989782968763 0.5926134718391607 -0.9669272189745666 1.366905745427958 -0.5048177170426432 0.5250654084263325 0.4117518054522091 0.6067020092177706 -0.4896580880562263 -0.6169411192702543 -1.9455060678702334 -1.3481767149211814 0.1312757184049104 0.044551077428384746 0.06345295548422843 1.0845033444476004 -1.3987126417069249 -0.08890079687127346 -0.8992119742187391 1.1191020037077843 -0.453573287100899 -0.22199807645488387 -1.2046732029894407 1.2136426093661563 -0.22026318178178045 -0.603621185650132 -0.022668690295116933 -0.319454540238632 -1.1824894425961545 -0.8018958977634735 -0.2575219622981237 -169.53240516207887
-0.3617261888214763 0.08690818255574015 -0.3953188749920486 1.22808311474809 -0.7682795485761991 0.3466661159965242 0.3740989541924505 -0.06194035569849431 -0.3748621953359619 -0.39590417121146804 0.10969658756330425 0.08686033795115411 0.1322121384333877 -0.48165933550637485 -0.19384245248701815 0.8397733361962072 -1.2201429060498827 -0.08755905619201051 -0.7171248051385458 0.6766091847749857 1.7596227688642831 -1.4164061135820345 0.3633723269588665 0.3583786002799084 -1.1449418619996896 0.7765449093354215 -2.8024951284360697 0.534105103286414 1.4328938795731663 -1.983911681707561 0.5138547602462804 -1.0087604411928877 -1.2178816985797634 0.4749777936146956 1.527720185207816 0.7857650785422093 -0.09088086597391687 -0.45422277305625675 0.04548107667799331 -0.5008130929809473 -79.53399962443771
0.9752030434362787 1.394455910894105 0.10978269863187552 0.4537680441853012 0.0239228261142506 0.13214084472607202 1.0487222604777817 0.5444524248700625 1.407966115866231 0.1772045098952316 0.36505633991995323 0.20202214664126433 -1.715954840940743 -1.3590430653355434 -0.3866363839613799 0.06785112749442142 1.2647608087283961 0.9895310492282148 0.3979694028410269 1.3059060712778015 -1.7417442203336455 -1.3688366049051404 -0.6138278797064914 0.18356836207116028 -0.85189690956299 0.9005667188406141 -1.6001296814984245 -0.15366363249470372 -0.06879263276957932 -0.41395305730277715 -0.9042429039958237 -0.7004896360391987 0.939916487439191 0.32272547961759057 1.3203933543614021 0.12681191687768173 1.4550204147859749 0.6368217385779124 1.9800729889125688 0.8176579846533963 159.8639978279464
0.9543791656842188 0.9902318251539957 0.1853360104899901 -0.34836090873514175 -0.9086592433803699 -0.4099355227397679 -1.521870687998933 -0.5810357089974165 0.15038398639182174 0.06445476495982862 0.06556607395432609 0.04905573294053182 0.870759291267595 0.0075418275714725265 0.6398043542409485 0.8713334797271236 -1.6764247966329866 0.15576070741341036 -0.8740502046287807 -1.0312687049650513 -0.4426037897913448 -0.26818067364433895 1.4574308015696742 0.9194785702122028 -0.08591005647526266 1.0795989126836991 -0.7630542321835906 1.3587998437982445 0.21064704499814696 -1.3920694991102622 0.8544104817359779 1.52836347026254 0.06429056876673336 -0.4019684012123404 -1.326921968231397 1.5201940792174569 -0.8199459344023019 -0.30443475641984813 -1.3385373926285318 -0.9991717436511827 -59.41898940185135
-1.2740954233577015 -0.9266750193000837 -0.47663811662256034 1.0007685073088401 0.05493364959016289 0.659623823921043 -1.6924191834816733 0.7376934134228144 -0.38269490854393556 -3.0530896996037513 0.5399672372418709 0.33779717075749266 -0.5607471792411007 -1.100916786057072 -0.01488490526738152 0.44724826282487284 0.8134744171701123 1.046472023180047 -1.0163142906596039 0.9115196744136874 0.2921293268238984 1.0487110755008684 0.0011192707891951167 -0.06837904817558278 1.2183869434622534 -0.12457282550790567 0.08718801826525718 -0.4042614305421253 -0.8670380545893288 -0.059690649682092374 0.8533142235420998 0.6511905064739375 0.007197035835857435 -1.219216861572269 -0.26974742969369897 -0.8338706364546404 -1.2272475476547315 0.2510088307076715 0.1690265539108606 -0.9512819410291478 -91.98251548869591
0.8865954436878489 1.711941553172141 -0.31405316934898225 -0.6063438336522265 0.1465771503440458 0.7961273252627591 1.8898791478781023 -0.6135366903343197 -1.427900066229547 0.4205457615220418 -0.05082994640189008 -0.8649478861988624 0.15339460517689427 2.0926130666643377 -0.9690599346216319 0.7443584489911661 -1.4561890174995826 -0.43597073070191306 0.9699642895781488 -0.8073775569894046 -1.340385070632733 1.3141174883516784 1.2326953333396293 0.014620272219651186 0.40452415254487933 -1.4832255026602363 -0.5866258169662647 -0.8567154524398091 0.6716263446089513 1.8210878236268684 0.8172689722336779 -0.09438258695399 0.7612539728892151 0.259016126471612 -1.2793663918701246 1.87455156235213 0.678277753449716 1.2938241212562889 -1.80855292352813 3.2094113672255746 239.71285835890353
0.27919325373594295 -1.9979987862063682 -2.167844109813251 0.4183515972906607 0.5610717129012119 0.6505097600270886 -0.25218890611188044 0.38715275089345347 -1.0799200521228962 -1.8569860727923797 1.4954943864516665 1.3070855836703392 1.971760594137651 -1.461513008115248 1.1257819297459002 0.19175691103688494 0.9530424267916493 -0.14350144707470117 -0.5977247967508981 -0.1878677015622091 1.1607876576107345 -1.8888538914105117 -0.014717830812370226 1.9669585315101221 -0.28484185261912226 0.3761169349266103 -1.6344612482656111 -0.6979796563790068 -0.454636465762205 0.2082083958128188 2.6928697045071686 -0.4078275948819038 0.6013050331783162 1.035417156775591 0.006595006264171754 -0.07583544015499871 0.7440267924424271 0.30981225475636615 -0.49152048738007353 1.2104661179806175 180.04157830700234
-0.284267077456507 0.5289486433088032 -0.32349971767562824 -0.4925025398752989 -0.8923306437429159 -1.1562420195737366 0.317339582941161 0.6132252075620251 -0.3336169073901315 -1.3701674235424635 -0.8711922290028938 0.10377966359604976 -0.7398967222846065 -0.12368149658492872 1.4954383834637326 1.873823354506016 0.39233704003631303 -1.6846790848539517 -3.1703739039552676 0.292047232345125 -0.7590064158124664 -0.11029402613148442 0.282151004513353 -1.069352173468894 0.5602825930074041 -0.2211171303899673 -0.6393806079195756 0.9706300030257929 0.6430359237783583 -1.0892129788942102 1.0905866654399117 -0.538848461304589 1.3922558363887891 -0.3624031890973508 1.217364117121219 0.4447096651843469 -0.45926460790824963 -0.15984841401236005 -1.6364492219029925 0.034845468483224 -79.11856787415984
0.5650898765050394 -1.2640094825207069 0.6569851826125815 0.01501885950507232 -1.1948346389363569 -0.07340504273850305 -1.2417111232226958 0.18645601345874674 -1.1396751269023984 -0.9023390925988773 0.9527793228003697 -2.0323209005522327 -0.3182220898047499 1.2241808457455277 -0.9023052772790902 -1.6900590763379013 -0.7649062615709082 0.046040114906238376 0.20874621841803942 0.24156279895011307 1.1395190149216248 2.1370789077026355 -0.7797209070909129 -0.0038698772958419875 0.1357102613328693 -1.3242013838062536 0.9990138561854263 -0.26220255376432794 -0.5770127773301079 -0.7343755540179007 -0.33102831680568545 -0.29074515147235114 -1.0049886169553541 -2.4557200060399396 -0.17449190527871114 -0.768345561499066 -0.5204291143145768 1.168737370786777 2.499181301767791 0.09900996326881349 -120.2758867549795
-0.6574090725065359 -1.043183425764434 0.12418448918257095 1.580619393743002 -0.6945660163921914 -0.4685213214254575 -0.09713799551252802 1.0724858182443078 -0.22821938955044702 -1.010097877086466 -0.8532616362868964 0.2828487189453484 0.3775014265370424 -0.7134627490989041 0.44371235688888566 -0.9220910377036634 0.1639354727195951 -0.860827371162806 -0.5224680157220882 -1.9618434157743063 -0.44511700066305726 -1.420191403435752 -1.985346775188685 -1.0802359786060771 -0.09723509375674867 -0.07495596358723798 0.22774948561294314 1.7759748912132993 0.215475468743771 -0.9951738459754762 -0.40679613633921413 1.031708562200646 -0.6883791453052908 -0.5594060888663526 -1.1217206992693423 0.1957714963985681 0.9270181910502509 -0.7405771030674357 -1.1106936556721834 -2.0011346545093303 -342.52264272256036
0.02442574346100241 1.3233195289298734 -0.3419140224525894 -1.3885089604196106 -2.5748025010923166 0.11854263397696067 0.8867940954648033 -0.5917462563721976 1.481907494524965 0.3262519849459441 -0.8108700786043713 1.6930578796088998 1.6759431232742044 1.0540043927841487 1.5658376486982275 -1.2945048688936398 -1.341292969340273 0.20520832710827094 0.19119247782643728 -1.07914102177965 0.41338231542672127 -0.8455708029525763 0.25130761377498473 -0.5435658677040484 0.4178300195702222 -1.0387032092386892 0.541381985291 0.22218676784543195 0.38592888226331423 -1.198272681623474 -0.35858946935750935 -0.2902637593882635 0.0792936459942677 1.0741551894437849 1.100732829370455 0.6004694654758528 0.49501172095169355 0.7334168981670939 2.269812668817439 -0.8541604766667201 158.00476860181385
1.7850633587920646 -0.32661931623183127 0.07715687492310928 -0.8327848058271086 0.45957135540478683 0.4560655771093355 0.900177780315867 -0.4877832669039269 -2.136330294688001 -0.7407217486563276 -0.5418578153963829 -1.5572284130466159 0.730108776837439 0.9959877674256388 -1.3554103417136638 0.03634031497663935 -0.6864922704830885 -1.1610011889172038 -0.21200120797137634 1.665976652920231 0.8169238253565586 -0.8558988893073968 0.8899862646969494 -1.7660980466937162 0.9317656711699895 -0.6840118666794827 1.1397935006339237 -0.6157029213374061 0.2658416890140796 0.3509126742171474 0.6052727577132078 -0.5408260241624357 0.3379869633964037 0.005612391148442519 -2.119921075390861 -0.2427340210286625 1.3862483563535482 -0.033867978665293286 -0.3863767431097154 1.2378867045389148 -18.153738281005992
0.17535371895347096 -1.456932579934101 -0.16370206189067918 -0.07406450539966218 1.2940774633855174 0.27842768424084674 0.20447931059869473 -0.6020598614617944 0.39805888628398856 -0.6418666600112941 0.26503566591704875 -0.6362163823608672 0.9769480575948762 -0.1566079081012203 -0.46163616813433506 0.9991139777826293 -0.9183921841001793 -0.46387541969789475 -0.8313250768539568 -0.6830225942079855 -1.4685278233032542 -1.2812947352165802 0.47553892330254194 -0.9813721791691867 0.41358967539802394 0.593889911099465 0.648555413392122 -0.7974179131888633 0.5157580221375543 -0.5448363979717906 -0.518444682857854 0.20733080122069236 0.5359028340048988 0.11546158389720741 -0.399710041044002 1.3754578921834486 -0.5970212104368331 -0.2217772830804192 -0.6530429048061067 -1.8868048929694783 -174.46751332303938
0.14426128359258913 1.086628603621071 1.3015002127020363 -1.090521417457117 -0.6531484104497054 0.671183958088344 1.806284633230535 -1.735887515798055 1.6641348574950192 0.03437191920378626 0.12853059310030346 1.372834471921416 1.1518047904315198 -0.9714835240515766 1.0592261145422819 1.098133864445493 -1.6293829136543012 -0.37790281106093376 3.1900030541495155 -1.2694255630686746 0.23095542271986316 0.648495830652708 -1.319402717157127 -1.5488268896159876 0.9160258062247326 -0.6916995063862066 0.6417830659694236 0.3213027977810677 0.16340475428806547 1.3504731440812638 -0.47988677145309266 1.6865613666786776 -1.4020823984905721 -1.2558472969456334 -0.8890332345575486 -1.1303842124046526 0.6433801675328376 -0.907377320350101 -1.4770164800927994 -1.5389410848107585 -154.09601588760322
1.9437765257723354 -1.714949736088206 -1.2776265963121904 -0.7804399758345149 0.6547081159325568 1.0923400368286322 -0.4344719237274585 1.6714972728969124 -1.085039180532467 -0.3568455050396695 0.4055425336575699 -0.6926138278807688 0.5348987108137936 -0.48447136645920025 -0.5906098960861159 -0.9022066722338428 -1.172116323562859 0.16024498292836126 -0.4148058514320227 -0.19825772949948048 -0.30044337837612256 -0.06911207375930266 -1.7667236686696584 -1.1290782980854417 -0.27585973912637063 -2.0341491449299203 -1.3143414844357622 -2.1395098660181797 0.7360442988839501 -1.708063137607841 -0.5211567649447792 0.6876530347599973 -0.6348538274270946 0.19976686873001856 0.2890587711612535 1.726493458019388 1.599312492456958 -0.01667572371147326 0.49421716428854534 -0.4920460327961391 -195.95550766448147
-1.1206804240766537 -0.8364718790341774 1.3415039193751634 0.2927565905144009 0.10578092068222598 -0.8461194128953685 1.4383049556717367 0.32206475878207413 -1.203183624232321 0.5747975539979426 0.9181870192709914 -0.5347958017412967 0.26020370030268125 0.16866053822795826 -1.2189968552300483 2.191907619794326 -0.08872427642972787 -1.7690302030489957 -0.047674055759439886 -0.6541049826260589 0.465982331173022 1.8676649805843508 -1.2002658579359262 -0.298875956729561 0.1898968421925351 0.5251481866178278 1.7185181398334657 -0.6061643849548274 0.6534382151421348 1.3918782090601545 -1.314017519700478 -1.461709792297704 0.5314496961773395 -0.2599207100131438 0.3098041451930709 0.3932665163001755 0.041312361365593415 1.8216582168063167 -0.18285076298669978 0.5674355638129334 140.78710391585722
-0.17636748453334955 -0.28562644753898914 -0.3338510498660024 2.993452364008723 -0.63596253397732 -0.6916326496710928 1.5028256856327786 -0.3348940853661327 -0.6648599815875211 0.3140141565222346 0.7044301108097866 0.6893131439203841 -0.07380525943008069 -0.48193584196403955 1.4182338446178353 -1.1084281852724138 -0.9679293724776398 0.4889075312131683 0.9725521670867872 1.3009722348195116 -0.012248947018225546 -0.30863160514216786 -0.5212145763613207 0.5690565567729481 0.1639850548546506 2.032600232531448 -0.1669869569876256 0.1650110979633488 1.6366388720546408 0.09726877729955626 -0.14152717911509083 1.1502400955007606 0.420296218924762 0.46283050606424625 0.5939014784694936 1.1859888840284805 -0.36468179798074357 -0.019303173513899593 -0.30225427173555347 0.9230943406425361 294.99415089879267
-0.692225566097347 -1.2767447062365929 -0.12303759328580625 -1.566786126479487 1.1441989543644016 -0.019641210375544803 0.22657547953609006 -1.0647788219134917 0.6228479703380004 0.5466219526392152 1.4052688481181612 0.5292339636542842 0.7485867928875635 -0.9228591116858955 -0.08847232153035448 1.8306049012538943 -0.33656484786190355 -1.0345636372899953 0.8001881799200812 0.8362965451283292 -0.031107301295015162 -0.6031210503329263 -0.8397297647234538 0.9212926039816947 -1.0263160038114645 -0.11179012489247057 1.1166622363898862 -0.5358121882796686 -0.4780689756776483 -0.09600587622268472 -0.2589038950924325 -2.4414594859210497 -0.9945391349381608 -1.3599789034939103 2.2121147961623597 -0.082282237734818 -0.056359165126198194 -0.9810168665947315 0.1975891820424514 1.217782240251613 -59.073490594773865
0.38510068827108096 -0.7563419304012868 0.5051737328598218 -1.7726141498482988 -2.189938836468847 1.5262510387111559 -0.1246870174726448 -0.5718909160371131 0.8538720718110436 0.550023915167228 -1.442779585113493 0.44074205884865986 -0.596384501989258 -1.0425768630929355 0.4160100792448671 0.5050930591671704 2.1301334774684246 0.3583858892461895 -0.10795302771205127 0.30970591368100975 0.837102940394923 -0.4407635131501659 -0.7606810892097084 0.2227995613948006 -1.7895912969187624 0.5444301756613104 0.7297593639602675 1.0246098573091067 2.0617119099975487 0.4076081971112313 -1.535124863798102 -0.5072170429489427 -0.45707992228257627 0.6900075977074102 -0.6264049934211607 0.006239160687514073 1.6680302140628906 -0.18959316709997662 0.5101887189662573 -2.009277568034697 29.000086507445175
1.3229158176580198 1.181617691197968 1.0063659532775229 0.838891963802689 1.5438351470619778 0.15044764044464146 0.32048049808855555 -0.8940411408052167 -0.796929216802724 -1.4085763396423476 2.757315756151802 2.000994171169004 1.7535463703231398 -0.35382251023851874 1.7008554586360414 -0.49243075008527454 0.30965867234220734 0.6654629352698862 2.0193098100749762 -1.7635944679132212 1.394739065338111 -0.23907692936869737 0.85605812708313 -0.8560545586334736 -0.1651478950073733 -0.5939556749957557 -1.2184684432319888 -0.09143290739541265 0.05784902475682866 0.19951306715167821 1.2152511624758704 0.6767702675573867 -1.1325684204929354 -1.0738153043078338 1.0495766081300926 0.5565752960574358 0.47160893902404577 0.08919190731988727 0.19584587243833618 -1.6722877073912354 84.37816607932156
-0.29455476189737995 0.6975513535857492 -0.8438836027723872 -0.9588282907628064 -0.3072316844564566 0.21487723398702474 0.47063685660383675 1.842108379392356 -0.4679221786312599 0.028498734015372312 -0.07115056239381189 -0.5011792685369764 0.09800649857651747 -0.49700827777722933 0.11768346515928241 -1.2962696116731316 -0.6327824512866217 -0.37310292925096095 -0.5850494946662534 -0.3658835457870084 -0.4589291078295006 1.5943932568387564 -0.24106212072691258 -0.15723106301073628 1.0714131897860348 0.7665502952799661 1.6258283354190783 0.41144523639173447 1.3099726512773582 1.5156350539901637 -2.153455279502739 0.2498292029392889 -0.5874967709705935 -0.9960038127918132 0.6854296450294823 -1.9794993061230997 -1.5834910064574659 0.3491150845763919 -0.9378605918616819 -0.2958616649713262 -110.14400410426424
-0.1622430844041885 -0.9642259550943634 -0.5711240650187951 1.4635641201901826 1.3388798996020643 1.689214464011932 -0.8945099646867114 -0.12005903786225386 0.5535181530620794 0.196415894247562 0.5519410647348497 0.7550326764848889 2.7260969361919627 0.9681481040476326 1.1773347821556723 0.08597273833375921 0.33436612684536327 -0.7363000199849754 0.0844681757992871 -0.3833652256466864 1.0421876057666282 0.20226649025732998 -0.1792665326909323 -0.22709575666257578 0.3047176420178283 -0.2824493199301804 -0.18238048051128455 0.9183855166152008 -0.8822137163410742 0.3330673751379578 -0.17373757089339825 0.212328495638796 -0.6035184481776433 0.2581468003513187 -0.7344717970499901 -1.3465341016402745 1.4685028645569123 -1.0611846109133178 0.5367484895753101 -0.6115127893020259 35.807028418395106
0.22930589556635392 -1.7562449761411154 -0.9588241880752871 0.9138069824688186 1.176996765363451 -0.03250595092328743 -2.7630966780986688 -2.319016588415142 -0.21442676130280602 -1.0585666281456274 1.4738634453615462 1.1010777056082082 0.681749289796857 -1.9468507764744372 1.4897363123566176 -0.5650013811123856 -0.47216120615833845 -1.3516049270664305 -0.815517307626561 0.4494427794759599 0.639307309054839 -0.22621968947440108 0.3415315476233922 -0.9177128549039616 0.3272889946587176 -0.27916214235787484 -0.5213694376023912 -0.2569169553323184 1.9732734453933034 -0.1005820197899738 -0.3796616421665769 0.03393930415440463 -0.47577270349925843 -1.5731995991121113 -1.34495752728755 -1.0909754419660758 -0.20159409850076948 -0.15823780482510777 0.34301645097354727 0.06301080138834222 -197.7083270539464
0.8308529114839077 -0.5124792591329739 0.26969288358114135 -0.7782036252174289 0.23619579760317985 -0.44446134466608694 0.34445845740609554 0.5888715808057278 1.2911867998829265 0.3883323340635059 -0.4546894096444269 -1.5211751102498126 0.6266071253011453 1.2885839280340892 -1.0479961024402407 -0.047274956153887715 -1.8909638071974475 -0.6609263218319266 -0.13559951259629463 -0.0007661567075773507 0.7482122083289973 -0.2089338531302757 -2.097196347706004 -0.640002138421618 -0.4186714242831889 1.6596533330075673 -0.5541842712280196 0.543755149833683 0.7820946872951294 1.1723784113661146 -1.7373901960724571 -0.5820729124586751 -0.40151003969462984 -1.0929572680600377 1.0925680978400745 -1.123467686422543 -0.6749111216846099 0.8701365293982075 0.18606606560743805 0.09589554783235789 -110.80540682614188
-0.5974434205220864 -0.9336098778608162 1.438942914496617 -1.2198634635543921 -0.34069864566386016 2.243174438845897 -0.9734920189128472 -2.2243331880938633 -2.7831015196403244 1.0510327452488852 1.3201918032926983 1.0657176635327963 0.7792634408988836 -1.1417774185316156 -0.3140744732320181 -0.36698572101480137 0.9202617474503476 0.6761079593174903 -0.11857366434027537 -0.4254262472089855 0.44504880279801873 -0.3577156944838783 -0.41536313629072025 0.6131126527253049 -0.174039708573541 1.0066695185837031 -0.7384500072137262 1.1112271860709448 0.7674042481058705 0.7319052311366463 1.795188996887919 -0.030265736573471567 -0.20418549242419767 -0.6285142176489016 1.8320646569388754 0.2294646782914655 -0.3777408401435057 1.4853006448325519 1.5022903076890357 0.9302704646059023 318.46460263379913
0.8157045761922576 -1.3289164547917356 0.4201026663350504 0.7098662220140405 1.0831411820118018 -0.9524726533810074 -0.5881702323331506 -0.6452740397010807 -0.8084493992765819 0.4526567643257564 0.4893191728249025 -1.1155560209794209 0.07878573935976298 0.7404203397268264 0.8003987185006113 -2.0519311257550554 0.6689717312969046 0.778787776496953 0.6720814940921697 2.0220097266551185 -0.2923445590578554 -1.6517937322155751 -0.3597589747225983 0.9115171142743272 -0.090708053645097 -1.6753847554024763 0.7366052777415046 1.744339594916491 0.28004280784543867 -0.1456657259378058 -0.2900301250354464 -0.11767179972995043 1.363287606901423 0.4286962482582158 0.15286828838558705 0.20891283104749098 -0.3035702747068545 0.4014714350802402 -1.155926093489615 -0.3269835965474972 55.04414075996095
0.9143693345922452 -0.16942354549668304 -1.9310351224900886 -0.2701149677221123 1.218049217869418 1.3870337161524031 0.8977709231039057 2.4684765927736128 0.08522314051025916 1.4004071390203567 0.2255249174828727 -0.46538007001301 -1.3896547257795762 -0.09940309548489354 -2.2951653171243978 0.9934191507291434 -1.8847741297083125 -1.620660126963729 1.8195638214844425 -1.888606904659628 -0.2848810447584348 0.46341966312667887 0.6311503498723419 -0.39325142273770564 -1.5396257400141364 -0.38652521081993957 0.7359744535852725 0.08147435358772365 -0.8993355367922602 0.5547914881979736 0.9648579169609103 1.240823481259568 0.6016431180509814 -1.2484739295984804 0.8795847106498824 -0.4526374936545805 1.0310027851564705 -1.0010647510513815 -1.1341752661519495 0.4814207682975704 -46.69894616703399
1.261368641578594 0.09528845514591067 -1.8129759049352085 -1.4786030578481508 1.0776326518774948 0.011212206361106463 -0.228723531877145 -1.0966179084479128 -0.8115693439026374 -0.740074334619023 -0.24606805865958817 -0.8990666474846825 0.22734331088803827 0.7706874092834312 -0.16377200232345715 -0.8148224440632154 1.1413477263770089 0.8552839637541707 -1.1882016655399164 -2.0958892884398135 1.1711824851078043 -1.4195161172470345 -1.509536972096354 2.181926068613443 -0.15037953660732217 -0.8341674751630688 -2.943418049867955 1.3507634317882544 0.7455972905982498 1.8630640540027323 0.9953957293497322 1.2784813635860974 0.9994034152719791 -0.19652089160428254 1.6755537897530786 0.370778793093379 1.8862300268470695 1.8531795223982663 0.20537904563978798 -0.892245637629347 230.82645943107985
0.7261012807279568 0.4207890244905498 -1.1826001920624591 0.5226512055575194 1.1620942452494836 1.4412828270984652 0.4983674170470649 0.13544383556098302 -0.5673797214311803 -0.03170251941388936 -1.0522579425514442 2.270073742824095 -0.6992598359051211 -0.3939499064482413 1.0739119650748317 -0.5613580900449731 1.2879533497045594 0.2972766037755994 -0.6039810170788689 -1.1927192893429832 -0.4809256585604531 0.32334928301464 -1.188684253739312 0.3605027813135791 -1.4912899643068467 -1.3550883948298538 -2.010576846514899 -1.2404358658833943 -0.3954775572988271 0.6750202730308523 0.9344037225998567 0.49638512030557685 0.06731724162725351 0.3008346420173591 0.9946225657381131 0.22320563489295914 0.7841782270273312 -1.7577033696964635 1.8336498816058944 -0.1985698409384675 -34.81695279129055
-1.4218566683878886 0.7277063866757058 1.303863093982023 -0.7661109569260248 0.16427844575150816 -1.2002787275516997 0.17545674477073747 -1.7782783659790378 -0.010259007838736867 1.185640608075131 -0.5842285452473623 0.9464802197050107 -0.8842346864342907 0.540896772015418 -0.41531139784842347 -2.1406341519982077 -1.6111497590077557 0.7471932581452787 0.5106666088298065 -0.575013891051028 -1.0345987442280629 -0.07529641162902898 2.097012470649448 -1.0832513468918952 0.6916434432517695 -0.5542355939302799 0.48229269951188114 0.6756527572073198 -0.8291988425686759 -0.04493869780626275 1.1394828414422047 -0.24500370130211502 0.4770874406766505 -0.7916313406481312 -0.4540721830874595 0.013191807310971974 -0.8642318157061029 -1.023688897905386 -0.07429082076642639 0.8904474508801754 -90.23823208985412
-0.4337791431616814 0.2962171925633928 -1.9087934098804256 -1.2364931957832832 0.0550013637959635 0.2659958418896375 0.4320251236301866 1.0328772478141577 -0.29271916866589953 -0.8516737975410664 0.284732910898808 -0.4057296578215282 -1.1351631360522128 0.9585892720888785 0.6664548111773619 -0.7781891191941307 0.6122524113570235 2.485992530656805 -1.2231862148116828 1.4069363164856592 1.778407049612705 -0.03746912007319865 1.1642431268279694 0.678065176271117 0.038718109713901876 -0.4621601546701713 -1.1784312535741348 -1.6842688702820678 -1.0639491052153496 -2.7575095089106676 -0.24893749197728668 -1.2924813754881985 1.4073909728471685 -0.9029709386292903 0.8772574727057598 -1.098629775500555 -1.6666843669034632 -0.2707570739358996 0.585202166467622 -0.050411625275669336 -173.61736177002427
1.942489200983373 -0.8196299874491361 -0.15573809029952684 0.21772559279609907 -1.1799881004838424 -0.9396644090323112 -1.5478859905220448 0.4705767749369205 -0.4274866005638159 -0.3711606514966901 -1.1383894671697412 1.8026571429719775 -1.5570691717009217 -0.413614512515535 -0.2665479933802005 -0.7904715513202272 -0.5400002831667308 -0.2261818112810538 0.6627467714495349 -0.8288953155227655 0.7217580428509502 1.179462277399963 0.46665387353615423 0.4568800897402683 1.1055282725241318 -0.14416386004556253 -0.6178683656581468 -0.06536344240744939 1.29630336418889 1.429041534908022 0.6951782713403101 -0.7544126829299781 -1.4463453602593528 1.0689596029677526 -0.5406130553006685 -0.6101779449178327 -0.7407298131398234 -1.7959567850091456 -0.2697299638185887 0.07961164708840117 -87.51710824160719
-0.6253045223795828 -0.648809026668137 1.0776765630709424 0.22867980590487336 -0.8432039549421916 1.7151560498161547 1.2676992359982144 0.3954403235895168 -1.414446968776193 0.30571534137591455 1.313962191421185 0.2537156902513713 1.525908388391693 -1.801274410707117 -0.46072332134828686 0.9871165460595038 0.21716968463753586 -2.0305113371197625 2.219195109514864 -1.3277685439237399 1.8540020097153904 0.16583745412333722 -1.600370635161785 0.5934472676695636 0.3109850007348757 1.8856399126341836 1.5267010888979853 1.2242935307832488 -0.6794516068614517 -1.9446924834296762 2.6540279050842734 0.8386934851413139 -0.6186315340213489 0.3550960031875193 0.31484297088711116 -0.5328085181315827 0.14281968399116188 1.0585249650269624 -1.3943638309245037 -0.38525302535675165 157.77109843563804
-0.3125929355637724 0.09348420684507679 1.204807803698075 -0.16740559986876788 0.6590866504963193 -0.014581842855929348 0.869233537537269 0.12656516785449234 -0.14565977443751432 1.6068199933773335 -2.697070932374737 0.09677509922730411 -1.2768268127056415 0.6042794936797619 -0.014647659327873172 -0.9941920381148877 -1.1515016113065557 0.5557235093410198 1.7040435406665777 0.9803911276992444 -0.803999654431318 -0.46625751497630075 0.3738911717855443 -0.055848100385922035 0.49456606501982286 -0.5125273519713034 -0.728473741894044 -0.13861086424722413 -0.7348798850373535 -0.23718680005489462 1.2184706600639732 -0.24354099269565108 0.37514769781101226 -0.46365151432001744 0.5359463007674338 -0.017761906350232656 1.1784858196005314 0.5205242880153982 1.2797924548016968 0.4066167130072355 119.81818233254252
0.4939674412144983 -0.4803018586697275 0.8250345793053332 0.000785707271457897 1.1279838525767143 0.8786212291603496 -2.6457907062217325 0.10038105593760162 0.04726887275150387 1.4530517244491472 -0.437937678014004 1.1390655284851314 -0.5962375143386992 0.06748459512215314 -0.46281089172078216 -1.5643031115668449 1.2545246986526501 0.2370151499269775 0.4010999401783072 1.2645553922264625 -0.14057865924167012 -0.11150859856424682 -1.113956872569579 -0.23973644225574384 -0.20627010216631805 -0.38641872213961204 -1.3010005544839653 -0.09327966175555623 -1.860696785619341 0.9954741290955438 0.7537858566721631 0.9720289287124516 -1.8803205818128297 0.3442603990616502 -0.7008460010625869 -1.5862813214948424 0.8581727851148511 -2.054969905770191 1.9338124672937116 -0.9920739836355482 -164.47036461404804
-1.4280248336577224 0.39415500854651064 0.1933244045198738 -0.26404609674356827 0.6671914840892827 -0.49134511105393647 -0.581343870705465 -1.5194445837953665 0.16776381569687726 -0.9783617758085814 -0.044892522628154574 1.248336309000817 1.355572698026858 -1.3516705244722127 0.5537549299415018 0.11207390191913508 -2.4607930081081673 0.32056313493614197 -0.16597387077374676 0.07739138085483009 -0.9320005071312172 -0.7490624740106314 -1.1080854041234465 -0.16333541566257184 -0.2122144373043254 0.42078800485832785 -2.1521343815888274 0.4137429866148684 -0.2734524166426341 0.9603448314885249 0.0350501077715585 1.1891789555974015 0.42841450039653756 1.042272821440901 -0.8986663158442306 -1.6817522527309334 0.36187590952828314 0.7597078272661 -0.8465435976846553 -0.07544536095884362 -123.10085480695082
0.29073639330190953 -0.15817855265281394 0.09040640436495435 -1.8236681774821533 2.256021276694355 0.26741373013503067 -1.5842076223647046 -1.0135186812933688 1.3767934226634737 2.293947239175632 -0.8055043091219299 -0.5993886205403408 -1.6922237622173675 -0.5411322068950911 0.5661552445818786 -0.06959307163616725 -0.5151578001925317 -0.9174999816340446 0.823995317756077 -0.7261609656620659 -2.4595819357823743 -0.9713906028755998 -0.6554296279601874 0.7996813639155516 -0.5033330340784999 -1.4786610675430707 -0.8517661603029774 -1.2074771378974654 -0.44641187497625473 -0.488576745364156 1.649384997097581 -1.679941124361425 -0.5116998679575075 -1.5952489112360941 0.9518809898397226 -0.4095125857439825 0.4138390934657794 0.8337417104190324 0.36064005840570285 -0.6374037553187918 -265.53407355321417
0.14159540577151 -0.7571231503244427 -0.6858077674254424 1.5641490926968307 0.7568601732203942 -0.5670397376768482 0.9192364045928552 -0.39188777690298776 -1.0469357014268972 -0.05289815220225699 -1.003071375758461 1.747815615312021 -1.151591301978144 -1.7463933890422358 0.6230027722820478 0.7768161977154076 -0.5366452645738553 1.0959848528241107 1.857865440606418 -1.8150227535309629 0.409531593990716 0.7236431880848 -0.510021119266072 1.6287869077811694 -0.633715475911804 0.4460290589019644 0.8748018470422082 -0.48336759701154974 0.5991518394349905 0.34014315096418374 0.6736078037565585 0.1636980386870041 -0.2993497012453083 -0.6838797197789035 0.8974094132540296 0.27482852740926056 -0.0467033136278404 -0.6006729368479031 0.18886638055597332 0.17682659434596637 106.2221951357826
-1.9637607198107183 2.1225886641960865 1.3493293568268203 -0.2460620877089978 1.0344111320965244 -0.6613004015118401 1.0858391217958026 -0.6047767114965589 -0.16379161588000923 -1.0357036448185932 0.35153961597556194 -0.34654738086164427 -1.0834619739500784 -0.05988844869241977 1.2535629646231419 -0.1889398377253457 2.335079125594424 0.4046714502226308 0.5980939216664687 2.2718107486357306 -0.40816015454835214 -0.5722877991022053 -1.5670534072750104 -0.19370211838141102 1.144828976395655 -1.0142620914187992 -0.05593023657119808 0.5840583258381998 -1.0961908651698127 2.2062815423082554 1.1695063202642395 -1.0248233304825989 0.053260813367285643 -0.8306048761768766 -1.8344390978160832 1.3935002534357903 0.027461853291338694 0.5934625226635195 0.25001322783997276 -0.143434634261425 82.43416981962427
0.2456329744261954 -1.3236249265516442 0.19222009673013962 -0.624265246896899 0.583814646478744 -1.277433661256374 0.22125252745574256 0.6635831565511773 0.03753946831747263 -0.3106077703181715 -1.1798191012091594 0.20956038309730837 1.3785162368519142 -1.9202979995897966 -0.24319297231905634 -0.6807772500299436 -0.8304553091837822 -0.448501685871482 -1.574092302354208 -1.95240499959326 0.3961791344332727 0.17159589548644893 0.22166395079514536 -0.7508769058017921 1.4254989482728178 0.14887172404041868 0.6883564103366918 1.5938384521242799 0.0578798909387309 0.06544007900020493 0.6030597501753859 -1.1493582270313871 -0.6960115917000134 -0.09535569495031099 -0.7040052504748896 -0.8473664384101761 -0.3436935106398635 -0.39167122563470147 1.3872605951672279 0.5300329462890206 -76.49285940836033
-2.021001497813271 0.1415088335424485 0.037913412003284554 -0.9470408351869746 -0.8917639938581242 0.5000036077747358 -1.5854721411979964 -0.826118915862399 1.2060774193480726 -0.7185230658656493 -1.9087934308797567 0.1239796415257631 0.029055996043228702 0.3983045449068158 -0.978726820474659 -0.6929442243911447 0.2895141072010704 0.5711060549034356 -0.5312903411388751 2.162436711003905 -0.5292112740343061 -0.623068486511721 0.835060394205385 0.4802730436707556 0.6874741503806802 2.863753624472636 -0.6901214872456183 -1.6037739811465652 -0.15550810799639875 1.2679560408635737 -0.6134029023411396 0.45402222486618626 2.072021110394989 -1.1881091316431587 0.3013070872177204 1.3216609864716011 0.19763591869045832 -1.691655177838024 0.5613265557111284 -1.1335680136258788 56.35687459237349
0.6266300284745484 1.2064529624306206 0.5984098315267506 1.3769578794498858 -0.5221452158468312 0.546235092241837 0.7951239639581248 0.9046683007698049 0.006803742521673837 1.8052687889845147 -0.48600268279621495 0.30959911252254135 -0.6416512673663093 -0.6064888133748833 -0.7853459089096091 -0.6095114613431298 -0.0674822561237243 0.4270342681141759 0.8969925695987636 -1.5529714951562148 -1.5527923149670562 0.3802618663461099 -1.0602331328421486 -0.27973131012992125 -0.549671962378299 1.177589214705148 1.042407940159044 0.3958084751441225 -0.7985281460690263 -2.538517177077003 0.5259156544333008 0.43057921631623625 0.5246659876454433 -0.18452768881286394 -0.5554993369805872 0.08592219454392158 -1.2229476910041222 -0.4362857308146625 0.9121334421482536 -1.4193849052585124 -162.74216806888015
-0.5635871467655943 0.9645539699231185 0.5119580212263191 -1.0922847105334372 0.16529779943648856 -1.18792991917938 0.10412715027519497 -0.6634489318107901 0.626520129302194 0.648327553421981 -1.2873953419237312 -0.3982367332703967 0.09609677790163082 0.07570754303721376 -1.2864016735964086 -0.08369557120720345 0.14603103849215712 0.02080269098444469 -0.17961634275032562 -0.15824858542267164 -0.3179279514985291 0.4080380403766234 -0.6953879688151285 0.941098833340301 0.7173412954607189 0.8080853167931252 -1.255387518858768 1.8034988373974052 0.6916162120707204 -0.9283661101384157 -0.3347015419825623 -0.8910833009739877 -0.5097249216389171 0.645766906300121 -0.2637762765891578 -0.4909392650106646 -0.4421754461293143 -0.2809927760642138 -0.13910006566314007 1.0339205634740514 -36.01575190243258
0.3649016182780787 0.3795648293151895 0.6645843247654423 -1.590989532104699 1.1407571893030108 1.2995939335796158 -0.3789795411566235 2.492402584592245 0.10821449268094517 1.2041999820238218 -1.4520113069333989 0.4954940764138515 -0.5529875121994904 0.6871755403353668 -0.4434807411472123 -0.21775424701547869 -0.695587945115903 -1.0573035510433204 -1.174712353528273 -0.46270481862311885 -0.38196750295812276 -0.6567507631424104 -1.1237844224102536 -1.0059555272325083 2.979578939785503 1.138449789282835 -1.4434591105809644 -0.664399215811633 -0.08464753863252532 -0.3380420293094721 -0.2739367111598334 -0.07753223761598045 0.9865019005459671 0.7953239605242753 -0.8056865803920596 0.1088435820920575 0.5270821093000195 0.5608911960197202 0.8394765209569869 0.1515281125895233 25.012423847856653
-1.4515455519446046 2.502559880987373 0.0905374436401709 0.7641114488760377 -0.08636242669506143 2.126316151886553 -0.48893163075488477 -0.21153558988235024 -1.6335317978322208 -0.7258204339535022 -1.0232964963531181 2.3218695789024015 0.7139912731317754 0.8990972025706699 0.15011722516752227 -0.447977847324142 -0.020919541355941276 0.511078876885704 -0.048579355503305964 -0.039226721996352236 0.522212598116925 -0.6886844586329991 -0.32741212481586335 -2.128981755257987 1.198088186377014 1.8242507822917524 1.2624211831459025 0.3372641619728156 2.1146721166520623 -1.0743712167706363 1.5459438172207178 1.4561509992931263 0.9638755024823062 -1.316981336380532 1.2628867747300676 -1.4218149529252395 -0.8533873805132193 0.9280379943149953 0.6398310594165031 0.2060645814685208 229.97098437861126
-0.7503555774607803 -0.5291433685544824 -1.2024425232599998 0.6912522775107858 2.355962895164986 1.0179356399699888 0.46802112259695156 0.25932640568541016 0.1250057805067218 1.9532218172363323 0.0873656807701356 -0.9314339516029922 -0.9393930824739516 -0.4315604549010085 -0.3764342460784292 1.5486926947221755 1.0218923821690606 -0.569817305748706 0.6758471593134054 -0.11069992869973944 -1.568337360846064 0.9376114682789105 0.3913682476585167 -0.17498657739416715 -0.3903714195727075 0.23776946121330622 -0.1510992329662614 -0.39695391973486843 0.17157165892480883 0.5714216365072105 0.5663826536744255 0.7262943599400965 -0.5867991503574664 1.125503887890044 -0.8385825787720289 -1.2001379951020943 -0.22998259331413176 -0.5825670087819239 -0.032046498934605025 1.8963336109468123 77.2677222976458
-0.15363072021153468 -1.472311284865669 0.6233889172695347 0.45337645966638085 0.23328454790770464 -1.2631231153716156 1.5286212420822956 0.5114454903484231 -0.7252441569418789 0.5061617405464321 -0.9646678786729209 0.30165604935202894 0.0025154013652062767 -1.1560428393981366 0.12931366267940433 0.03843488900689605 -1.0557476579199256 -1.1366515797261039 -0.18548563220077768 0.3020444121985446 0.09234436676945466 -0.08767314631084107 -0.6760112684438426 -1.4902483757225824 -0.8121694658381334 -0.0680155260597476 -0.5989040084932584 -1.781509679429376 -2.1554913903943653 -1.917910005970561 0.504994458337362 1.4608907430738478 0.2687251046768556 0.16896621181884539 -2.420949307928486 0.0833325017481553 0.5523599770105728 -1.437521082392382 0.3857687807481301 -0.08032631935800334 -333.9314310174265
-0.2308477788730794 -0.8636799912785554 -1.0928921686710802 -0.5189846546109657 -0.7271736543990013 0.6910507157357179 0.47539550782347756 -0.26263940968710514 -0.5175698784868629 0.750451372840813 -0.540473404684184 -0.8232830244514521 -0.5320820350650068 -0.2430881077899789 1.6919546093641675 0.6845184265084765 -0.46711673259784625 -0.8761576070447176 0.6803333628845362 -0.7656499377376771 -1.5631056799030556 -2.4335589644200177 1.1767545029315247 -0.3173116046062417 0.5036331625018011 -1.246095223918638 0.29972537450780645 0.9669118395503307 0.4548618056727223 1.3279541426457548 -0.46272397845729313 -0.8964332804615512 -0.5037041678293483 -1.0585857067728017 -0.59683958627751 1.218684906900244 -0.013352496629539813 -0.7186869725887922 0.09010222112572963 -0.16579242134918057 -121.4201318842521
0.8573919094303477 1.7507545628980634 0.3463353378488395 0.4146020831942429 -1.1763212451654237 1.505570503310688 -0.3826046474177037 0.23606322942679245 -0.8691576835736665 -0.27471136677594216 0.9471709237606029 1.8747708891998651 -0.9685311239949431 1.6802972606542024 -1.8114614376450064 0.3458437983947325 -0.721693107173143 -2.213533437481623 -0.47668004627346794 0.9578147120644535 -0.12174135245202355 -0.8129515401675683 1.2992138086743599 -0.28239486330810915 -0.14238588545985736 1.85716047002816 0.06003249794381029 0.7949260110374118 1.8447304860299285 1.2507019118720122 -0.8768070611263585 -0.048591872797702954 -0.08872159583789778 -1.4798643393527886 -0.5585251406275836 0.43192639789817877 1.076308322572042 0.09644666879576604 1.6257682497068209 0.13575184212162958 169.1461230892732
1.590260745384506 2.0492319002475408 -1.8735161991258973 -0.9684045531759625 -1.6685886482590642 -0.48329283726460964 0.24083300330857996 -1.5892395303540365 -0.4680449046989749 -1.3494721318969096 -1.0831593862669833 1.0224022683300211 -0.7291429322811703 -0.3563531766006883 -0.7514489112822266 -0.7408084542023761 0.991002527837631 -0.3631160585509675 -0.6987702508316175 -0.47846968300367637 0.15577239733279916 0.8876560736278748 -0.38409996878193886 0.436989961216663 1.6913455711604166 0.13056603245303666 0.7075849966796948 1.7691575651925104 -0.31256293671850965 0.4591080271130403 0.6636891369448564 0.46169103387076604 0.1365200902167281 0.6568790506781437 0.7924730259046192 -0.39558960410312416 0.7805769709326434 2.3517601382478786 -2.298665130010361 -0.23678782994718506 147.80785103228484
0.3995341093672818 1.133762752251765 -0.47099351246301036 0.0830442679799412 -0.4276653659232647 0.18638473269667738 -2.010219570113913 1.6699375912195775 1.1490464577062183 0.6187937509794877 0.9603832833040957 -1.0978019343716914 -0.7544080502398617 -1.4553696222582022 -0.110751534031839 0.800634219399175 -2.971682620948833 -1.6751298412602524 -0.24364615821052465 -0.49405439633164155 1.3510616084147309 -0.09751100967906885 0.8347779757736039 -0.2259032408321098 0.39899536428318516 0.47206046486682424 1.555944552001508 0.05888222157870284 -1.8241222262973475 -0.5711951278032168 0.8415238236340219 -1.0646711773964208 2.1662343468431415 -0.2664785947680945 0.8503150265318768 0.3788109504347998 -0.055205525153596745 -0.2780208898456443 0.6359614170078389 1.888036732443 120.30699861810932
0.6358989115945055 1.0354156612397998 0.8411007574542287 -0.28421428704548807 -0.2906183385487059 0.7107712624593207 1.545649139146157 -1.169121351175876 -0.8332631199272833 -0.7416908981269706 -0.6135808004841191 1.1192995297043549 -0.09106752174979058 1.1367277084039278 -0.7030494562271672 -0.9850329819333499 0.88083019879669 1.3526474683582697 1.2786191836204541 -0.4730689078470383 -0.7193668981899775 0.10668138209809704 0.7633510154841993 1.4450133817784983 1.872210535115562 -0.14155057160960102 -1.504361475334803 -0.5374577539476202 -0.29432441855207125 0.4355670674912669 -0.42868348108713317 0.3193226677670889 1.4631741199497168 0.5934104979834214 -0.4704033742238885 -0.6710477783479154 -0.35778418864983613 0.9533145969382141 -0.37033985975677297 -0.039691290889592896 106.82561576752215
-0.18348721017836406 -0.9955852838410945 -0.8319842699291925 2.9820927857560937 0.22704822003516634 -0.34750840684494394 1.0313986761267773 0.05854848032134627 0.9199150273841522 -0.487059916220696 -0.5056594578120229 0.133582425423431 1.3272676083635482 -1.0972504263600094 0.42116062357105527 -0.8269343016526213 0.48161924097645303 -0.2334755630306294 -0.9085248022205256 -0.7065935993422817 1.8809662792273132 -1.8778870607327864 0.5326333272516649 -2.284641057440771 -0.2991621634882591 0.3400146526257853 -0.16924722789568222 1.1312295118090339 -0.030010474120119052 0.7512526681086907 -0.298268635602713 0.3429208748448389 0.9772195490876571 -0.6700368487885383 0.3845643787543885 0.5787040857910063 -2.669646711642063 0.09262980478081048 -0.766300992585591 0.2816384298574415 -79.536111031369
-0.8823383783593262 -1.2741095657924162 0.9450231303783083 -1.7936199991528672 -0.1980017261712668 0.22139617118266466 0.1982086497079478 0.40002160738808135 -0.032723859294815985 -2.1269358348369227 0.2693981763135184 -0.23090277995004405 0.3029143362563753 -0.654991086395829 1.4736660288295877 2.4085570193014036 -1.0176898876798355 1.3695812467090416 -0.9185017451670306 0.07799105826775275 -0.4341499388538186 2.1701675244370047 1.030814267492676 -0.9935748549274258 -0.791686899760783 1.0181392107957352 -0.8601508621084115 -0.4232695714480805 -0.23984164220587287 -1.080648127157954 1.1010954343705577 0.3584456714675004 -0.8325572235547735 -0.2600632408913938 -0.8454960991760946 -1.9403393359711607 -0.43440726554775844 -0.9492960667757655 0.5168480151410855 1.3038244089681372 -77.31984378164259
0.4985005043403776 -0.9975549388096709 -1.0285786245837834 0.19699243451955872 -0.9732850546094999 2.0563506818159185 0.4599931562734047 0.45944699856898613 0.9130422366776262 2.744067826113502 -2.2046839615861407 -0.9727618943083614 0.24970990415804079 -1.0229870750508872 0.7996395945365902 1.4936846915527162 0.31821356746782664 1.1392542872444391 1.5479540879926224 -0.2959928576241 -0.6752225236870775 1.1434953850579845 -0.7487663567834966 -0.6970359672795399 0.5490678812992992 1.5582354331922028 -2.6628561520167224 0.9831375723004163 -1.0509755551046602 1.7694451260239017 -1.178017948364193 0.24560406457119163 -0.17558335951389803 0.32489080519706365 0.16394879284600705 0.3007445862776698 0.35694226143458047 2.094337548228605 -0.35225581580206117 -0.6041664871830283 142.7411578488227
0.06846595709287316 0.07669139304643353 1.0631070893878267 0.22594929925384896 -1.0121756766979824 -1.0128366705517695 1.235346460812049 -2.2378739559183076 0.24235776871757564 0.5382110368034535 0.5095766996936532 -0.5271723309685175 0.4212314154262732 1.0440117397874515 -0.800518282661829 -0.5042433202669917 0.38760500967723394 -2.106374899162497 -0.4587018319416332 0.8856824063002925 -0.8117405093174281 0.09499542321548073 -0.9706198144896756 0.49439639637887806 2.1060719874540452 -0.21549287909956386 -0.26513475924684493 -0.9477398905254794 -1.9685580024509959 -1.4537363692162795 -0.06226041338942315 2.034186288625899 0.7835775467430175 -1.4584223292845033 0.13450328961816138 0.762984914401561 -0.6113724800984519 0.6075541339665638 1.082968763658635 -0.7654248442073027 -59.408410922945535
-0.3149585211032724 0.2864326176862726 0.7371307670044491 0.712255639154669 0.5079030280488654 0.5180906718125307 -0.21685976855940103 -1.481866881764911 -0.11010598413721742 0.2596711483229292 -0.24462186987620235 -1.0932775266762387 0.73527270180141 -1.150261911075255 0.608313189370178 0.5106556050350359 0.256826195563352 0.42169008060977464 1.9671025113971223 0.0996209377396073 -0.04509004306486976 -2.131130474619698 1.3084060398896271 -0.7430043430726512 -1.2262229619965792 0.8177364692579411 -1.149886177736125 -0.588877996127011 -1.0704633456554136 0.5172978970981369 -0.45851752624215053 0.7443226635822672 -0.1992461172979206 -2.508056847584596 0.9914749031582788 -1.3232858773956884 -0.3842664455453407 -0.6107659402711619 0.09547441015750398 -1.0011626743747295 -232.22043117666652
0.31211664128145766 1.663384102377069 1.0697903138318572 1.4137096832156 -2.501853911516004 -1.0064888807457737 0.4956907828488549 -0.28554802005484486 -1.990222899892979 1.3626121298154972 0.02505852288242005 -0.0640002570120952 -0.7494583594797704 1.4539412242210328 1.2300257721300367 0.5855597839511054 -0.4932334817934756 2.490372877728065 -0.154438557779684 -0.38379579017856086 -1.0709095268557263 -0.9563139344679428 -0.4488457015650186 -0.7522352442803324 -0.7899242462989979 0.3781885201030538 -0.878400267061253 -0.8222663122276962 -0.43366225620901855 -0.6967403352188277 -0.841175938389698 -1.3821883816780318 1.4461756135469919 -1.2008897202048676 0.9996756138730405 -0.2772739799569992 1.0554604432518775 -0.4144792611116529 -0.11626005444130488 -0.1995354230288929 -137.41175595904465
0.6015122018027538 -1.2295948325052164 -0.47711279130715206 -1.6359182486945847 -0.03861312727705246 -1.6631959222421626 0.7060292309538464 -2.2733333719172206 0.18755947104310575 1.0441946145554613 0.9473588634010734 -0.14065783757454683 -1.285294992014055 -0.6322676508082025 -1.6084523237916861 -2.6446673698301195 -0.04311313224194511 -0.7252339448837886 -0.15554709320075222 1.229828632207094 -0.3758240182313018 1.479083242202232 -0.6464790073527925 0.16088811457211477 -0.5155747651914176 1.310168597261654 0.9320468408041479 -0.679202443827657 -0.6800372282171286 0.0823360706236654 -0.9562447559605486 -2.779574298781637 -1.0524633508705608 0.3405904793258251 -1.3801903131820286 -0.19944217112168605 0.4014498599728182 -0.9865885290192141 2.283154987003469 2.339905712828425 -108.86505284033159
-0.31085651113098334 -0.0773680723669195 -1.2984631741000583 -1.8826552433827406 -0.11813437521898618 -1.379500715708925 0.9154646643606529 0.40396142605947777 -0.7085086130136145 0.9647715005152442 -0.8886833943149723 0.6630825064437126 -0.08809223941699022 0.5396169726697362 0.7318264437841961 -0.9107358499489383 -0.8687029450931625 -0.8376474414713249 -0.8523886590654216 0.20571408778756933 -0.32362813593751444 1.2682067242894826 1.7203755544062949 0.8120815991789052 -0.4308309758110225 -0.4720098061129932 1.411535084738173 1.2352842343082697 -1.2479711169967362 0.8871228992994402 0.24061122265676108 -0.27095757447518853 -1.5089044803454856 -0.9274123251299317 0.7963320953588914 0.1586890922168892 0.5954544454479755 -0.9738300812587604 -0.499562235295788 1.1006821883009967 32.87677088484725
0.6469558231370398 1.7156801304244398 -0.348717827774845 -0.7020796097148612 0.8834320167024302 -0.28244078536605055 -0.289612123352937 -1.9067256872222702 -1.5138595126184853 0.25255738097503216 0.4071572892568897 0.5913314510323237 -1.5796494021982281 -0.8652957674412276 -1.777183167612561 -1.0906675305968996 0.6534114063896468 1.034767236716762 -1.4436927347052315 0.3974570989454277 0.4496087357759343 0.7344194868619447 -0.5591548103402808 0.5161990030036719 0.7910338940565497 -0.6441650441660471 -1.7723167821405243 -0.16338451992476324 0.6572553073088041 -0.5115543722429348 -1.6556156943300906 -0.8519831634351026 -0.09745585609201363 -0.4858331019598613 0.7481630925251328 0.6116234861441107 -0.8932031741724987 -0.2715797424145024 -0.7544973874375505 -0.06625682065405997 -226.3237070823361
-0.0018896258465511532 0.025903289088019452 -1.01534034619946 -0.14734873960406975 1.0082337182937566 -0.7543403191652706 -0.7468009384148592 1.4495957635384662 -0.1415269631031541 -1.0173636008172335 -0.9131010338417433 1.3483070813929603 -0.47255458205759154 1.2332224267230212 1.1288966835423557 0.49369629026727546 -1.4626917557790595 -0.5698494060477416 -1.7050260345858177 0.37220321693857383 -3.1331349592481312 -0.5769906388304288 1.45483555090526 -0.6864176341885274 -1.4423843198026811 0.41751598119903105 -1.0415999770478153 -0.47042621756447633 -1.213516594909457 -1.1545779564643117 0.38723704332025594 1.5055865567837858 -0.5100260424557006 1.2688974813345597 0.6760821420601882 -1.209267570217469 0.26025374679656244 -2.533282493492586 -0.690704048866336 -0.9399386987646429 -307.66464267096615
0.6206980853799245 2.3656119204707258 -0.6971641225891888 1.0578493726137905 -1.372341634275996 -0.9035753673802635 0.46382039568763545 0.5319184264284651 -0.40455882800058796 -1.5749571601080101 -0.5713702708731824 -0.4071591267622052 -0.4826575880925049 -0.0725733931567464 1.017185038770074 -0.12804379088292106 2.144402701454871 -1.3742016517608617 0.20729112935444124 -0.19515536362036498 -0.4124779361625345 -0.4390302371194201 -0.06645514264503811 -1.10563817434888 -0.2674732290694194 -1.999603088234073 1.2408900049198541 0.5143567221406194 -0.0747166970080593 0.46965554544214394 0.7126374683280555 0.41971485371060974 -1.7125312408084834 0.18037705458644257 0.23838927503589125 1.3395409794236455 0.021486588904336433 -0.5714142236699066 0.44173189891576337 -0.4194868306693198 -34.472249880874514
-1.3671309118748718 3.513849119178916 1.0150861947816066 0.9807834060757311 1.0943258386898929 -1.5383078881172063 0.6891739259675509 -1.5328281722247676 1.3944840723295047 -0.7825318128324149 -0.0681895442673322 0.424296353431119 1.6417202567765632 0.1664893752234559 0.298364085695329 -2.3565351001858454 0.08892112693680748 -3.059774134782894 1.1899703439859406 -0.1292744982678982 1.3952196347427175 -1.712982485980779 -1.6921584482917529 0.4816635408336463 1.0856264290927533 -0.488233618653751 0.05153597554779682 0.6124474218217786 0.4487310522236874 -0.0074706390486708974 -0.15827693281772756 1.9249043066361415 2.8713607693399115 1.7379281183412507 0.39397932986437834 -1.4076962519581162 -0.501234807157078 -0.8855158385102779 -1.03611871290104 -0.4732532780066025 38.36378710950231
-2.144546100508472 -0.48619418578310614 0.1960790525060435 -0.6796588148658046 0.9492634111826905 -0.6940713024028033 -1.5699042026134264 -0.5501847717106658 -3.0958554162808314 1.8478314179735655 0.08512578960556755 -0.13043692305859722 2.0543294610310445 -0.8985537822416279 -0.09217942773733392 -0.5094063872492846 -0.2934506340760245 -0.3394139063197394 -0.28766080322981274 -0.6784008535042398 0.295941005185764 -1.1615220305116036 0.2933398907170104 -1.367599607768053 -0.6540639480072636 1.2063082216493761 -0.8479830147036632 -0.4120037422447331 0.46472522698859514 -1.5547669724620705 0.46531385645488793 0.2993793945406472 0.4506383699354213 -0.33559636215978816 -1.2465127358139183 0.7316954742579789 -1.3546177805388697 -0.6012783608415234 0.5652758778375859 -1.0625916867736422 -236.0186864412002
0.5370841886418856 0.1964088772711635 0.4674089731806152 -0.4707973864365696 -1.4458716110744148 -0.9054318227634854 -1.479224928284706 1.4034259838158845 -0.405174186517027 -1.0636269991321499 -1.0259268641731858 1.7369630484123297 0.3476806200878989 -0.8564271367020633 -1.9695843375922872 -0.33785078225455606 -0.21395550710384395 -0.8618657592808568 0.4262795529454252 -0.457517572820613 -0.10399183849292373 -0.20778864924360632 0.9621624294877644 -0.6326123285011781 0.9109017926419684 -0.9656715100605883 -0.19321739355018153 -0.06197394362917926 0.138362436056209 -0.959413052504712 -0.28014363735203307 -0.11450273244284044 0.07726256851740249 -0.21282965613683413 0.1860049715218897 -0.2210409979753233 0.8193029374645169 0.5549105482153727 -1.651707947930892 -0.033690008127422295 -144.33365058699638
-1.6379181001051486 0.6083319455165577 1.6501519545553727 -0.48055063359002925 -0.521297753783173 0.8506998640470267 -0.62973342743931 1.127282046816199 -0.8101728164040142 1.9036267384429257 1.3984093183440145 -0.48687093798078285 -0.4422373732136077 1.3199756518224897 0.9952102493871657 -0.3821771084471286 -1.1597890738594132 -0.40634361853116724 -0.520181147220077 -0.133588875072483 0.6572031440710725 -0.035069974097040595 -1.7798133534889733 -0.7279816228724939 -0.6678736129237272 -0.1400888057722148 0.18678594463102238 0.8734896617413007 -0.7010770465000178 -1.2302065877270323 0.13011824783714565 -0.452293455941476 -0.2083672932967317 0.6587541438771706 -1.2199042705391072 0.22469211246817442 -1.0394956567464522 -1.5022616677787763 0.554654703014583 1.0641363349306543 -142.03444407093002
-0.8169166675582822 -0.8442832556262434 -0.002450382266082322 -0.4360467160467322 -0.6350478702732819 -0.0023039985303321027 -0.3865972025444291 0.29098592690933606 0.049758420852087135 -0.5549428549571221 -1.4019676582370795 0.009129338176543536 -0.08465501091160961 -0.8769982577561894 -1.8026426349043723 0.26021174387778867 -1.2107629007118152 0.5291694955995834 0.4989957132421228 0.9319962562255268 -1.8077415697741033 0.10670745778569767 -0.26746978726807014 -0.4459111018673393 0.272444490276588 0.9601917344009301 -0.8955545662479295 -0.4637421556329186 0.38712338195264867 -0.6926597093053485 0.2096920555120729 1.019561482557932 0.6834348658568561 2.1460148819782487 -1.4791595604179955 0.3360244439186232 0.9331360032556396 0.4709916915436509 0.6545007085436394 -2.43585258816602 -39.4452880557147
-0.7621190889378349 -0.03930615009156215 1.195265059102371 0.6167076714918442 -0.3919655116899919 1.2839423755200172 0.49780235749232465 -0.6148995008262633 0.07492696630202782 0.04665174747884985 -0.05190804854124615 2.4270350267575225 0.12714379925204616 2.1305506572579738 -0.2247482536795521 -1.3494808034674097 -0.13081046689562592 1.398146938734038 -1.2641437020965272 0.3180132804533349 -1.0287127382995447 -0.1733067455189469 0.48335364129666814 -0.3609037831088339 0.5183915328138748 -0.0696576925043048 0.30400950241838315 1.5274507666994943 0.6306615998247441 -0.21590686629211986 0.6484997228434071 1.166607738713468 2.5911928415406655 -0.4502544807462008 -1.2892828010537325 0.9320909151027228 -0.9948348740195715 1.5028164975072829 -1.1878942768730818 0.20828256063308626 199.9838204264101
0.6926958691554556 1.9618214719661564 -0.2797883374399924 -0.9135551696669636 -0.609169468597024 0.8135431681952159 -0.028997676564170776 -0.2594825501523508 1.1437504651013153 -0.2018097828359721 1.572075383360527 1.6457565014715514 0.326967475282744 0.12239060125370776 -1.1990107275588915 0.28919630941281393 0.5812815718238847 -0.008310286194529774 0.35781611900204285 1.231647219776066 0.07605390266435876 0.809975071861137 1.0924748251091785 -0.580884753986567 -1.8913312315358255 -0.2936437279677545 1.4545465916342522 -1.713527081727882 0.47917740978472934 -2.298846316858179 0.8448527206936745 -1.3272671679422088 0.36413645446022963 -0.6196667065257817 -0.7257134371046501 -0.6770185155471032 -0.03318995841198192 -2.6910517384063066 -1.3038673532953882 -0.6102377045217247 -263.8576092567207
-0.4023315381151811 -0.06122182994567829 -2.6092789935279384 -0.3162774375750173 -1.6819910994112697 0.8361212431236708 0.16958891301815335 0.5986630876041399 0.3267427569236149 0.4568427523027137 0.28598427540125054 -0.972891959984906 0.6768034722566034 0.08631804092564375 0.37538226991928303 -0.1644244131890595 -0.7549598619453914 0.5527745207244298 -0.7960201697956786 -1.8455218189475566 -1.6078124151934616 -0.8969166693873591 -0.24193723157631317 0.16813382412390943 -0.3842981722868106 -0.5028246601382313 -0.22804235980535023 -0.6387369253211268 0.1505820200421823 0.16835201767692745 -0.3786946703341077 -0.16123591497062836 -0.13282764386109175 -0.12858051291642447 0.7809247845430586 -0.8880230087011978 -0.06543467436860029 -0.1476270475125013 0.5607101859027153 -0.2987056206610367 -171.2280483770204
-0.7570657681023214 -1.3677849794102515 -0.9130689050728474 0.8339211137932055 0.12325564344429724 -0.4946566338182421 0.8781900550031825 0.5526605126710279 1.3039515540243525 1.528332974032111 0.3004593915650461 0.915466181053709 -0.09514550330587791 0.9202265477486673 0.7363473814805928 0.6689803661788128 -1.817942715594853 -0.8272293992727737 -0.7285683045575931 -0.14696099833819673 0.1094472582015856 -0.5491267331807183 -1.4953988034637988 -2.118051226080559 1.443429471437094 0.895230728032328 1.2825173741348113 0.11185848420800686 -0.8431213818888664 0.5141288572590518 0.6078341183553855 -1.8223997238031735 0.3602861304619614 -0.9810661611527761 0.45366046999790277 -0.8786464365882438 -0.17841465144934635 -0.8644510404314868 0.9173218419822343 -1.8892785018943759 -144.05319958480845
0.5502675079557864 1.4157603559018201 -0.9866620773103383 0.6622990497879856 0.1201175297470803 0.28643862182905283 0.5776695845240399 0.16490887674171825 0.6107770736614047 -1.9572969228255077 0.10949115756580174 0.5228977916696383 -1.2898088473036997 0.5963832550078187 1.2550436572415182 -2.191522465225661 0.21536053908978964 0.36042594050045956 -0.2163335921523047 1.2622593628377534 -0.25691700313848287 0.37444751775541885 0.8714955939881684 -0.924251711332396 0.4530494937444424 0.26209356150627316 1.0237853553879295 -0.03646302577645671 -1.4840014266002102 -0.8030629876403917 -0.5026375217032056 0.037202219179908305 -1.0888773751479004 0.38513365008067796 -1.1648962045101507 -0.12164105415576461 1.629606051253253 -0.2152309338177961 -1.391376542350576 0.7271772266731202 -66.17637862894304
-0.0012663962094873334 1.4307410758885897 0.05398364600661864 -0.5878181461539845 -0.059400720378735346 -0.2743176784232819 -0.09925297212659116 -0.7732389824868888 1.0149679824434463 0.3251106125048516 1.2561855473902546 -0.72213836470108 0.3955877544816533 1.127033683007227 -0.5249972120574434 0.5185822196419002 1.216067053168119 0.8037342632103714 -0.18888269000354468 -0.19602876952989165 0.28005127701672583 -0.48006000487398776 0.38390194210567447 0.9896899439211277 -0.2508535577750057 -1.3456144470074092 -0.29061320236006466 -0.4938245688404785 0.8935391989975449 2.1031164398876365 0.8080402360708204 -1.0142771672029733 -1.231699351419614 0.8535678925431082 -0.07982156396674805 -0.29132626167432607 0.3871479667224473 -1.5912083927232061 -1.8232208323012165 -0.45413598257581433 -54.17454039503515
1.4182151006029078 -1.2043825676313622 1.1217074303631387 1.690678334899695 0.9395289881798998 1.0779695309963677 2.4535453952898787 1.0254567191670638 -0.3489141213818457 -0.2745874718508913 0.9350996512542831 -0.4702352651048771 -0.34560165435939927 0.2377863040991686 0.2949941752666142 0.9084925533669467 -0.2921164789199457 1.3508401521135402 0.2217094084125366 0.2568512422135441 0.32534299981557074 0.28933090871522416 -0.23353899556371868 0.7141716376351034 -1.8550608609318908 0.7647078568705304 0.35954623020398596 -0.7006066825124022 -0.3589076068509783 0.5548540346948785 0.41114366665081253 -0.7609521140063089 -0.4031499003377234 0.468522041762217 0.6872823844019886 -0.11756461776264296 -1.2718805579551498 0.7389490193083587 -0.41396372550637917 -1.523909241923587 0.5615352193647993
-0.45792816252636676 -1.7540155774744592 -1.7971804803649098 -0.3798449373879257 -1.440807526717024 -0.5604635276960667 -1.3644940315327256 -0.0731910627159628 -1.3780218372840847 0.8952258907726929 0.7624642724042792 0.4193413073743572 0.6523848788886355 0.5860030738385608 -1.1058858665699929 2.2012516296883544 0.039395346309154686 -1.6228455838203961 0.010509734141954809 -0.27754753475212 -1.5479095503739593 0.9209267895626575 0.04562405825963931 0.7305098405716981 1.263973825131588 0.16308887807197048 1.3058661895339527 0.6043038095743049 -0.22569147777203274 1.8168811246192944 0.8952586967280155 1.034279312902399 -0.7551510913509238 0.8683427436009349 -0.590245589599994 -0.765161534981013 -0.07342902972458328 -0.1744827121796783 0.42670163540134215 0.5444870449599838 168.89630220118013
-0.10854444259585115 -0.28531586470256504 -1.089149030455941 0.924103716257019 1.3789157556744724 -0.30673184597945713 -0.8458496234364498 -0.5364345952263747 -0.7786330417570932 1.0571204621988677 0.8154344801132167 -1.4318021091024355 -0.18349914256136018 -0.3959104704242915 0.6630430343172956 1.1159780298957878 0.44962785955687745 -0.8316580249782044 1.6416412162522298 -0.5230251114022787 -0.6359570951178019 0.14975292879203886 0.6185221973117491 -0.01973147268911257 -0.24505439559585454 -0.4128239718230406 0.29175254014936886 0.6501777662062329 -1.4116255954337351 0.07912300173676073 0.6344011409938531 -2.837931467362842 0.25414383977488464 0.25627008948749835 1.7068245415672796 1.519396321595071 -0.7682373353996708 0.7083454905075571 1.5001067539436432 1.6455134269399292 180.026964650695
-1.3211981086019176 0.3349809627314522 1.5732003012770086 0.6692415815126548 0.09968730099631248 -1.1380014306270172 -0.21922097872686794 2.1957859017195562 -0.638307509564962 -1.0843285459012397 0.07060922697142387 -0.8433970213077499 0.4279554736330862 -0.5189601417081826 -0.29680861218217974 -0.8979568849593002 1.4608685572317361 0.013299591423919425 -1.522771039907721 -0.47773976330339796 -0.8206372274381658 1.4970869086167924 -1.0823039303596325 -0.45461398670623815 0.04434159345569095 -0.4568716447796936 -1.0532864974974925 -0.4302467316841382 0.5040803657704401 0.8144276306612822 1.5485485660294434 1.1649124477835993 0.6691824287659996 -0.6227150506665771 0.32884899159931885 0.425774758171997 1.3625550715341446 1.3215244332849285 -0.16283704553466857 -0.7902167174247642 100.92135225098689
-0.32621260602020746 0.3247379068633629 0.4853828006501171 -0.21306074719460916 0.5286135990124046 1.2454551125643503 -2.0318517456630723 -1.0477988606900555 0.14320191797565135 -0.09629323334976626 1.1369451296195348 1.6464740978602064 1.3606241745073058 -0.47954079512585157 -1.4280928446005454 1.4753672955631385 0.6116420585695973 0.28314376153843446 0.17598157553376115 0.5198316692626845 -0.3833412281519409 1.8097168609431602 0.695974292369621 -0.12716627148029627 0.28125726047654653 -0.028782919146807424 -0.1838197383957448 -0.8805999141317598 0.2591728746913179 -0.07840652256658506 -1.1840399227682918 -0.3031477120709558 0.43289488546160954 0.17953263518136373 1.68030051050672 -0.012743917856570251 0.2281822844803147 0.33614192513049374 -0.26777425881375494 -0.5474103696494664 112.05907537529367
2.114335573976843 0.29924859235812357 -0.7089257769633428 0.13068790399654998 -0.07403077197504823 -0.5967910438137095 1.8728046631186785 0.747598667000199 -2.0837418275998534 -1.5179401022411005 -0.03179940824358799 -1.2481455176940024 -1.5900267135526314 1.2765469298979615 0.09875252045825451 0.040907208300921157 -0.48765002397303236 -0.8564590177247396 -1.4046210555441598 1.8530098089350062 0.40291171148966193 1.0834439137194924 0.20563890449742525 1.5583721870089704 -0.25937065425672956 -1.9677041995958942 -0.23581775690720821 -0.32142584400442126 -0.8369243140320766 0.5699905168688691 0.8105361669856285 0.5437196036382014 -0.4164625121087958 1.793029599947128 0.6203843690225681 1.1534212815416787 -0.5271660745529191 -2.458759452881244 0.008870581404052558 2.299658095344961 78.88468498941418
-0.7551308062219714 -0.8794846316449986 -0.32839999725405267 0.5434482919898135 -0.0038106958102681367 0.9613011286688053 -1.2744680914337418 -0.34312291616966845 -1.0881767836825655 -2.4807657169539827 0.2089654274038643 -1.4652397380998383 0.3604805183941123 -0.7465662541502205 0.3581429059326973 0.057933130271902 1.2400575694478566 0.1624782609912289 -0.29416520283785447 -0.9489203971293939 1.0181451993800854 -1.8115038946855662 -2.456666233848867 -1.383128984769044 -0.4439946882078492 1.7981104263597452 -0.6602851100205045 0.4317321507157748 -0.42147419583026546 -1.1667743585030086 1.4662658825247763 0.15956102778396558 0.7378996103988471 1.7231101135911988 1.3944504612933704 -1.1493546512401684 0.562296775304919 -1.6778299436600526 0.8084428911032183 2.063988278709476 28.484163927285863
-0.489032066496087 -0.28849429395104687 0.3422076050767604 -0.0002508184684727357 1.628728877868211 -1.791523702706474 0.05428625140041917 -0.2696399421863773 0.9371070670812564 1.0060272433770625 -1.0688998575888569 0.631576629137908 0.7082202157038233 0.8919704435280952 -1.3564786969406342 -1.319520507734151 -0.483788073018631 -0.0580364390634416 1.8136632754972137 -0.5058005364654863 -0.5316996837028317 0.8324633812440053 -0.18209110166166081 -1.8498638793052604 0.17431223878677735 -0.8292846334181831 -0.6492697972620658 0.2432150054038483 0.05355778444344648 0.716653945202757 -1.492366141588979 -2.1053869948766684 0.0989856544442757 -1.5886464236516578 1.9049342941703877 -0.19218724726019137 -0.1809727873102813 -1.3372319421575092 -1.0601983882815043 -2.3179240125133225 -336.3394722633177
-0.19974360459150303 -1.0704741868040504 -0.6724985589037791 -0.22405069875199396 -0.9042864346397761 1.081171999240616 1.6409058979698974 -0.9974453323470963 0.9032040691171895 -0.7132136625089424 -0.27387667680262506 -1.3925928686811018 0.21317437338488263 0.5751794159151218 1.3387403479373385 0.8819882450780165 -0.7245349674209889 -1.0415445997919706 -0.47257007304091664 -1.3265089291636531 -1.9094297564098521 0.1414741917529117 -2.1111216719301953 -0.46177425739525724 -0.8198409191488535 0.22971844084064783 1.4436901400866151 0.945128883602751 -1.0164848415125995 0.5235127411180999 0.5723836709969835 -0.5522402968559122 1.507307183511613 -0.03108713931790219 0.034166379035171286 -1.3896698184563425 -0.38835882342007705 -0.05666485110449557 1.6117390201519712 0.3199995525607623 -41.346858475974734
-0.14430043328148967 0.9445886435755467 -1.3764382142690001 1.0453011165056973 -2.8037337166241474 -0.8859770816532718 -0.8404408395095972 0.9871945158213347 0.23011412435879616 -0.7901050090575694 -0.32281834915847735 0.34768685435950286 -1.6088002289765517 0.5176126183934693 -0.20396774466627407 -1.046739056827628 -0.6033110929227502 0.8182478703326012 -0.8947240421554888 1.222773456851145 0.14288506029589496 0.7766692318586441 0.6736705991390011 -0.9827799857354307 0.7114317179733447 1.502355671807249 0.17582523491456017 -0.14718202035627917 0.7311295266659886 0.354961156367543 1.7530272474370008 -0.4743744180546961 -1.0497611000270657 -0.41758325492240594 0.9317349321186583 2.5245690746233125 0.8487070823872999 0.4533844088003111 1.0837483881862948 0.7683521156333702 293.32783495296616
1.1196694288800233 1.1759183835078906 -1.3857480364532502 0.17758109518639167 -1.4640692193150786 0.42960848316874156 -1.0385985853894737 0.25922352104640334 0.9483712775166612 1.601668413833112 -0.4312054142725507 -0.4591825851558649 1.6569618149313305 0.6382507992758156 -0.3775443236816299 0.14166133722011023 -0.7381520946155659 0.48975315511042855 -2.0618233200635765 0.18007135024498994 1.3105844712338288 -1.8864340413936465 -1.0027507433047078 -0.8093331168780802 1.734190824487036 0.4721560497137427 0.011779770771527236 0.4962798000430169 0.4665706733101023 -0.24481321634321312 1.0968394408492046 0.004484106513976075 1.6900062094083428 0.4616894500603515 -0.33068357140955756 -0.007188937474840648 -0.5390930310208129 -1.2917704316238225 1.0660593607782372 -0.6764743524191315 51.24530335881879
-0.07951808435036449 0.806271887028133 -0.2472805508523179 0.5134181568027403 0.12907724028369635 -1.0737903635058836 -0.8473985618097791 -1.2214010704745943 0.9704923788177299 0.4710767394789231 0.15109510371736623 0.31760835226802653 0.5886596664565084 -0.859337194261548 -0.06348612283465768 -1.705685058958517 -0.6164481327928454 1.3302006784927958 -0.10653027554770979 1.0156462832323951 -0.7838452985412593 -0.14493631622138142 0.14882269154448516 -0.8071827559047035 0.6672020001325437 0.7174224331038301 -1.0064818933602533 -0.5833214509698925 -0.41033554234427905 0.5686091784336186 2.8799532755426394 -0.09129553520587325 -0.025071099724420013 0.009000649861771017 -1.7389488579894399 0.006221195118434764 -0.8375518145151768 0.6786635107989538 -0.12965692887214908 -0.4321815855220172 -41.33425087570525
-0.773747442927444 -0.11095681923553291 0.0610889022333711 -0.5606701982258989 0.8686894143927183 0.4000807190044127 0.2017422740486131 0.911384409401451 0.39718019158958945 0.6886046135351354 1.9192662980022224 0.15492392521384102 -0.7846635545915187 -0.9521651621123027 -0.5475718391754748 0.7607297860605096 -1.2815942003038001 -1.5066443205374414 -0.6861183537216998 1.043907974543998 0.5396297483695713 -1.3460827975620349 0.8914302233886646 0.987570180744548 -0.4978583984842928 -0.06352602313694115 -0.0027917211065574916 -0.2361957381005633 -2.4031264290736383 -0.4905625744166676 -0.38123675679175956 0.3220599428885004 -0.3431042095916169 0.2714643847353581 1.103034438636277 -1.094927975630801 1.2648749934468182 -0.5805485834195387 -1.1133947806489959 1.2617973921627326 -66.4108537921144
-0.011908357845543864 0.07779409644618648 -0.7402215185553355 -0.22211349417082465 -0.6967041085220497 -1.2231528897782686 1.9399758298926637 -0.9892148997884899 1.035272958038169 -0.6730259210058535 -0.9199733272274545 -0.08886164365521908 0.01665780236545149 0.38015557108296233 -1.2215783187644143 0.8730980979724557 -0.4252228187392855 -0.248054286051282 1.6276606106579588 1.2273148213300822 -0.08781155948495625 -1.026758843358978 1.3677542442251132 -1.2327779392555243 1.4222845595971376 1.0145926321083265 0.15986434481817158 -0.20653499068886674 -0.8534403948354583 -2.0199356233376706 -0.2567687012011274 0.3662064466795804 -2.0579968982374197 1.5438009042955854 2.148658070068433 1.2875376923820556 -0.6418662330788656 -0.15760652345482187 -2.0426751726782717 -0.05061168310042937 -22.407440807868348
-0.26815541325956366 0.33895645235756927 -0.047531608813756586 2.306165918117791 1.220861757607668 0.8627163618347458 -0.27124078986365746 -1.2061118277814344 0.6345829002858662 0.4858177348419983 -0.4737686244030138 -1.0538829220434225 0.6568041022379136 2.749219109330694 -0.07290252341881492 -0.1241253214288994 1.8151252261568946 0.735223650975235 -0.5502964848623171 0.09380473369939263 -1.5648094587622259 -0.11209095342865423 0.5599101796427884 0.0409092619402215 -0.40179913440441023 0.9375225622835983 -0.563396320341363 0.9532229635134181 0.4744627724636835 0.18725236275661492 -0.44242059333172024 -1.527296428231102 -1.0568782936183505 -0.6960463530010768 0.8104759566822893 0.7242536387887604 -0.2087979871941629 0.17108892406987955 0.6953767921425701 0.791274879077166 95.93872203261341
0.2709931837601578 -0.254057381860799 -1.4564845454187376 0.20428618429402093 -1.3037041003643817 0.03244220876072602 0.425159917304193 1.6523566256502162 1.1784258619652705 -0.6704730644141382 -0.5825351386252259 -2.1969713558258417 0.7675927684558354 0.6911085957740487 -0.588782190035392 -0.3130933907783842 -0.43512569242343574 0.5980807475834903 -2.2697915910080244 0.9070089473017322 -0.7646751335558873 0.299319126905206 0.2636295903682709 -0.4173306201284529 -0.03881495945108065 0.9886140693596562 -1.0768892617844272 -1.163849231020051 -1.1476133491672915 0.6050182758945963 0.780977168014044 -0.6563583464235646 0.03629198443992669 0.35893961845156297 -1.6787083338188928 -0.4536989707406756 1.6231945278278779 -0.3883566706918356 -0.5137544466441026 3.0884663220969615 -13.326807653776143
0.3096111952396438 0.4222476912955522 -0.22582065969483275 -0.10808328091501407 -0.4356779324226067 -0.13402342084092236 -1.7805674430225242 2.582931652213894 0.8735753473720841 -0.23943896666829198 1.2890848251263431 -0.24371364211306337 -0.5869917582658302 -0.7218846815770974 1.3445313705805808 0.5321086168683639 -0.2975440199502128 -4.0828089623533844e-05 1.174282950439819 0.7456457439801698 -0.06147299354527116 0.9260399311447436 -1.0499474756659553 -2.023338111389615 1.2620830130700087 0.3018671983476349 -1.4780529037176933 -0.834897689944687 -0.3274286746544419 1.0417685858810029 -1.8360220907242855 -0.8341890376050879 0.26390428438019237 2.0895847101608767 0.7208911772673672 -1.1722915963397331 0.9123394049767268 0.7920597232154327 -0.1734297206755456 -0.4585831790656976 26.779716625130025
-0.9172911957758988 -0.9261666242069627 0.613455044845001 -0.5128172524253412 -2.171433329565758 1.1297740092647155 0.2763215603113295 -0.38281017939661427 2.0083529141446257 0.10585455607020533 -1.167844410613553 -0.1117655154459159 0.9484507678233507 -0.2566452277197094 0.33757894866605587 -0.517607794471781 -1.5243026072534867 -0.7172851851290363 1.3080552811129946 -0.17263320855407854 0.2744423222738045 0.05999164058391327 0.7523462357615398 -1.293053925238133 2.0609462176981945 -0.32545362989249205 -1.495580680302752 1.8671074941389272 1.2298914330484403 -0.7877250027273486 -0.9881972481308813 1.4383820727497014 0.7550442658277139 0.18407575734462925 1.7064031306882352 -0.4589418557642108 0.44005897288648915 -0.42243498921075207 0.6524410282649765 1.4735185969119002 221.9435384975373
-0.323152037070694 -2.0007608294540726 0.9795279733541907 -2.2788293898075227 -0.6147772941417579 -0.18543684899683 1.5720545047089212 -1.479981356000801 -0.8100431059264622 0.20753542571345665 -0.3382767366360026 2.2170311108672016 0.8246688407371002 1.4830724955176882 1.6254247541785793 -1.9276012760450005 0.8568803676708545 -2.3251263310316324 0.3957737435311514 -1.4841359707998452 -2.7227193670528163 0.12534497885041654 -0.9669492076396764 -0.4036382240056926 -2.3484307929487853 -2.4180111661055315 -0.4140582507473086 -1.2558929837341826 1.181519908829315 -0.6165837655322597 0.5333891028886537 0.8468986236530036 -2.490994453451338 -0.6007968772672612 0.6079484275313674 -0.4136279328873482 0.024785708587053347 -1.5004022241854202 1.1879593026162134 1.0106892615656167 -283.3575289873133
-1.1024818092741369 -1.3118907843226324 0.14150766220041106 -0.9998478946429358 -1.2332582919189772 0.3110002670719336 1.1007918118786504 -1.1787991159262137 0.23987173770102796 0.033694259208981996 1.6355975794692028 1.607135384341361 -0.31500667187505366 -1.0019070085679251 -0.4158881100733458 1.9319427421412607 -1.3218862000653304 0.4184720614342482 1.5632883015311372 1.7301586361312606 0.5680574100572899 -1.830677548156177 -0.8881836956055733 0.41098648821584527 -0.9860035184870787 1.105028791255676 0.7136892525305444 1.3289748156804324 0.5413046481253273 -0.29588937536074367 -0.31954271569916576 -1.1326261719140367 1.7597236897328554 1.2802061906009494 0.511515922970521 1.9893888814554794 -0.29415133250217573 0.029357358713779896 -0.28748666969155945 -0.27479039986991755 222.06346046710289
-1.213441361811015 0.9978424809509606 -0.1585964195226502 1.520469324955167 -0.2871299187977984 0.7424176342580201 -0.4774587317732066 -0.8965920009469234 -0.7814876432032246 -0.7198862743706994 -0.3890143204813935 0.10205894945253162 0.13606166102814476 -1.2232197538979317 0.9233603175110907 0.8801621238441718 0.70385004232605 1.029428047016337 0.2728420837210882 -0.21368598132784886 0.8855976543088331 1.5558456092213397 -0.40535952801962394 0.024678804336952385 -0.2550929797348594 -1.1907420923285084 0.13767333032183773 -0.3778251343251982 1.463306313353828 1.423952091954459 1.5309473134318037 -0.6027820205887002 0.42127523686704116 0.8387007617816943 -1.1403489421123936 1.7528790948380275 0.1165655159348837 1.646741169653633 0.10058451710502699 -1.2808576195670849 222.98733959654186
0.025764555895596113 0.77878004519004 -0.9449528161974197 0.09069429527849054 -0.33853357334949585 0.0573043494086641 -0.07893459384849039 1.2245327025230257 -1.8533498110492108 0.9700382715666364 -0.022986464945161194 0.0711531276753421 0.12120183473558903 1.553089937632358 1.5254597121136275 0.6929144697590857 -0.3089533674759552 -0.091062506274941 1.0290902386795384 0.6287118189992162 -0.05269264737088078 -0.35298572786082055 0.728828533342441 0.020325414386200284 2.2138354187002727 -0.30599647275669284 -1.069689531586144 0.1076595703420223 -0.9094016789528431 -0.0010256554503878356 -1.8152943162977937 0.782666939563394 -1.027004919872088 0.20338797961986968 0.3626035399699616 -0.021289784698615092 0.0718944791965786 1.0823259370274525 -0.4846916576722991 -1.7065191399080613 -2.8236872709476586
-0.5085998474844963 -2.2213090252002368 -0.5433430233162375 -0.5920940921694573 1.2556040351813864 -0.46372441175962287 -0.028572989343153384 2.315744917745513 -1.2375422967254375 -0.6651601540013676 -0.7052105604717932 0.2701611710732507 0.555465909324701 -0.018342722770885393 0.11750125521782026 0.2698491723274584 -1.2624232208139776 -0.22114062076883356 0.9623345557276143 0.7265665721089671 0.40522662175243984 0.06554975161772483 0.2291061163614988 -0.32129757140313314 1.5665523077632895 -0.8309028448356529 -0.7827570695380013 0.10017986881989044 0.2550571968379164 -0.43493156352979 0.083307156688518 1.5403873239628512 -0.4357629396878468 -1.11317603040341 -1.1721552214443571 0.02360032777684178 1.272617365451582 -0.6556930382533325 -0.9272078699856384 0.3220633796271124 -29.788381583110418
0.17899262475245006 -1.1774813201885301 -0.02888267179727274 -0.806685498015726 0.06189658868255306 -0.26156679396074123 -0.07383532866702186 1.3690494680010699 0.014814747184999214 1.4164137404666808 1.297599205499692 0.23572089151965966 1.1463241722077435 -1.1038565513618162 -1.1153310150164961 0.6960741475930724 -2.1168044280181197 -1.665834634278053 0.4071856204664504 0.25391645468041074 -1.424532670709792 -0.4905106967531279 -1.9993871816536324 -0.21636522392464072 -0.8073988198218083 -0.6175379974808224 -0.7191266180385122 -0.35611823399811965 0.935987546229293 0.5828986127960865 0.4590386427540363 -0.9251469734577702 -0.1303056095296223 0.518451142135407 1.6549845681224566 0.47039994367639143 1.8790184657213385 -0.9019975484241932 0.16767239804210446 -0.19251133118191224 -29.686291884557175
0.595220658255787 -0.34656623393099606 0.4274057069171183 -0.23077093153727535 -0.4099810840506346 0.7670920321002682 0.557555096385449 0.39226975577814893 -3.255562860704096 -0.8876976863410904 -0.6724023644154802 0.5702062175079811 -0.8631621339964003 0.7258324240898613 -2.1657241819452273 -0.78021209916251 0.7438834188333238 -0.02958456256851122 -0.2980806456381658 -0.39229456590772005 -0.4369295841918713 0.5960731603576125 0.9671736042281848 1.2104682271285867 -0.7643195634401432 -0.31209080365531927 0.6504684342424059 -0.5138558488415615 -0.3882858524452408 -0.7335165263524244 0.2753770008668635 -0.4480838125262352 2.083245369746959 -0.5638730356093282 1.585126798799303 0.9339651837718149 0.9533739890549943 0.5489753261375324 1.0569599437367792 -0.046196663205483386 148.50164790715706
0.24103576011424266 1.1550191427526155 -1.6687358723381482 1.7850072741452687 -0.05603361286350125 2.1776438333677315 1.0085404638765505 0.8784048614540924 -0.4818976366708563 0.15982361460552852 -0.05640935747553683 -0.6959802163305838 0.9582798654481107 -0.3934937428396734 0.413282686073398 -1.589700880982289 -0.06851349722753608 -1.361884502322537 0.5538348647572496 -1.1356483430859583 0.16158655719671208 -1.6257400899120587 -0.986057834254688 0.8276728305161354 0.4003704762885307 0.5746884906837426 -2.2879809507784596 -0.06442777200049589 1.1560109020501388 -0.510290653668887 -1.8081638388331807 0.10793037032189234 -0.7440782379369255 1.5022385454473344 0.22395090610113222 -0.21859273707114463 1.0010598342427637 -1.49749037703181 -0.27852985319214196 0.7875393283439936 -109.86213529104516
-0.8657181008734184 0.43234806099405476 0.7080613358128408 0.18597014667593548 1.7970037780722596 2.295443422197668 -0.02435890006443521 -0.9266229831643563 0.28837150501147574 0.3848924238268488 -1.3932285577741583 -0.43085981747581953 0.6723300984203909 1.5755430266392183 0.8934098270747306 -1.043430506934682 -0.10092506160816736 -1.8843240773072467 -1.9215409644601165 0.20900608750792726 1.0298433156374425 -0.8708370106091878 0.3011703336116636 1.9033591987568323 -1.4549376147556625 -0.4716719210754335 -0.9939149134634098 0.0828052312932764 2.2459450062879927 0.6337084713010932 0.4131139881248098 -0.3573834472723513 -0.6111954580393208 -0.8375422227538895 0.5724665949994621 -0.08804790402391306 -0.9070174073186229 -0.3161997108888863 1.3296447723366693 -2.0082880566511805 -75.05962459173239
0.46297996385871953 1.4174358878071796 -0.6046422374906212 0.7814511337474328 1.4607236566928494 0.8086915902259543 0.12428040347992403 -1.1315891436855674 -0.5982300958070517 0.06294036512831187 -0.2516582111980589 0.09107852921255055 -0.47593206326227894 -0.08200449164043688 -1.685913203230117 -1.8937773030810883 1.2197179023015452 0.5156156257294916 1.4478647324907474 -1.775405775682324 0.5844941996967709 -0.23865452487979763 -0.3629930128056423 -0.12417704902509509 -1.0520464114033474 -1.3257166895996497 -1.3618534665984912 1.3703023375677654 -0.7745227002194462 0.7440001555255443 -1.577993721937137 -0.48949233420170696 -0.48309941250172683 -0.5905124349490342 1.0715646869282993 0.18715538176581176 -2.035873131989982 1.2521731514687189 -0.11805102096740994 1.412814006304199 -135.9425752886332
0.07390206280708889 0.02373382373980363 1.1483218352822058 0.3076930598953692 -0.8331519172894889 0.791357917595297 -0.7968519506255152 0.5942230627955383 -0.10484484029630255 -0.0009645536283534108 1.7662165670773613 0.611456195746896 -0.49287313945020184 0.35854670805227684 -0.325806781213649 -0.20086281113972762 0.2904889898815039 0.15529353918006683 -0.38383703546985426 0.992618440316165 0.729958936351964 0.21882544025763806 1.1185013518132196 0.3250745940480725 0.9464490686647206 0.9373142828778966 -0.9304839815985135 -0.1724578413768042 0.23558955353389235 -0.8680007969818428 -0.15722791025367258 0.6598094554882589 1.093747047448133 -0.45036167090104456 -0.19964868038539618 1.1341113781297298 -0.19670588508755554 -0.05138498450725587 1.5108872685946548 0.7253959569224521 242.58645276156065
2.11176394112396 1.0627365250810008 -2.2052751327920346 1.311476159539684 0.4018870594798969 -0.8816744921770411 -0.38442964766266163 0.7938568499440571 -1.0942604161907585 -0.6635481058578511 0.426930672219155 0.4262090850552442 0.7588750159885943 1.607394395163718 3.3890470963484702 -0.16164173443471874 0.6593803775646951 0.09259778162760743 -2.8981181389679382 0.14470310884921728 -1.1287113206706976 -0.8741157273330239 -0.6244671200103831 -0.8585250475335755 0.17974700594071874 0.33039617337582494 -0.18617346378131241 -0.5446498800120504 0.32016921386666874 -0.08381902106936695 -0.865640068126242 0.5513692974468003 0.5870100818372292 0.8363904898330877 0.013514843911404818 -0.20672422247695565 0.6732923681406201 0.3388247193781297 -0.017671637349840362 -0.02252738223184713 26.525857370472085
1.6959674182436233 -1.0864320891372583 -0.5760398112111608 1.934889657099578 1.01896387983275 -0.6323842688148592 -0.09640507863443648 1.3488461553403843 0.7002410923549793 -0.5638169299391873 1.4487612554004694 -1.0154647355765607 -2.612222792822058 -0.2662244601231787 2.3625470444315977 0.9210909371672915 -1.5755097458536471 0.9365940931287858 -1.356702636087843 0.050188070759392016 -0.828773894804994 -2.1505613839741833 -0.2579304466536052 -0.5574955650107866 -1.4773655732616386 1.3892692473479429 1.9865924668158284 -0.32779046548169616 0.45847259283431496 -0.2579559882862105 -0.6671561290279909 0.564569511315529 0.8232826018343957 0.352829060716958 1.3421649118869516 0.4084292136467034 -0.5626762845038317 0.6473282131680927 -0.3900562761502766 1.329036253666974 104.70360545981796
