5000 20
-1.5450004051427724 0.8904668826410984 0.4792546967877095 0.6059591990366721 -1.9875921152783411 1.4061881840093229 0.02987553753688773 1.2282199304009958 0.005652207654607144 -0.8871752602164548 -0.23714399089954152 1.1527238444691572 -0.13691977790261792 -1.5744720002366719 -0.8593610821885296 -0.668878639880611 -7.721343699541522e-06 -0.7841214693211557 0.5036695658668022 -0.08913850230990629 -40.49674121964247
1.538594109544332 -0.39840193654965195 1.0869374298438845 2.1556680267546335 0.2328498194761897 0.19440845624470218 -0.6872545088304512 -1.3113182324588701 0.3794239196411349 -0.7472419898657585 1.2633087488027102 -0.8547282710073868 0.72131303865689 2.4317379733158266 -0.8365616848272157 0.8087610435895105 0.44321874107747594 -0.6576913573829066 0.29983077865239244 1.8416817675810142 82.28986946365048
-0.3082208933104484 0.44975674580545744 1.918349410250374 0.3023128677946539 -0.9400578851253302 -0.6921294604896101 -1.6099914759048561 0.8664943863187361 -0.8128563547017961 1.6017846231975053 0.6301988297183755 -1.7725539599672087 -0.09278945857105639 0.5078836923336814 0.2553840714778838 -1.1067767840759728 -0.25536637014310204 0.46364980172695364 0.261176350018538 -0.43460637351645 -19.18582105308784
-0.1572256425154272 0.9373564810930199 1.4324697811039375 -1.3002396881999005 0.638164886769656 -1.06541689118855 2.01564285995951 -1.706684350222409 -0.5710574676765326 -2.1621413351270804 -0.5102100223301329 -0.8501268895887567 -0.3135096649727083 0.6927008131818487 -0.4544773581309537 0.2571060385322464 -0.19851563325144872 0.5506861490492841 -1.6393370505552156 0.18493008038666117 -63.268391076471104
0.10151162400945102 0.10594556872265748 0.41639358575299623 -0.45657036665332296 0.7163828911448595 0.1507247086802534 -1.1644758820669137 -0.8967671757153892 0.36564293116963126 -1.7774500082964593 0.6058625016487725 -0.8820869554649903 -0.9568546661221391 -0.9579241951746865 -0.495507236363317 -0.003216545603513733 0.6071878791514503 -0.4570175193502818 -0.3189359937285344 0.413123356983524 -58.826297631564785
-0.5002235813600192 -1.3866125275940986 -0.9512366054319308 -1.128742366130722 -1.347819455083134 -0.5521381052466138 -0.6803335821945082 -0.1397084673076878 -1.788580989072603 0.9029676930578474 -1.7475793766387306 1.386658854714372 -0.6235476761323753 -0.21422199501353636 -1.2815313029411126 -0.23619323360917913 -1.2447417877644316 2.19051069484892 -0.15045172913480903 0.27656327389217744 -50.42217694598769
-0.18733880788602508 -0.9105359361932022 -1.9686900536273788 -0.8327841980915515 0.9937472250651652 0.6043863930351335 0.5572317994915814 0.5302320654162962 0.5780982225405054 0.7886795660780457 -0.5551805842960181 0.5841847932232006 0.6660550987129287 0.22296638413765005 -0.007525764415498943 -1.4394184268823922 -0.3631035291063079 -0.33501510605631835 0.20362007228172166 -0.6295454402376773 -13.397524567124076
-0.052965775380299826 0.7803229312975809 1.1382136706391923 -0.7626691820868214 -0.9054377977248368 1.1688641198196064 0.9156297585143842 -0.007699492138827359 -0.1467293770097606 0.4934192373243351 -1.762925103270241 0.2208338252395012 1.1318048953361717 -0.733725086732786 -1.5651130629254177 0.2165103864141038 0.7924540405763727 -0.17128148505062296 -0.00021514509456934931 -1.0544861565715298 -27.242384397229344
-0.39889615418529084 0.606019972887241 -1.5365926829156942 -0.0009092453175381533 0.2597227681909761 0.15664582581126185 0.3287160740250592 -1.8385966214847604 0.07390650623181506 0.658134311273653 0.7976902900352701 -0.4785141510294183 0.7449303084028542 -0.9236784658759886 -0.3722154707350466 0.028107639748996997 -0.8418825976432401 -1.3706008531838143 0.756992955286273 -1.7779665993393032 -74.51995422996431
-0.05887980770100435 0.164127400441104 -1.4047431741583258 1.2701974423378337 1.5265933258300095 -1.1036292792638822 0.7303017272744442 -0.20730068470349203 -0.6608392332492765 0.017845480669504702 0.5355550552144163 0.48908416405502003 -0.4470033994411456 -2.447658642577026 -0.3577626806548233 -0.06677581988868439 0.6551152727754584 -0.44909929655172276 0.28332406555847733 0.8957342936738505 -8.718109732289342
0.6897622503502601 -0.13862240728889846 0.770814912788585 -0.6179545864383261 0.9845922005996656 0.38269352679449686 0.6993578813859067 0.3784969654072639 -0.40653541353231215 0.4057259901582676 -1.2732419671610378 0.9483832014645687 -0.603642918039363 0.3724568715690587 0.19601413641270615 -0.43125681112316433 1.0514408651615914 0.9672219423708337 -0.2319283902237098 -0.3607372557453115 30.0135768345757
0.5885788695478351 0.005460021054884759 0.7710130248441269 0.7756497750395944 -1.7133281081159517 -0.001171096322831424 0.29866143080399665 0.672061488616726 0.8722635421700451 -0.9347181593550603 -1.3007048278905533 1.0017706881097717 -0.6797374818425661 0.1185032535858702 1.0831132236269074 0.729246773203017 -0.07704639552879994 -0.33816219871264397 -0.5300714164984326 1.8236597013110238 39.736369668434996
-0.11924123175071344 -0.9383098633859771 0.06614335786211853 1.3357532602980307 0.1698105177997611 -0.12459535916975091 1.7682797048174435 -0.4367497280571461 -0.22641122584594847 0.7250999023513122 0.796480295649376 -0.9979176618387583 0.16462765748172128 0.16611012359058244 0.7267359281020447 -3.3700877112702186 1.9144045198034045 -1.7260768483783095 0.9998983009956459 -1.0956625209504194 -25.068571827802167
-0.2365031306318306 -1.5699790350923477 1.1018637869518748 -0.06602988519558547 1.0298247268889718 -0.08167730989402022 -0.004477079351977927 -1.238109657266595 -1.9947504241885539 -0.8122997736657731 -1.4902723112573348 0.535242274464424 -0.4974978087024491 -1.090623790726132 -0.6690624351726738 1.9641415733752023 0.16294301218499216 -0.6045668397691645 -0.8566748051472166 1.5225622471758196 -35.66024099429439
-0.3526588328482495 -0.5490165435974335 1.5003998918669699 -0.6746619699532258 -0.5607495285843023 0.24654599071105313 -0.5627504553883761 -0.27688775768669505 -0.4717232968945994 0.010103745231841883 -1.7698876003614232 0.22106563152366387 0.10035465002956748 -0.9004413606196418 1.6687288916318972 0.25451354723175096 0.5645805115864736 0.5595459316197393 1.3394931174068672 -0.02205867196534385 33.433212318010696
1.623870474015792 -0.9965968872185312 -0.39754208383035355 0.7982625528234537 2.56639041245559 -0.9453700962761862 -0.22555231493123293 -0.4711548260857446 -1.2375967649087691 -0.40088745316665064 1.0429313231499933 2.3547596870458785 1.0836822397724768 0.7480108205134433 1.4883333880445995 1.3319199569407567 0.5963908949940515 -1.5627503474128404 -0.9601065537190799 -1.0679850310570222 38.76299523302191
-1.166258681097061 -2.044904889736204 0.4090964076769023 1.1133698834920447 -0.355902584061942 -0.34651501658926126 2.1479434203363565 0.8207845931001276 -0.6717910788036974 1.3906269234033526 0.09645294610282465 2.0206868622303267 0.12235358149969447 -0.788045495287855 0.5816927727027575 0.4083322598794989 2.553829472866985 0.06132509607517692 -0.9029271966193669 -0.02877345090629175 83.67584439752258
-0.8032439658937518 -1.446558138859476 1.2616562177790378 -1.0021095687551618 0.8550821224124547 -2.3145060152024635 0.6477376423291632 -2.466964366776717 0.479144932738185 0.5873453999813215 0.2667394480557244 -0.6020478793246039 -0.3838209199766762 -1.4304841246218445 -0.19501707723186965 0.7675430202055962 -0.4988629818736172 0.6674790718097499 1.4717158245548054 -0.08497187163219899 -8.564816506951978
0.5718488991771342 -0.7636885298524443 -1.3780238453599627 -0.02116840617331369 -0.2723079144665282 1.075388441073066 0.39055990425959786 -0.251831951333043 0.7933073513938473 -0.2061694353784433 0.6454707190643936 0.13547025599862514 -0.2742079837694592 1.359236043707709 -0.7349043436822581 -1.3186154664605818 0.7845980328237032 1.09173361245173 -0.24531123801369023 -1.0009275897509193 5.6080138729487246
2.449744028194965 -1.0708463963860655 -0.2636734688901774 -0.9250007354448139 1.4163805525663098 0.055435241976852366 0.7162679068728676 0.8967789081878764 -0.642280808006786 -0.622885338028514 -0.37660140211612536 -1.9589997704456128 -0.038807081556535096 0.9408254422849184 -0.633063000773034 -1.5010013739689774 0.09885452218387368 -0.4679339649217136 -0.2795998478269141 0.736442215097315 -41.845633103358566
-0.533368767315598 0.1554002407071897 1.5757575990291024 -0.7936083169984696 -0.9091852016955979 0.2754663941720064 -0.6132277577969786 0.1690806246263232 0.5958938602531308 0.31084028656762497 -0.3377358073026087 0.7903552513146929 0.7371752395214896 0.2930543344338119 1.6008134447484534 1.4981967793944513 1.9062309810108329 0.6146042403285598 0.4809742395602708 1.470654627484568 153.43320060982242
1.3931334551410672 -0.5556714129755547 -1.0215654363354607 -1.0881753193294033 -0.5787173966628336 -2.0627700183693456 -0.4272494629675494 0.313826557792428 0.6075032346235135 0.2985154748587921 1.2605415913516431 0.7834825512751435 0.8281550797715177 0.4739075924966236 -0.3169166394525831 -0.1511847942701567 -0.19593717423392215 -0.006714201060968134 0.015029956099341628 0.3431211252667953 21.93021844239334
-0.023917510494039673 -1.653044043508316 -0.44840537265443137 0.6221172103042947 0.726629460113549 1.3424701217982236 0.8018694882931746 1.2337781693666612 -1.9059133642256574 -0.407772453125988 -0.18794362631862582 0.8032728367912405 0.070337562030088 0.26062716434822153 0.732525152850076 1.7952218160597775 0.7644429995241656 -1.3402229675144752 -1.1125508759810179 -1.0951757173158372 0.35278182458461416
0.135963431974845 -1.7388093479151747 0.886132644817853 0.6566236305988843 0.7840758414641267 1.2220035885771083 -2.6253669999600113 0.6435502948558837 -1.5792094399157686 0.9524215030274169 -0.9064409568812677 -0.33008374155518927 0.9899088140277795 -0.7781518595872351 0.889473495791992 0.737261932568286 2.0084719769146795 -0.22013082382285182 0.12708292559011228 -0.9631549306069073 24.08386994296564
-1.9186989650446786 -0.02665178707806191 -0.47476825437216513 0.4825189926269824 0.058568406319978956 -0.4441962386747857 -1.0255993342499272 -1.086356204954711 1.7712620865330364 1.0291560475820134 -1.1987859086065533 0.032670886129838206 -0.49504187850038534 1.104597100898239 -0.24416038956322508 0.4330935618076919 0.8237565377842625 -0.25208175869435984 1.0364071925928118 -1.0036963400522805 15.6198502001373
-0.27200483914829154 1.1722358175183163 -1.630335256700746 0.5224964436763246 -0.29744462287171564 -1.092056374760326 -0.35895037789315554 0.2528156549428134 0.453404855272337 0.7869839456866097 -0.17647446394510283 -0.15594213461007042 0.4221505695988668 0.11115440844644751 -1.1376724104442575 0.5016385719164506 -1.7135165791217533 -1.0707325083989359 1.4663021541208034 -0.6388903314883752 -37.27368783536696
-0.9851385645534045 1.0484423631358024 0.8285346001774317 0.6053416456871784 -0.15932095462349918 -1.86066964113217 -0.2980140769442857 0.3375319891003867 0.48883152767281884 0.11458403906025366 -1.4095532147890022 0.19073281453772203 0.9680503759739834 0.1527781940391122 1.4400604814898896 -0.3815290013620109 2.873254293097897 0.11851598305630992 1.4497104152235838 0.9336479827174101 114.42651403223243
0.955081708247414 -0.4037370061194278 0.4286274885340834 0.02575880056900299 -0.5842136727452769 -0.17368564177881052 -0.30511819656526373 0.08967762253952602 0.12456396719980559 1.2535828814291028 -0.6760078868499529 -0.6371941265700797 1.049459961451236 0.7383142683057964 -1.2320148498450574 -1.0432496444167902 -0.11665394985468475 0.5526812775734656 -0.13507394176245854 -1.518432941766687 -42.142801641497584
-0.49701705298032095 1.0135557159760982 0.13599887676392278 -0.2633479601210161 0.014279406055304332 0.9823015928540866 -1.5732006820786169 1.3232916901768959 0.20273559257657833 -1.1565458591675388 -0.8747967654811729 -0.7859488278897504 -0.11015611662667787 0.4230293349036378 -0.5334923625957917 1.6981621657667403 1.5726156222289702 0.26190798257445114 0.42374745033159017 0.2191605906652612 45.95266947176597
1.4802389975351111 -0.7972346953161059 1.873171010513161 -1.8199544287589977 0.0789215643940343 -1.0398978458114494 1.0721561328475846 -2.2474083998694616 0.7139888465326333 -0.8369829580124195 -0.7009965513735384 -0.13677222669559336 1.0558389076698527 0.004834510403659253 -0.5571747164551772 -1.136141076980686 -1.356223852090717 1.093260864909238 0.46146774803933177 0.20159785434596353 -33.735472881240156
-0.045601673343536625 -1.3222969006988974 0.9536936122934752 0.32416141718607083 0.9875001037989384 -1.8288160908225293 0.3163499213972721 0.23092144435235892 0.1941646297950172 0.47239041047278457 -1.8753698674705641 -0.9031847798584796 0.5722966926091545 -2.3998953681023245 -1.1644927412641186 0.26513410759250566 -0.7625921309037655 -2.345022390379505 1.0928376336401768 1.151600483526462 -75.83790190012023
-0.05350654384058919 -0.705062274188378 -1.3133913005564668 0.6493445136768684 -0.1883059238349174 -0.44386400293668005 -0.017940715260993455 0.6343353580331786 -0.5960873879806896 0.8710623830041937 -1.1641359275553913 1.9837597652295635 -1.1876165894979291 -0.6351459229714859 1.6154029339313432 -1.086952489936775 -0.8555826670141207 0.8354434482109776 -0.21364263049002233 -0.9053270425992541 -26.02389924684787
0.0491296192172683 0.04917092344787991 -1.872208354134364 2.03373021645821 0.17125230050770177 -1.117593627204966 1.439827134582156 0.4938890501518876 -0.21859219045509423 -0.26170122735515067 1.1571155919982927 1.1365069507662178 0.5927211546552689 -1.5507469633702726 -0.5319522674527731 0.958033994668194 -0.5529364689763647 -0.9488285137438325 -0.9348664893691492 0.6849538284970419 -3.2621359902972547
-0.9270470158425979 -0.7737440908138171 -2.342984646426128 0.7352662742793427 -1.9483870859477601 -0.5108930349630214 -1.7307368763987248 0.3980503596627367 -0.16992247276560415 1.3850941933953242 -1.0580974466879722 -0.18280763741934378 -0.29553052464437485 -1.7595507757741473 0.8472853499173425 0.7197947703210468 0.5824159930865548 1.0282792025522332 0.08726042406171804 -0.5098403490921298 -13.63034793717093
-0.8992252862788089 -2.7955645690842004 1.1763335545556917 0.8455003646775101 -0.3664947530035495 -0.5684268523953385 0.13126764657795323 -0.535205938368035 0.5407740895207351 -0.23226830061646794 0.15006235095864248 0.9067487278979653 -0.7282765614841659 -1.2939042142316712 0.6798265296816102 0.8057938168590056 -1.8957715086196467 -0.5060787185155838 -0.7963847954657763 -0.3814749832658412 -62.475388852730106
-0.6183901128228418 -0.04543821175331293 1.0447176327855043 -0.11889688306940491 0.6928662719064572 -0.6256307126555236 -0.9782067486514784 -0.3050297922457675 0.09999277655448804 -0.14711303124277877 -1.0558540352685502 1.0529618230858655 -2.219689069151566 0.17386688705038233 -1.5191453794877363 0.16487285156727088 -1.3595243597431468 0.5713111077003425 -0.1549577457065805 0.4753520612471368 -59.800331038289
1.0074739197949618 0.5064320289689462 -0.38908414403074515 -0.5372464986918293 -1.6551425971707847 -2.4673629388159175 0.5036940332688294 0.514715191974027 1.0240533681780906 1.1908138497370329 0.6322512560056693 0.6280356941870313 1.484983603002169 0.19532181166884827 0.12792601384028765 -0.2600528386468916 -0.319071084043036 0.5345874855585786 -1.4813382747795765 0.04135978519714551 13.810278831037058
-2.375372300377569 1.5598111873765046 0.3752684264284515 -0.21563677981184198 -0.28243921807074485 -0.6560918603598934 -0.14793373420246353 0.2819831510847886 -0.9613838666498571 -0.15058533441200336 0.6454070640020898 -1.4428311291944327 -1.6078527354223722 -0.5925440965478247 -0.11152358218278148 -0.5342382304891187 -1.7392185639571247 0.7631369993422865 0.4049425196212646 -1.745702907093365 -107.7422876545929
-0.8023331893442248 0.09762615803343219 -0.7866700084248369 -0.058066784602784645 -0.3759248676161827 -0.1698215619506272 -0.7244007707017223 0.41365397583325914 0.9301091156478098 -0.4920637732882371 -0.040134000953556175 0.1426575464314074 0.710079807986655 -0.7885753169742498 -1.0219051219338082 0.8069971714614168 1.0849518356848302 -0.2494816627852793 -0.022139793464055757 0.35059676370792797 13.81287396588204
0.8010824648377745 -0.5440149658918016 -0.29441373288909173 0.25296875597488877 -1.5920487141659194 -0.5630737036420884 -0.0865445124224505 -1.0785395353467953 0.6131530304720979 1.5747795656456702 0.10088611963229317 1.7574783077020384 1.5962726004025654 -1.1183248151277767 -0.5647604440861128 2.195163261430259 0.18599660697010756 -0.4210077662582845 0.41266895446154533 -0.5188479433320827 46.391739643654006
0.5819342753047448 -0.27537656435405605 1.0648981115769054 1.132613321336674 1.163682443035301 0.09143028971209918 -1.3757567517518297 -0.8379477734076343 1.2938746107891013 1.6015161461844785 -0.6675758471122017 1.7222056867925073 0.47383009185428837 1.2562533356525347 -0.5424097685975282 -0.8193310771151979 -0.38460719500456103 0.15383313158668463 -1.215063385338225 -0.72877176150653 0.2570059479340454
-2.164342776814784 -1.969846809413311 -0.402401477581125 -0.7177864451487252 0.6799453888897039 -0.8700810276935312 -0.33488710637865066 -0.49006939484095535 0.8015781958035277 0.7303120059683083 1.1286611159282904 0.9101581317789792 1.0401898345595766 -1.477465349927897 1.1057305533438357 -1.025655562923597 0.6619003566928667 -0.566722445074032 -0.9333218542727458 0.22409538893538924 1.4909718699145502
-0.1571748144550525 0.5636650483066389 1.6935323418501615 0.5662120899966085 0.5374787412604812 -1.493911371112526 0.006701973352616171 0.764741372760825 0.05142550864337897 0.051377421357798145 -0.0555520837255829 2.2327737937505483 0.8771315467755663 0.9822076345862665 0.6574773098776076 -0.7049356328569157 -2.029206515997841 -1.6767876405621018 -0.528622259671243 -1.643760597230502 -48.32909628588946
-1.204130436325413 0.8620326996870114 -0.35807380321113313 -0.10264397075153173 1.3964449543401487 0.9368491218069864 -0.14451743819067775 -0.0844845630408218 0.9898172982636544 0.2792361265387248 -0.9687527500710735 0.7347793527773792 0.47641767111932715 -1.21024324478075 -0.23869860023438583 -0.029123992724788085 -1.137158837151327 0.7285042438489161 1.7033345290209512 -0.7754185797910179 16.86698051115905
-0.8211754464838322 -0.5741731134636447 -0.8182950725994698 0.25532392676746113 -1.0420930455406319 0.09407529464816283 0.1764272236782229 1.3210741461548243 1.4050253587786352 0.0241158069631613 1.5642553793200191 -0.9362409193808596 1.3617258384268092 1.6167686482663728 0.7940377293273587 0.46315328196055083 -1.1396156318363222 -0.9952521057339268 0.5692362479524757 -0.02678399307028286 57.77075639926819
0.22522418762773022 0.5888334895316694 0.4817375409029308 -0.23187686050483783 -1.1948363801152937 -0.6168790117463582 -1.9113927772977253 1.2033826631598896 0.5127705253940888 0.9477528478541551 -0.4114664313184226 0.9872704053719912 1.4571021509112274 0.08531752388727462 -0.07654166836184192 -0.21297886599189864 -0.4940059347431646 -0.5006147780966345 -0.04665888898787939 0.304266710440123 15.717406524753835
-0.9878364918721645 -1.9316880168921793 1.2637108034514852 1.6468198053284013 -0.22714875180257144 -0.08299821393727631 -1.000355459238088 -0.6827387922872209 1.4915242475872947 -0.36188968173526176 3.074550623513337 1.9138187676737537 -0.06409119151752489 0.19963060944576003 0.2949050632901441 -1.1982623214223338 1.0240153616913785 0.5179621955602877 -0.7057287844072206 0.2005522445088403 61.97786269316061
-0.8180307682078748 -0.000255878762562388 1.305846055066494 0.15002185276746802 -1.2264629715431343 -1.5700944615402432 1.25172164412484 -0.04039276628193082 -0.5117693813617173 -1.146668473369891 0.5545574503232891 -0.40254289786248143 0.3372454147100368 -1.592122611264023 2.7869170183290866 0.4900943018512364 0.24630038719603475 -0.7637480475733864 -1.5734109464222243 0.45566506622450986 -17.05019206876207
0.15093787471580083 -0.5120290814911097 0.20790403678760683 0.3478129658846435 0.3044735939631919 0.3136901622176311 -0.7294562068364233 0.12146107309904074 0.6152094874878605 0.828434073172987 0.17324370096168928 0.7419706238315248 0.5398089573761531 0.25413423782305467 -1.1524445858816785 -0.39373177541987747 0.3146533992348094 -0.2882445159061228 1.7088759054326355 -1.4164999917227667 15.779800123338028
-0.8366925208220386 0.0666857423813668 0.854706456209686 0.5099250290369596 -0.6166135062011026 0.05093238646189946 1.502352478520163 1.4401009462937742 0.28663325723135774 -0.703358827511444 -0.046483369932553587 -0.9069197628425555 0.6216698200823539 -0.5885303740981428 0.6543672951702171 0.36880892535565823 -0.5000059268579758 -0.9196108822084355 1.219846900681502 -0.13983198809818814 16.986432218295086
-0.24825390548957005 0.30153642889863447 0.25327308109116037 1.0541789906614727 -0.1282131777834849 0.06042541842006156 0.14129059231274568 1.1332392631744161 -0.7449905213941432 -0.4643883378038418 0.3649084732779449 -0.8874420865897297 -0.7915175756511448 -0.13926076303560536 0.26079555701713486 -0.19242663464836873 -0.4872047603923033 0.9210021527721548 -1.1856754370456484 0.012877641281381321 -29.71619875646686
-0.4360876581816543 1.3591805630940779 -0.8960503579816174 -0.25616946094078236 0.2564643044664688 -0.44049713718005323 -0.996201554115022 0.8552388275329927 -0.8743432835545728 -0.33497938933299287 -0.5104542235928131 -1.2602729753946713 -0.9912268907592344 -0.7473670805814739 -2.2884364977863436 -0.9667473800952041 0.34216155188114333 -0.46289227021219703 0.9420959875864027 -0.47058243974031755 -102.3577511561196
-0.8427880474481563 -0.09650712294797913 0.000883758779421159 -0.9980104354978827 -0.019240757535394164 -0.14996283574942618 0.03807781118770885 0.10206075493163529 1.3916735330835592 -0.010587579495049288 -1.3443244308446753 0.36846675960343866 1.1847250078101477 0.6273744272139891 0.8115060864149695 0.3461872115853715 0.13586120659965173 -1.140856232020926 0.3179401142502825 -0.09486711910984219 24.506135620465894
0.9009432128751174 0.04790567097027501 -0.9929375052030971 0.23348120017973242 -1.3975486943063766 -0.5504071608453917 1.2019426243212639 0.455266259012971 0.21304171177412679 0.2594430572753085 -1.494588074916107 1.150473409576262 -0.04357783646692354 -0.1413501759684639 1.654406064665862 0.8071816007632584 -0.8359940709053116 -0.3716725018651953 0.673046902333116 0.8931162083133102 46.47666283606095
-0.9097758014890358 0.676171060833256 1.2045795671922195 -1.085137886889225 0.29370060217949534 1.4446722241152354 1.1582713062249048 -1.0064691022912458 1.1151297361633656 -1.7051273941176976 0.42690030871496626 -0.559922803412737 1.14358568927205 -1.55892695206119 -0.2769354824849627 0.7212694553082726 -0.9086973458306873 0.290514936238863 -0.2886268355189084 0.10761503622773308 -10.389965022522686
-0.7204753687590945 -0.3258018277603166 1.011602086960721 -0.6436967911745883 0.5393929444342621 0.34914917017121344 -1.7714521358170197 -0.9701857346873011 -0.5665671372058484 1.426194604970914 0.31556533920126006 -0.16117027505545392 0.5839603671626273 -0.5745051361898811 -1.0703493643576034 -0.2977195767849969 -0.37310571638276707 -0.6072496078724862 0.29131611275009384 -0.7690180054878559 -53.113891064405955
-0.053851688781619625 -0.9460002499609588 -0.08797207466934398 -1.0117266023748637 -0.5439076340591266 0.9108200002331278 -2.7796226047578356 -0.20122012968841277 0.7091855954283087 1.949842056722194 -0.4929181345381681 -0.7641416114197735 -1.3978223539416272 -1.7258075391349732 -0.6908110604318397 -1.558216488703073 -0.0651762744124191 -0.2612632554665681 0.6984738840329472 -0.4775341887147484 -91.46083510779219
0.21034188928905548 -0.47824589391968775 -0.8657717717484706 -0.5555600133073033 2.182770586105566 -0.8638285755541284 1.259568317840139 0.2380647721995451 -0.2848127524599518 -0.21200733058130397 -0.24794834314770342 -0.0016353919291873281 0.578754886863918 2.448006130561919 0.568196848850721 -0.3063780904831937 0.783883828104779 0.22190588826691998 0.2223726283968318 -0.4072222654746154 62.01046020524754
0.6039309203152012 1.6810130281837268 0.9186597261337534 0.8261570553500869 -1.0707906759453958 0.6320989122615039 0.8837777206653106 -2.351871741782384 -1.0688977010011234 -0.025291216836981295 0.6657442547203722 -0.9262715473222828 -1.4045765333090943 0.3080061347444194 0.20270004508959022 -0.2230383535830803 0.23746938568084638 -0.36992570387844137 -0.47873435159550626 0.7300375152406747 -29.30534439000136
0.4776886360073939 -0.5635308522379007 1.078655195189128 -0.43043175757660923 -1.1358489154556388 -1.2795904892232295 0.22627766705546962 -0.20950899489908253 -0.29884184810165126 -0.6744902224615933 0.48939378487452745 -1.7779942937550697 1.3129214142966759 0.6680656298593572 -0.9611842377687628 -0.10747958517601143 -1.352026157447077 0.7435618586560258 -3.212628300548984 1.7598799606849909 -62.68653338648306
-2.34088685719388 -1.456656420253345 0.9372431719013319 0.7806026453990831 0.1125101600530634 0.047294593226934925 1.4612664585150255 -0.6136695900177503 0.45336146777736097 0.7488927668774599 0.8472571543665522 -0.7443613736641377 0.3498553861327572 0.5809718051312092 -0.22502976540369002 -0.7688160988981522 -1.5047303992643548 -0.12940525149774837 0.33684623008183134 1.1868732153055077 18.263212036309817
-0.24569372977972914 -0.005787452272911917 -0.8538583087971213 1.6878336131051028 1.5552631714192093 -0.42574408743380365 0.5306911615558477 -1.3506776174738286 -2.1476127432848213 -0.6663435088257322 0.06083293640261568 0.40471467294489016 -0.17432444272061898 0.22554304643636394 -1.1468263526777942 1.5964954894044783 0.1374337402388033 0.7313097480072908 -0.6332866496218643 0.3768559008385723 4.199184244296358
0.9675963208840952 0.32810538244067633 0.3609312324397728 0.04607416402317147 -1.1359423993632527 0.010956220261193538 0.6143784220340858 -1.1802821113767767 0.5162842253918726 -0.45180276537881897 -1.242537219738265 1.1910743565641144 -0.4654900314536318 -1.3677127293294542 0.25461472830487963 0.9776682178840974 0.299839101060193 -0.45289744671712967 -0.35273934571043425 0.6798924236462924 -9.327429236349856
-1.460817544080494 0.3634220066058219 -1.2010806117558839 -0.33232681092111044 -0.24979283549901238 -0.008485858401229236 0.9985066219092311 1.8676682369243085 -0.030360075815370716 3.1315657000537787 0.8878515278911586 -1.7126351561480047 -2.0342520690825654 0.3906659516592979 0.9790460698337595 0.15852832304152312 0.587701277721859 -0.1954659489021504 -0.9360384705305264 -0.28272594109974697 15.025968237566195
0.16635393250697939 -1.3856289124891918 -1.1653142923032396 0.5228896843505074 -1.4229387931012618 -1.5107424702121157 -0.25176254874226234 1.1295579751237437 0.14332062058772468 -1.2931157825993662 1.0098124566217515 1.052689701811946 -0.9480238822012188 -1.18947421110864 -0.8983159453077643 -0.07475050255224389 0.322646096130543 0.5862496365377763 -0.4389690319936249 1.4342218067711403 -7.619628527281144
0.7102629220157506 0.22422079204018286 0.30931173235377457 -0.04506321116080629 0.32790739038450656 -1.753651768830307 0.07734985722266106 1.4160280691537381 0.8259482283808881 -0.34061493250995095 -0.10038927392387124 0.8105970924255312 -0.8607527174723942 -0.1692639255639509 1.402121662922603 1.0321587755099295 -0.6417699962485887 -1.0308905838307232 1.1518637267598346 -1.507658864577778 3.62356523902843
0.01741654443925095 -0.06257117912878979 0.9209607594517173 0.38965361898241735 1.3974493935310923 0.5633208487473309 0.9611314154564697 -0.3484517264677078 -1.260131338000785 0.3790919335620673 -1.7530880142269012 -0.18361730962713868 0.17110118334094418 0.4529575661483724 1.0689104769445519 -0.951727519695283 0.4793821836741801 -1.6815234776984194 -0.7125150799005214 -0.7523321096335595 -52.814596386169356
0.21362375645657217 -1.1069785335325397 -1.9222521922403755 0.5636072028100721 -0.3062968235934365 -0.5275611733245655 -0.41129665988826924 0.27756864078749666 0.36811760340731203 0.11880929750126568 -1.0009891446487567 1.0262405454392272 -0.059425047191728926 1.885276270749196 0.41597796508762963 1.2087333656112886 -1.174275215916057 -1.1741709875216044 0.28873253745373584 1.6830965771254895 42.93819064207085
0.8868091407802878 -0.5265767076055567 0.07356574857013666 -0.16600360418588161 0.7788746519827549 0.4652858253402577 -0.11834079964022948 -1.8411730761397258 0.1364405147189008 -0.0597087587456531 -0.9868100993277524 0.11290559953450986 -0.1810368830733036 -1.0933606715261046 -0.8980642564037482 -0.08013998865194785 0.6789639324113592 0.45708631209167105 0.6873173509262006 -1.4052278142237211 -46.04863133500271
-0.18735372911437712 0.5930016991188924 0.7188479370949469 0.04259482126517636 0.09112788097772767 0.4138116426020276 -1.416204442186285 1.8728615967906597 0.8532365814781415 -0.8793855345162377 -1.20369897522412 -1.6996002860520114 -0.5889590515833371 -1.1236152529511076 0.12777179137236494 0.004513405804786812 -1.308522484903066 1.0084780169970853 0.1589082382301385 -0.9358840965654052 -65.13490416028412
0.3293541400820307 -1.75059110035004 -0.3508917718038102 -1.4036345543041306 -0.11845045181423587 -0.17440428080211792 -1.6661688692685463 -1.6024395785462895 -0.7613600641991064 1.1075334183407177 0.042757719541756195 0.5079637134519998 0.4905989911878557 0.9627577480213271 -0.9050242927832745 0.08936723702727752 0.844948192713738 -0.06439198904158515 -1.4134981799369788 -1.6154512476139886 -64.5547706863963
-0.7847720676552492 -0.4405655561305695 -0.13763913909153905 0.6336864933151697 0.5227343066390694 -0.9242706834516691 -0.7865313725521562 0.8210173273501518 -1.062918127528011 0.15234698115190032 0.23092413693166758 0.010349423296416875 0.07096752250149028 1.494704497349746 0.38443862238577764 0.7352245482180066 1.3582093920848188 -1.178901494085764 0.3990153038889152 1.3537630366099063 67.15885443122508
1.410327045708175 0.17646157138572557 1.122276165000515 0.08804177507545538 0.24105189875801913 0.6501618486064427 0.7110165813297827 -0.5403663872063319 1.4101515094606152 1.2296882734356582 1.615385463899681 -0.03895378447672628 -0.021053875415296356 -1.0078461842629365 -0.3431907735963821 0.7811477728227998 1.2955542123073096 -0.671975899633878 0.20254128399719962 -0.27887395937434317 54.81348935488398
1.8655623633983414 -0.3049891623962778 -1.0047789053247143 0.0005879419523566542 -1.1941049660895364 1.8361283921498532 0.24327287517460222 1.0923152702755055 -0.8418790930382948 -0.3315153561167716 0.2327649036242704 0.1584367882540665 -0.37627978109485566 -1.346000360307894 -0.6074069813088719 1.710493307340007 0.8804875897060854 0.6388436202429869 -0.5869555868146479 -0.3765812392638547 9.9677901828862
-0.27437593428823803 -0.6451109601982278 -0.005549618888307297 1.508370230729228 -0.23587109920426114 -0.4804977578608339 0.5356473870470585 -1.09853038891496 0.8478061741453152 0.8422241066308032 1.0392670819840344 1.0691767492300255 -1.0915460146731082 0.2503309197011659 0.10206053963025909 -0.23007082131864715 -0.34779727716886594 1.1982274468841763 -1.898313465248128 -0.1528588028998016 -0.00230592910056604
-0.04209285145639545 0.9856298393523446 0.10658914596860461 1.41845220246206 -0.45407941502947563 0.7280564771574025 0.5415869096925355 -0.7134985860604292 -0.4130792342702139 0.8866925838749992 1.753306908308671 -0.2812034196416316 1.7014367903869936 1.8332498541605444 -1.0992178046325887 -0.590504430278386 -0.8953142123474565 -1.5950712672568699 -2.2337230398332406 -0.038603563717552594 -36.18398302542801
-0.5027426455401631 -0.06639999319876866 0.7168486029620363 -1.7014495064191593 -1.3717952138581002 0.22509680101679067 -1.4396430835698726 1.2592560902560204 -0.5498413462898106 -0.9448322587291089 0.6037049084761726 1.7851614010106311 0.8358641927784274 -1.63783291000932 0.3942418920041391 0.003295749031831367 -1.366630694793904 1.794574481865068 0.7505859254837887 0.24754514983541243 25.501991115388808
0.16303245441578074 -1.6177992512403179 -0.16351640001992243 -0.7030521814855365 -2.0664189065868444 -0.20880596348139474 2.1551327179195146 0.0767253748563179 0.5315256529448641 -0.7945432568690234 -1.3338216651774073 -0.4850516971521475 1.38190618598388 -0.8441044050457778 -0.9656592813145062 0.5503877363342449 0.6844852614795945 0.8227246429756263 -0.5084259233683757 -0.16142355823269852 -9.918418419601707
0.395320078780075 -2.7053738335630864 -0.9532335441869575 1.1887271215985709 0.33167054491140946 0.7812220464953568 -0.15338694310703932 1.2638797429135953 -1.2447847178685065 0.04055792231446022 -0.6854252705381216 0.5061180171901549 -1.9762029740841944 -0.15393355560335503 1.1413224069081993 -0.48653623090553544 1.4192834154754665 -0.6280917701809593 -0.06371673911022765 -0.08205362932494531 -8.951968903796178
2.06670874160919 0.7554250480970962 -0.9227283662079927 -1.5363048370787493 1.5371195511844622 0.20255843704424198 -1.0373631477134682 -1.1934241496776925 1.514490852904606 -2.588504640525542 0.4873364420608476 -0.7668802882443237 0.5979382292050109 -0.9812706753930762 1.6459000532943322 -1.3950702870236438 0.7761128490211898 1.211094657972737 1.323660420247177 1.1442554783798067 48.42313527598321
0.1553113881129696 -0.18788456150812344 1.5874940263768595 0.11713954925958975 1.5925267834659922 -0.9186280398828922 -1.801667238909218 -0.10447201667826851 -2.7098456125068506 -0.061816146628219666 -0.23098319534311923 -0.6609863192784308 -0.6629204093809271 -0.06637709339131345 -2.3517108997164717 -0.7060401779772292 1.499907945665483 -1.2295277971404326 -0.27273099977799303 0.21645349241497552 -94.93562544638364
-2.2459775664082753 -0.42200900349865533 0.10391948410832427 -1.5503390309531793 -0.854375837550895 -0.2984650864094552 -0.3176526103109921 -1.7074866406674563 -1.4886771106413021 -0.3365070641648967 -0.24038557877590883 0.7477656481482143 0.2617039427396922 -0.2083231070110452 -1.4635308385193144 -0.7804272991179683 0.1983519337034221 -0.8955859300885501 -1.231470505950079 -0.9906989330410733 -131.26705627340053
-0.05549884302681284 1.1133617367366049 -0.8148126830524588 -0.09155636105106552 1.87717617993029 0.013182803782962918 -0.26494091043446116 2.2537515251683 0.41113546430448483 -0.3679172068333608 -2.261432630838088 0.4186990245317442 1.4199367028215515 3.086321013535346 0.8976882948491571 0.4279142279508861 2.3444435563758605 1.677053281822342 0.12072875010162618 0.42101134458082673 167.8285657915161
-0.07756719909231172 -0.4730453129624432 -2.551135095328315 -0.913247480065823 -1.969825791336311 0.5344734984789494 0.5868005977883546 -1.3905696362091486 3.224865175142825 0.6403795683790442 -0.3588074223400829 -0.8680023807188904 1.7269846527526236 0.509983369823777 0.11509614685132316 0.5460432721847563 -0.4616690424804484 1.4654901380904806 0.6623483290420134 0.3886861669960945 71.86879925283988
0.07949066439854718 -0.027472903653078855 0.9129272720239865 0.701083387953649 0.7086464581294004 1.4897605753783127 0.7380939663786091 -0.6513189567854516 -1.487200794526016 0.13103467923710657 -1.5878833966909502 -0.35729428992385287 -0.24447550495853104 1.1276797146056305 0.5369236619505631 0.2912324246485186 -0.8505725412403119 1.017917931206382 -0.6323903055571828 0.2833361771504553 9.353635608917177
1.7180048711266265 0.6224509929485394 0.997614237887832 -0.7895276232251802 0.14785682449548126 1.4914666535095102 -2.6294174757736974 1.6897436519098803 -1.9971720432273896 1.1350412674660102 0.2573134706872518 -0.18923749667426754 1.7042139144422903 -1.077012795179849 -0.40141690979433103 1.1986363202786214 -0.14664705709196854 0.12729754182971106 1.0138194396940134 -1.1773058113772301 17.445483539349354
1.2551624047362346 -0.9413905128528546 -1.171659261984012 1.2762846434439625 -1.1418064146022775 -2.8366585707032805 -0.21207394727909146 1.5578579232836016 0.29597645184184423 1.2413428524266503 -2.820817654088751 1.4100209429379709 -1.2246375470067703 1.2178993155652476 0.24291602863574377 0.24882362192561028 -1.3382807697556212 0.1689611410251874 -0.20246477097445853 0.11350725483661815 -23.34000440674892
-0.3299553378407973 -0.23199647179307162 2.230690683592027 -0.25614079675225543 1.4671691441288781 -0.10419125420779972 1.1208628118772705 0.8882434691903506 1.162459196390012 1.082802835065944 1.1979158611091412 -0.04822417281540578 1.522510496411162 0.7226705251560359 0.9556160973051143 -1.2455790563455176 -1.4530419714600245 -0.8636394336776936 0.7800232092765174 -0.06899059203334873 58.328637227550935
-0.07163332226088999 0.37095567867199725 -0.07957242168880764 -1.2174510098619888 0.8798811964145776 -0.6710715166946618 0.6773290312074659 0.30850710027883127 -0.004168783610255628 1.1699587957312267 1.898445977929051 -1.5090746665360009 0.7344597990660665 -2.422322179029265 0.7305318087096443 -0.9312933038147109 0.04192564449253889 1.416365603353109 0.3882268283786379 0.9295953745536029 40.686003935181134
0.9147696518713646 0.005027962496988253 1.0023362945961012 0.4359408135579725 -1.137332687555144 0.5158322852074094 0.461962316123349 0.2870993000758365 -1.6901391259937797 -0.167076102495178 1.355531690878232 -1.5363017738233178 -1.1424517582125582 -0.9073924814875819 0.09113498874180291 -1.5599327976161637 -0.7395690036257453 0.3199656579080635 0.7392781150146506 -1.1031693951445185 -77.9129623889782
0.23692841717830893 0.7025428014579447 0.05429764457035924 0.6379741665853743 -1.2463992911766286 0.2508770908602379 -1.5950044339059417 -0.4957645852444085 -1.0518871860089527 0.0878533167271709 1.9454609758766541 -0.053274276827670664 -0.39338655400228495 -1.4161707826589758 0.052164604597361136 -0.4888606526300517 -0.106608780635252 -0.41518765708195154 -1.0461875291780085 0.7475114894573883 -49.62037261855748
-0.5825702836103221 1.727126493077741 1.3325168656687603 0.2191490272409642 -1.210925817780308 1.5286277457836266 -1.2734651350195614 -0.22988127324219537 0.19484894634635308 -0.358080370514197 0.747223435265317 -0.3733125137400729 3.3927385200231326 -0.029608662602493653 0.5374734397947155 1.1891977019481967 -0.6029879038227594 0.6717446051948359 1.1555741184331694 0.029274622308565347 95.61423092743692
0.6788466046723399 -0.11279778141934321 -0.6381602712721768 -0.5444819029940172 -3.318746088903616 -0.23167935555027522 -0.8081834713765635 1.600626447901072 1.2411242158419673 -1.3731759046319894 0.048580571825980925 0.7451205540773649 0.2189731969853395 2.338956045181518 -0.9802893436998776 -1.3268919329055364 0.4185384345103872 0.5119467442917325 -0.0641884457187745 1.0942719642486778 28.851452283945033
0.16878768762879834 -0.2926132874196275 0.9534794227917203 -0.6100981154265241 -1.5425979366146538 -1.3034660151206516 1.904982612197467 -0.94701872912175 0.7487571798630556 0.7075865744912068 0.6707608799984978 -0.3141166921279722 -0.7327038868156439 2.092170943947606 0.0423382286522069 0.5610832085185671 1.9309638529767996 1.552034833248743 -0.7467267066205673 0.46004808770242916 92.4925061709798
-0.2939260908675141 -0.5505643307908065 -0.08453068895334843 -0.7460276316967526 -0.8470223129231195 -0.5648565112178424 -1.4403780556137276 -2.3622729572508554 1.0175056098486592 0.2316054443438089 0.01505290722540334 -0.349352870965268 -0.5497731209567565 1.7386671132560834 1.4316145456306675 -0.8184411534667777 -0.2058557340923415 -0.2716230968855145 0.7525803613060328 1.8496523833811152 35.95509843494761
0.2975148114477553 -0.43188192691432786 1.0380055061002609 0.02077321465159696 -0.3257162638795202 -0.3077531187080556 -0.06334167000800192 0.380494996815378 0.7995522313897074 -0.4139559494876387 0.648543890615655 1.8037008147812805 0.7359039368730342 -0.931392902449064 0.10372186451042659 0.27607047196262186 0.352518246199618 -0.4144892234299078 -0.49362020046148264 1.0472067957996138 45.86250496883806
0.9790897401257935 0.34071211355166886 -0.7428418639954207 0.36750343961742393 -1.6716489714043534 -0.029458042920287565 -0.14914988668929632 0.8690554904160098 2.124557084172731 -0.04838929007266911 0.8638696789344819 0.7718850621380713 -0.714176936296776 -0.42892095039095574 -1.7599300655017218 -0.03815235104303916 0.9968148886540545 -0.3145756461517143 -0.743350856093256 0.10564216402021562 -6.901797315893486
-0.3349375971904414 0.45860866044015647 0.9966564596950691 1.4058399332158797 0.22763445797733667 -0.4842300903115615 0.5983173619616429 -0.28765687760873004 -1.2082817403304962 2.4894238524339136 0.26751919605932406 -0.7066440543065196 -1.3705901977220076 -0.7959350467556151 0.3736087022960687 -0.35577998596708543 1.8414677442536016 -0.17791788959437918 -1.216365411236591 -0.6423098531278213 -18.961122327552594
-0.24385538095155518 -0.12938164652149353 -1.5331142937037239 -1.098829043998258 -0.3485515536041414 0.8453763299317328 -1.3755419874959571 -0.7860696315659292 -1.4241565988188982 0.28339308804016305 0.9633484822591861 0.07595658326306313 -1.4991870758056098 -2.12990347732076 1.736776164313858 0.7821272438569447 -0.3400539144583849 0.1812479012149293 0.08427140935957106 0.26563853629978723 -27.065920053179727
1.2789815997913565 -0.7783734536784038 -0.9170321711639758 -2.4977227295738405 -0.42698348274718634 -0.3469815278939404 0.5148601666679204 0.5883089018439591 1.1381061796709546 0.4743244318105046 0.44850005201629595 0.5981071897187819 0.7277874585921105 3.2024557947749694 0.657866253932444 -1.06306548050049 1.741838450247477 -0.3602126622742826 -0.39638564319503816 -1.642850402703383 49.48518861192983
1.322799528897217 -1.6409241704144553 -1.869943660310984 0.8452798651005873 0.7956384582055056 0.08174330577004855 -0.05139583122208614 0.36786694238541456 -0.5413243213815268 -0.35280524334017876 -1.312663922864235 -0.41648458522826753 1.1550759854227393 -0.6151320292060839 -1.8026642443485623 -0.5132543162975989 -0.7633923340321433 1.0885991097628323 0.944119117282165 -0.41387343860265313 -38.43203277969024
-1.4488347118587015 0.5511227786025772 0.14509314148892097 -0.5508855657655409 -1.3571920288025414 -1.6945039102748956 1.2118033698818886 -0.8816326743479641 -0.9647715040481862 2.0233907857290876 -0.4385735226777043 0.30655273930298277 -1.7535458641862676 0.0513477641559794 -1.6824765456001864 1.2810282993840396 0.8865307531729278 0.42024135299162857 -0.111738182537299 -0.9392083135441687 -32.423931760298515
-1.1634630083441333 -0.9481939165456411 0.046373099762483876 0.601843460844458 0.25386172962688097 0.3780044343295653 0.6255437044353149 0.7779596076762008 -1.0448255767929422 -0.12090022596189114 -1.3797140387130413 -1.007767921104152 -0.6826055640494171 1.5427099964173796 -1.710480318300898 2.3666037898687207 0.019723683114379675 0.6293046411240869 0.47087116500155596 -0.11937756955051597 18.984871290985076
0.2035843450108574 -1.7048233917657665 -1.178286620514931 0.1572616676326787 0.911486197859328 1.054521167129401 -1.297238328254134 0.13903764122475712 -1.1904160060931326 -1.645466069526887 0.234843889902771 -0.35554451563425266 -1.0858565098308064 0.40570095613682644 -0.9627355590111554 -1.4947150121530226 -0.8144168238339288 0.6321949237358067 0.272652894514524 1.1043382711576697 -55.031593466812595
-0.7322611188272581 1.2012747696467536 -0.9851287752208218 -0.6025832478872177 -0.5174792570789397 -1.1727903561943447 0.38905546115637996 -1.9475023555145334 -1.8404522337700844 0.13161290631173583 1.139610471162352 0.11603450612116109 -0.3857272480216758 -0.7919473195499741 -1.1430107989195766 -1.3515658092023395 -0.39392830046510374 -0.2398570151276514 -0.3255318094836524 1.4480497175474354 -70.37811828005806
-1.503872325964619 0.4697677890828501 0.09522206981847754 0.3835714587329772 1.8507410213103688 0.1197265544991895 -1.6217824283803974 -1.752236236222304 0.5186428027904306 -1.666545509028211 1.6855146073989742 -0.009106741267202506 0.1861383854657434 1.407088879447505 -0.47748862600640307 0.5776145991204481 0.951328879120001 2.2228801981550035 1.1248644152843161 -0.23723365215587713 89.29596147796565
0.6132278811259951 -0.017015280059439933 -0.8175142340471562 0.07986130689073029 -0.6109038736230676 -1.2397489176673 -0.7831344106900118 -0.19546104501267386 -0.31730419831451756 0.4641147421201578 -1.3715956427118428 -0.48784471396596346 0.20226916578402512 -0.6023893810126832 -0.7882852533940505 -1.1215359286833406 0.38154722023899623 -0.7700258257268502 0.5814512155403243 0.7820952836875023 -55.910984309904805
0.9808160526501669 0.3117861359822171 -0.3308369346873138 -1.186339780415901 1.8172473263673332 -1.7338413474957621 -0.3190005900194789 -0.15864389129042994 1.201986145120853 -2.0566373353242717 -0.37434242035656207 -2.4711306999400584 0.6972583271150653 -0.3310106112412174 -1.2320460465657632 0.7121813552347976 -0.7721154285525874 0.9016777382456126 0.9581704082966579 -0.6500594498210788 -46.54006812615053
0.005852756320333707 1.1042499170280027 0.6523985528737354 -0.3953570702927746 -0.36345668149464944 -0.3599886719943241 -0.9914683739786816 0.6352743284147376 0.34834172268658264 0.4385126208872936 1.971770565580203 0.013592355807111574 0.9688514343177658 0.18857048648146407 2.1995579886393615 2.084218593624967 -0.8676938751046789 -0.29496756018395476 1.7839888449972425 0.38171726617409396 128.27696260453155
1.610466766586708 0.6164600069937869 0.5648636143047842 -0.23763447634855078 -1.4493565431721631 1.2726846431585632 0.5679318729867697 -0.2391000598267919 1.2086444981190416 -0.0820758166264051 0.38990679215197466 -0.43909753695754933 -0.8731046440796163 -0.3343515608505812 0.6193037048288548 1.0744779008340073 0.17210291754051207 -0.9968493635861458 0.29626986134259475 -1.6731938539423499 -18.384582586181125
-1.00342888965129 -0.49501873036001753 0.6138972540758204 -0.8225751472482543 -0.6666660842698229 -1.734840834973459 0.07851962549772155 0.8232817152442176 -0.4806174318528252 0.4080189639745891 1.6189362580551474 1.6762520144908202 -0.791805556731575 1.6969568250125115 -1.210186572376786 -0.6292278683761319 -0.9960546166061037 -1.6025168728308294 -0.6051747735564268 1.3236006253179426 -16.83894899431896
-0.4483194912722686 -0.24728931040709023 0.28826198621205645 -0.5961343672421059 0.0368742258715896 -0.6081021490079773 -0.2857954715316108 0.4909245270623926 0.23155356102767458 -1.0785771660320576 -0.03861958054355538 1.9809356897349424 0.9854817413469983 0.5132121287707767 1.0090811723584359 -1.2807324534034221 1.4152958998233163 0.11874164110213495 0.9989579421490078 -1.380806386825171 41.47846226927324
-0.6821332333080096 1.2556350754173309 -0.5123962822323798 0.10208059164543476 0.9114325953430292 -0.26529011740604996 -2.2640075829454354 -1.0178093993195862 -0.1901801693421789 -0.5566845432953204 -0.33158712133155965 0.447945121868864 -0.09317495502774488 0.012099820534421112 -1.3820453533887787 0.8346222870082073 -0.06876852470723807 -2.169807089381644 0.11018161850382438 1.3413422641242707 -47.806778609231465
-0.20592702172596078 0.47956400673342775 -1.183655507410404 0.3338414099102035 -0.384075050209798 2.0504422630530805 -0.4692570280161734 1.489057462774885 -0.024058036574949808 -3.13776737929561 -0.8706453914527289 -1.8878149060665166 0.14382264926413346 -0.4234930277021008 1.7509384481970012 -1.0786612039678016 -0.6786902094126382 -0.5218381349174658 -2.5376210632805845 1.253014340631785 -86.48057646390833
-0.0044930653150310525 -0.020737627044526422 0.7862426144705791 -0.5205278157096206 -1.9795198904212823 -0.2858261389702146 0.9411218392789842 -0.8296733333323777 0.5815880076508854 -1.7041577418020248 1.5816323053518848 -1.1142602295747324 -1.2175552545026727 0.002374762416244382 -1.7618568837179966 -1.966009033502719 0.12247880601307717 -0.007675400805044377 -0.08394808312917824 -0.8321619825605738 -109.81955870681504
0.10458162017141122 0.3621331814916407 -1.1577051315659341 -0.6532459936392608 0.02292318175800626 -2.051367218308731 -0.3357194753104101 -1.0462473800798768 0.27271761533540484 0.6040805229276721 1.522100470265381 -0.21846443323883707 1.25415621734758 -1.8249970161642706 0.41941485086479163 -0.3899467916750127 -0.6010902242892834 -0.1633562541634058 0.9287531459347209 -0.3071887048883443 -16.190812402121853
-0.41415153246111996 -1.883205177547305 -0.3718990935843475 -1.445950532763909 1.471211353944256 -1.2442434811354157 -0.6738118644790003 -0.04139505495235569 -0.15047338518400621 0.7168052692948194 -0.24858403456999123 0.6988505958868662 -0.6431152725949263 -0.7363811247345449 -1.1036864217513962 0.2325165740845065 0.746012774865488 1.1503762969595934 0.09111472038016179 -1.057779624164321 -22.233523561722116
-0.10699502591805367 1.3790903429316073 -1.5117473048667398 1.9763117380561657 -0.397190620308573 -0.3498797105313696 1.8987484654953546 -0.2525028735723202 -0.3590597537410077 -1.6121723773475358 -0.24779675230947648 2.235493934857578 0.2839219921822279 0.9117059911736468 -0.43706041878032725 -0.6922236875513507 1.122135640663097 -2.0511061161038007 -0.5122520664305034 1.0122847929830925 8.431742881471651
-0.8289252716446777 -0.1405614914629482 -0.46285964890534537 -0.964043712983479 -0.7861165639719061 -0.7419282153594121 -0.33139755521156444 2.4002236377230313 -0.008104865647883906 -0.05289753137187009 1.215060995380022 0.7084087509247006 -0.7184822432610144 -0.8926904045318768 2.441550563689514 -0.4140994395255978 0.9080459727253755 0.943784595102868 -0.9770064669025036 -1.2170520042612667 20.04648695755662
-0.10759293809204784 -0.3995981625748311 0.4583663440036559 -1.7018556787227468 -0.3698539422785545 0.4031776203173603 1.5137786792171766 0.06208242101829551 -0.643992991799796 -0.3252323291515477 -0.7671052115135848 -0.864528294233262 0.07163886548675834 -1.0991730632876917 -2.570021913294377 0.9466834905395466 -1.8079898667753815 -0.5183322741038229 1.5637924001215555 -0.4930813793422903 -80.7625538634988
-0.07233811109744162 0.17510650621576745 2.297826184086028 3.093326292402923 0.5093736798954721 0.05794790642472683 1.053123299710812 0.11700052170292446 1.3432475926679392 1.481738389672379 0.4543061326726723 -0.33661936793305014 0.9066220014465368 -0.18636162199544973 0.22154462317991597 -0.6302789654955585 0.4301124694906514 0.23981101623431647 1.015215077203727 -0.3019475540168129 86.24050139172878
1.1711000275445598 -0.7353179295468873 0.9502561959878537 0.029741881327942893 -0.438818886641055 1.1622750439739062 1.069481178570404 0.3307850645144197 -1.049378733748271 -1.688899482348273 -0.599023581991716 -0.731077518237109 -0.36236461563201205 0.39495585974349273 -1.3318267725738993 -1.645691642864395 0.6151004327332471 0.52838504520809 -0.6607420170782091 -0.009385813857773753 -62.40936173370939
-1.2832098343409528 -0.6147956685340726 0.8119724410983921 0.2078963270160538 0.5343532557277388 -0.3800781741088631 -1.9738942134944126 1.401000592750277 -1.8824400643643064 -1.3102171888644927 0.5704033758508893 0.8837443516591904 2.9405825788570716 -0.3809942105928612 -1.0071184063029168 0.004412358461827754 0.08433294657819657 -0.42280952882243894 -2.7125003667336336 0.2287187397191193 -49.34618579503289
-0.15544912615611106 -1.7469943510497987 0.42337249233700563 -0.30654676100031314 0.6017660181918718 0.561603696768919 -0.616249540152033 0.19819319652062975 0.06190931667120799 -0.23053392036318107 -1.0493164153013317 -0.19745245206107492 -1.416174649965634 -0.5357323450524255 -0.795407909243047 0.1698793341826142 0.7941070306510977 1.418415823843606 1.2991623746410754 0.7111015521815527 28.618482072047676
0.599916942885548 1.5994058466271173 1.0428583364357802 -1.1710786532360797 -0.23463161365553453 -1.941572994747885 1.5264232816862344 -0.39122694880627795 -1.1877354604569939 -0.6868975749393732 2.3242494103745535 2.022470208276479 -0.7929244317901897 -0.21295001031241648 0.7827705338728249 1.397135696786444 -2.5602190976493286 1.245158446214094 1.6442047451522719 0.18179387377891143 63.278026829003615
0.41972913481016044 0.8316169337724523 0.6476830545643775 0.3079810499810932 1.7716105772239545 -0.49711302196119295 -0.5864497476782394 -0.18836880430166164 -0.28525237429258044 -0.5750585240805469 -0.48512095490912993 0.22349246900975128 -2.700447910277211 0.6193503442086099 -1.2046706624528032 2.4454815219164034 -1.0553849450713018 -0.7708125999853085 0.8805180361085962 0.0032312392777237033 -23.944846265851584
0.18808196139351457 -0.07924767734871851 0.6747361596454481 -1.4355191024870824 -0.5903001726757268 0.8944749101878433 -2.8493650505114267 0.9035980369727494 0.6764477325840963 0.5307370629064975 -3.1469579397087544 0.23318012366514207 -1.3704397820036205 -0.3368761080595345 2.338848602414163 -0.5460827011502737 1.6609171210982867 -1.5713499802325501 0.04044811789965256 -0.754606922704902 -43.15904496536152
1.965540721576464 2.417679392707541 0.9349738021025982 0.8162044876778755 -0.06780075826607111 -0.5086404807289769 0.7226675915185222 0.4357306241259662 0.22731399770914518 1.6398098463165163 0.5483453785722617 0.2625034380782168 -0.4812108064762668 -0.8565033227085963 1.3071481974155608 -0.17735745409524425 1.322242241978551 0.024610432978005643 0.9371732156655918 1.0468549052259597 104.39562307180476
0.5845010509819746 0.6130756921526255 -0.0198464463509783 -0.406118893601953 -0.45291010856042785 -0.8003449628044339 -1.1062897597702588 1.3041086871975236 -1.0731719907546144 -0.5137636269322836 0.3405831574129894 -0.014334178745670648 0.23124117426621302 -1.0422457514734478 0.36295140748540694 -1.334217019231 1.7264093333354966 -0.14957820057534682 0.7781062842865095 -1.3887203023831591 -31.00878182006091
0.7019802667803209 -0.45341241918184566 0.39656378667170605 -1.2645494708622933 1.14759957494919 -0.8424487200196028 0.7380436931217439 1.2404212168912836 1.0935595978995354 0.9308414621639863 -1.102064817530159 0.0022859057332386017 0.8985914886638698 -0.9973392457926402 -1.37848989423974 -0.3997962262982187 -0.2849290106278691 0.2527503281738067 -1.7546973458572093 -0.05757740557523204 -44.330079067652306
0.6638245572354687 1.3376223461552188 1.605099640800951 0.2550737446455155 1.5256814772433378 -1.0374328532548056 -0.17865351325747497 -0.3994219973143246 -0.13051837393131804 0.22119971034427735 0.41849855332707037 -1.421080493766413 1.180376741582176 -0.4643895970577984 1.4170563272888663 -0.2632259740233414 0.2996866086513847 0.42238523775072256 0.6834020339040229 0.16019785027757588 50.931257185866826
-0.15405700611396997 1.1832002006019227 0.5830130567052716 -0.8209193092813851 -0.06525226815762115 0.08238954388301109 0.7906296084824618 -0.8138826406134253 -0.0190289388165203 0.022817722204698014 -0.1990605205677387 0.505567188496499 -1.0576613114213127 -1.663094450115995 0.3084020313500822 1.1026470524443541 0.2344191023181959 1.2263413996950068 0.22899785045803522 -0.863538520231502 3.028421639625911
0.8819674730069537 0.555325828664848 1.3897452320410961 0.8886401594191355 -0.2775237008463183 1.0759592043165027 -0.23776193206565602 0.7788775539178141 0.10665472116603217 -2.1479065016254655 0.9990304578702096 1.0807046037232444 0.20786465656008235 -1.1177287022974005 1.0000911274213329 0.7507958508099478 0.20365014800826245 2.9021489686171913 2.288448106281731 0.7730331613560869 150.99351067648678
0.6275046796827897 -0.8845189532683138 1.0710573457965542 1.6020093126363517 -0.033306042027129244 -0.23246631409175786 -0.20149871484821166 -0.7370036222625537 0.7107496170488808 -1.0345708708197179 1.2188213834646027 -0.15593635113773804 0.950381322578289 -0.3597730431062845 -0.05675843330151671 1.392163682844508 -1.431879072775374 0.10746697358281605 0.6377528375956979 0.5954207771564539 37.47623018507113
1.663010170683141 -1.135400913185112 -0.4663631960105855 0.48931769172619227 1.1878075017276246 0.7863767124556557 0.001306451282934124 1.0568076358165026 1.0496165236024952 -0.30332265096410016 -0.6333600891414422 -0.0973670941751775 1.581915337070152 0.1790619943564479 1.0577144984335858 1.9220479795510514 -0.2559728965920958 -0.3943429846895113 -0.05660487557352843 1.0509865722713758 95.82077219361699
-0.49168578556823206 0.6320021660126559 -0.11295051285806704 -0.1380920099307738 -0.03929609786913789 0.08700682306684328 -0.6744953165820148 -1.2302801945780577 0.08928997323816686 -1.2766511526338546 -0.5753755751494393 0.6774112258559724 -0.7863455861378833 -2.1647918932057357 1.3050185113617712 0.289089387130147 -0.07969150591043496 -0.49893886457793946 1.1446246201373083 -1.0615406809973247 -50.42731101198289
0.3315235010460939 -1.4308830139771487 -0.3866925658181836 0.4228374291301183 -1.6282631391266082 -1.4310098326012821 -0.8122012156040747 -0.5825537309206655 -1.203497350488206 1.0212725811728014 0.34537430987648476 -0.21873653795327733 0.5458336318448306 1.6539238971175065 -2.0348341724367027 1.218447196266818 0.03851293865939431 0.4427869597154335 0.6744466721369516 -0.8590307154887348 -5.169843776151193
0.38017314877268965 -0.03704345423055544 0.9094495686404505 1.2196866838682112 -1.5248884265517124 -0.9182261577768519 -0.8889657204608117 -1.8843652319655055 -0.6753896202585307 1.0019996815594014 1.5144012288668072 0.1061031681703215 1.3507109591419253 2.9948389427541784 -0.8470994712362983 -0.3503715270172847 -1.1658303887615196 0.6340478319294021 1.1382556461590303 -0.601590964392295 37.4035960791608
0.012672829751349339 4.019647762934307 0.25946760741111546 0.6579247942581228 -0.19990716958397567 -0.6612143205594327 0.20034196187075654 0.5902419157093998 1.099695788577527 0.15221135424866822 1.0513771251040807 -0.12749338987136244 1.3690300018469819 -0.6200268426082048 0.8567697873650849 0.6597510368459776 -1.8848077920642894 -0.2617513417830408 0.1729460889502396 2.0449135000533003 74.14440291410746
-0.47145795040759625 0.7462230406276614 0.4367888962315885 0.9988192908248736 -0.016841903453084547 0.04263197282430021 1.3037619572214043 -1.187277039109454 0.4084431086867327 -0.2916453417116835 0.058133983353386466 -0.15932147220600826 -1.514655113977168 -0.2191313470480463 2.2700354790218995 -0.062290932754017266 -2.7141786372851158 0.8085335565370404 0.6575823710646078 0.7681717413784932 11.670134765389177
-0.5609771533407235 -1.477976274023837 -0.04465183803730609 1.0680118400146483 -0.05950575890802427 1.9954756210151947 0.7392201938141937 -1.7145810121179201 0.17278669974488559 -1.5860816748465205 1.6881218302165142 1.2383522384102426 0.002036236716795355 1.7301531075318108 1.0652998506293145 0.7822865996171543 1.0193172989626567 0.25173136458916706 0.32733617494978057 0.4320724333926521 111.80538003630056
2.503894515582824 1.0678077103777073 -1.1277751774280904 2.165773134933079 0.40110685764533877 -0.4309544639729566 0.02910233485713964 1.6603864167517697 0.886703796705306 0.01403137413586977 0.3700780836438644 -0.6305096194148306 -0.09490289132143674 -0.2105889817517434 0.015990159955628684 -1.4134695982138785 -0.4643765406301869 -0.24692354553735174 0.019363440861153828 -0.2891891303568411 -17.689775998992666
1.1013896716166578 1.3054176546334304 0.8977004093641223 0.2591246917889379 -1.431547651105904 -0.5431200923440281 1.1515625667644624 -0.35447185904817535 -0.20143278703742082 0.5033389490725441 0.11965244882950653 0.28940279169347083 -1.9541211490325625 1.1673650710193546 0.6819113817753099 0.2965698736106451 0.7439899358317388 0.8495905179423974 -0.4541602733694858 1.6738812635652827 70.30167882977378
-0.49375596696455293 -0.9707583573395686 -0.9272174594948455 -0.049458857734596136 -1.2880743745423906 1.2595872401247474 1.9722724786065686 -1.0537150176504484 -0.324252946229929 -2.6550634156664428 -0.9911050406327139 -1.3140733254481614 0.1818772167157317 1.0257778923564718 -0.1960664847732094 1.9188499866862445 0.131076817189509 0.9074329232778359 0.7059805644901138 0.8672827951045426 37.43901018593619
0.5807869922999298 0.9928229151651387 -2.2611872680694765 -0.9281817535478022 -0.9637156329498471 -1.010232999010328 -1.2290978816495857 0.8745254646582791 -1.23935890298846 -1.824939022695223 -0.5216156484998796 0.2725001481231638 2.087648023626727 0.7247096993182912 1.2353876532571524 -0.11887717048230809 0.6862934710581672 -1.8953779647305082 2.385887987867057 1.0023838347000942 44.985375656264004
0.2674874283378665 -1.1562915785071943 0.7751700824075947 -0.1814896821737024 -0.4619547539985423 1.3725320021291487 -0.12031454231491534 0.5557380291428327 2.176078989506856 -0.12452161977855232 -0.8573310006590071 -0.14655009911460157 -0.15479262725535467 -1.618850450382354 -0.7016108871125031 -1.8603160347326544 0.6346720177328902 2.1174328511947675 0.8343814411785098 -1.5504022407083642 -14.387655193511598
0.6748058488125066 1.0612083307126345 -0.31730282976626445 -0.7554422857811715 1.8217744047880193 -0.24340073384988464 0.036288298651595004 0.5092385001161629 -0.8520203712773488 0.20418558217511593 -0.3180658990616117 -0.3433478347615245 0.5690890868478956 0.4562690270365087 0.06489149646465475 1.345212817018485 -0.1088143317017358 -0.6550812300878631 0.32900201601418977 -0.7922446478992479 9.912081580604312
-0.8661943354467418 2.1909145154528815 -2.172202435893995 -0.21139919169204632 1.0003527869331101 0.04446380487838367 1.7425124258217084 1.060591892098776 -0.19921214352605185 0.4066358804901387 1.093487305263526 -1.0559290819116933 -1.624200261850834 1.0176052682728396 0.9770906213028857 -0.19781546375739623 0.4672366643270658 0.3024948809807014 0.4239502221121799 -0.9222951109527774 30.863111382239147
-0.19978299397156205 -0.18836381259134008 -2.094761797217845 -0.4203272294991446 0.008839278664216231 0.20571251181656772 -1.1480607125985403 -1.563268399362176 -1.085341749078408 0.4401358680930049 -0.8556145714462979 -0.7523166995022863 -1.136581062436855 -0.974624015610305 0.13223720632018293 0.44664234627726807 0.7326115974257523 -0.1261000850667723 -1.0517519592545927 1.3407509579619412 -56.01218592319102
0.4805415800606117 -2.1529215672697237 0.38125885665922155 -0.5435794766164496 0.17914714299493925 0.11564916407720582 -0.996558019754839 -0.814581251974417 1.9047886747796419 0.9058368048802498 -0.30858706955493054 -0.5980735146953854 2.248077414975578 0.5252373426200179 0.037884683649161865 0.5755624051749805 1.0578280462323355 -1.9360830731163126 0.06881948832183153 0.21115856368704475 33.43939221302471
-0.6461618077639089 1.0484136076148163 -1.80173985301204 0.17710186102650666 1.214550267424527 0.8713786025534322 0.5278411248872203 -0.6798671278277462 0.2430055171884132 -0.631103165444079 -1.7909360623298831 -0.7993195486649637 0.4627323190349251 0.9668897979466483 0.38437659601705876 0.8703420927295451 1.3736262065025597 0.5079255870112499 0.7986004976945198 1.0910970017803234 82.40000250085546
1.5715125209243932 -0.2916274712046732 0.48618010256480015 0.6685866140652045 -0.5517756854633067 -0.783209383782835 0.3073512823194532 1.2697123920398052 0.933413753530459 1.2282381843171448 0.1939288833072566 -0.9066811464298088 0.5022538441642539 0.8320677192103557 0.29442878670466216 -0.3552371410984399 1.057180347010087 -0.7076061177839336 -0.3432831494785273 -0.34892709322878107 29.222316355917297
-1.1251057012225498 0.7128661685648953 0.1618819192150439 -2.3932926920812716 2.5480122763383957 -0.7743942735766727 -0.19194319959525585 0.1359997468882669 -0.45803584513655965 0.08605734147672851 1.6602147993925283 -0.18440305356341957 -2.136669015102705 0.915374263895335 -1.9893064468987516 0.7901825811911978 1.5205843287462097 -0.8855669424568304 0.7630872836165399 0.8712054735637026 22.085529883375933
-0.31537465064087916 -1.2558584016841525 -2.131741031485273 -0.028395292384010402 1.210607485313213 -1.384941461265819 -1.8061152357769923 -1.2123328964303675 -1.2256836263826925 0.6770791675172616 0.3466132642839322 -0.7185168732522771 1.1750508376660767 1.2794459365523052 -1.48714735674784 -1.007769279085394 2.4312499060117774 -1.9475419567982049 0.8788324196207196 -0.8029940482899249 -40.67696591325864
-1.0398570664350986 0.16389258066192813 0.027859731574239127 0.7990808037058047 0.07878542854208886 1.2084944852129735 -1.2828692219035274 -0.12453912084574538 -0.5295090932962323 -1.1387195102850192 -0.06570672414987609 -1.7681950555664365 -0.6221195402093195 0.12238189699898275 1.2490371385300951 -0.9897556427754208 0.6470508141516897 1.2875379197208605 -0.4551210802695855 1.2774019600900897 8.794165551023617
-1.0581695890019782 0.67725265080877 -0.20218982762563434 -0.32114133512785586 -0.14409610697137196 1.4173176363255735 -0.8792748576388113 -2.069885241927224 0.5429165925370741 0.32063800950421284 0.47029620631621727 -1.057125375346804 -0.378041977485308 0.5429172974105696 -0.008387941151179426 0.0024655189278932972 0.7531777567526842 -1.496317886529307 -1.3162528588087112 -0.5539928492289378 -65.19471951557954
2.206464978680144 0.8280249791726254 1.0106341263346332 -0.09902299377930113 1.0326185894749345 1.1159481755160907 -0.7880582654004534 1.147975651890852 -0.002392782654613194 -0.6919533768876297 0.9945091276763464 1.122000513720158 0.2005355394006735 0.202915169735767 -0.839397551860002 -0.3642783232246797 0.9273552813071411 1.6847755225037697 -1.6760239779406103 -0.31508174402506395 34.22109363416142
0.9087893944703683 1.097348648149459 -1.718418415946956 0.24267825806324933 0.7228009057921787 0.2777844305278343 -1.9174183905069597 0.2513054280285126 -1.2078666729332994 0.49355636859714136 0.3039401591403981 -0.09065289369376725 0.7086622369417584 0.38853265387297137 -0.5281465088741412 0.0525096788785895 -0.5736797683702723 -0.5142502918615592 0.183666807822385 -0.6170162623889693 -31.372156664496075
0.08677047825190538 0.9713324028549273 -0.6769663355663337 1.0797092861708166 1.1660675414705521 -0.2107775656017413 -0.43533476928798664 1.2286410578172473 0.9157581525595077 0.6144069235053878 -0.2387922926561462 0.6044541191702751 0.5268181025059306 0.5823374266718684 0.4847601386138661 0.8688408167092635 -1.5595697597729392 0.22162134346909834 0.510616196808748 0.12323368927204018 59.537629763800176
0.027538106452515008 -0.7126744319623918 0.3900100783266076 -0.8802478109435178 -1.6031345934466328 -0.09571566703824431 -0.895341543839501 0.33860083801759777 -0.14089631409006015 0.8673365106635221 2.7216803135503693 1.238137527924798 0.10780407298832445 1.043822352000689 0.1033329687093768 -0.97023588150129 -1.0910698897648023 2.413005881620881 0.7515782703723479 -0.5736920092288206 65.9160396035566
0.7639324595241421 -0.7834482322001601 -0.37309783109956823 0.6205517752628099 -1.1278872220101606 -0.6366495135034211 0.46070201123663296 -1.1358970457552544 -0.08720946047718324 0.5093758128135377 -0.0488611864122037 0.5094891431416758 -0.8443041834962484 0.3035179697919734 -0.2730039075785262 -0.2850102136035049 -0.9853907250909182 -0.31833050933355 -0.7063278477318616 1.2975541932574974 -30.826453943863562
0.6702403350562454 -0.6879872647791689 0.03532091851836842 -1.1865531048295752 -0.40208014519190993 1.042170519358156 1.4957878778518812 0.3603585362359787 -0.16475028898230076 -1.7309186183610197 1.5528033137809039 1.2402873479699261 0.7101828687702885 2.6722008500395096 0.2073346605397102 -0.9166318827855292 -2.7859767360609693 1.03427047600198 -1.66674085551785 -1.183255192167448 -23.44044813058224
-1.1559389995772456 1.3095306973874414 -0.9728075461357956 1.7097627488037426 0.2597462217219191 0.27218992144802895 1.5870753894080847 0.4566435286521994 2.099655836409106 0.7188527270078758 -0.07945032502108049 1.1525276766684427 -0.44341149691808934 -0.338137497873804 0.377021688633729 0.37542610647559654 -0.2927451879065231 -0.12938665697046584 0.03014435916341635 -0.3651588891222362 48.73001011207738
-0.3074218206030425 0.6339700315895899 0.3241239470029641 -2.131628691245418 -0.08151047367760893 -1.2643083263825863 0.3421744085952672 -0.00012138099080589753 -0.9752325922680031 -0.32678075275294005 -0.9700598122092168 -0.1599236302326632 -0.48829364396958214 -0.11976538544902743 -0.40076641869461715 -0.3652994650853951 1.0004375709890851 1.039400085781612 -0.0679826692743351 1.182708194234244 1.5999806210669796
-0.2214118505636699 0.8750193865823999 -0.18140201779219936 -0.8516747583764601 0.20339238932175516 -1.378035873125768 -0.6211322004874453 0.6055759512057588 -0.31172726797317285 1.415245528622401 -1.69827920944771 0.43264807358465857 0.6764383238810745 1.2854716485232665 1.050847561277404 0.28209924937345476 -0.13549750017688997 -1.7916889470834603 -1.4870916094207494 0.3735657750832688 -17.386728596742405
-0.04353163030043381 -1.9000833775276054 1.0892625810416583 1.2608099067969263 -0.9783434985942265 0.6008358099140734 -2.774099000446127 1.3831694040588705 -0.6486919398889365 1.7816125231380768 0.8356821159744305 2.1093828831213535 -1.0371572377989997 0.4479524414078877 -1.339718666300432 0.2725675509777681 1.0234882202789333 0.23757226627130473 1.0294440291606706 -0.680780370723141 44.50264686806813
0.9907942500079496 0.8796899586274622 2.1610573146323113 0.0705334602584502 1.3984396000635282 -0.00896438370187171 -0.10131997486973912 -1.070155828628885 0.44394600882216534 -0.3809120421292446 -0.21619200002293748 -0.5646084998290395 -1.3320382563924242 0.3409285425290978 0.7206938751209877 -0.9492742704833614 0.5214295140737165 0.18517408847654193 -0.31021962351719584 0.22392622781162655 -8.789204215826743
0.5185644393834125 1.3297510560438883 1.1149987791257818 0.8846028048088614 0.2248045091627472 -0.6875648166736066 -0.19491215893009822 0.7150600074654981 -0.5924205437926433 1.472843389587846 0.019336849441807365 0.4218038941394317 0.7424123305458081 -0.7252467452602461 -0.865671603644216 -2.593791945516343 1.250638953325209 -0.09981552618216417 0.5853076146065207 0.905615892180659 19.96709353201329
0.4019454511379456 -1.190949758718627 0.6886746530252091 -1.29506853097353 -0.26214943221967757 0.6619584647523612 -1.3696715702073734 1.8528160501271278 -0.7580140177704685 0.5444137446045553 0.03962523105057781 -1.5809492189972953 -1.5003965831831396 0.13306888520801283 -0.770496541719506 -0.15541757975438875 0.4731662681338383 0.5856288141358005 -2.182862448670435 0.4972087732905126 -61.13390611812948
-0.6456394091844263 0.043457472476359046 -1.1159009854229147 0.29278248635089393 -0.8413643340281245 0.2987875116095493 -0.09720098577054267 -0.8977271247924199 0.3924046220233768 0.7279070490182385 1.5259399318913702 1.8681817539781396 2.1800342083256017 1.3474254070566103 0.1868975295850859 0.7029549882930404 2.7693518980684355 0.10507083936653414 -1.3707424410344482 -0.17508406935669826 118.14017800825499
-1.2146776122309837 0.20705969186728226 0.21632518588915586 0.037938092342953034 0.6402337327869821 -0.936871196440352 -0.23461339215139193 -0.11971590156195185 0.4890063233206724 -0.2762846002330413 -0.10590719820037103 -0.011782307187489346 -0.8094834444775467 -2.6557741575260057 -0.9719186601000739 -1.4177646516312878 -0.5325583481391951 0.8092056752722314 -1.469225181612992 -0.038615469318148174 -114.14528221944113
0.6836825339827752 0.5749548827144058 0.9220493764425863 0.5625292246579902 1.4043233399661454 0.31445067768795837 1.9932642649277077 -2.350234798712973 -0.006340729912493052 0.2446114902012822 -0.3479553260256572 0.08999479364462537 1.8900458590866092 0.1800300679558613 -0.39054184350336785 0.19649886276521167 1.8134843586284457 -1.2738047302679898 2.5170875781746176 -0.9474789008143162 71.49520401406346
0.6366575912481564 -0.33145805675368495 1.2804309433797647 0.5712263709469733 0.4591167173441336 -0.6749571164983428 0.5621270800491872 -0.14963048872416326 0.08529595789186523 -1.5766619822174135 1.685781504028865 -0.6156393783252525 -0.14637265348092318 1.0969446627948485 -0.5097492784884664 0.455648936705518 0.5116035971620395 0.12816418118932033 0.4255580645499995 -0.27898822345158253 31.200670914582687
0.5847417415145835 -0.2898127036655001 -0.1715684833730781 -0.8429362766368615 -0.8567097283960754 0.5457220185356266 0.903630899504594 -0.1021271995813675 1.096085309631398 -0.2239787783442186 0.695486038448864 0.01188748037584705 0.7164520051460145 0.7382944703336788 0.17428395693873988 0.16034190409469185 -1.584387931852395 0.06965909246518365 -1.1432048849085659 1.6401389280882477 25.619758738003334
-1.4174202061893464 -0.6584260025641248 0.2859197511727102 -0.5040304508854297 -0.1471172092666719 -1.35343999592996 0.3587043861439538 1.3161341655487995 -1.767586492098826 -0.055307772016837724 -0.5784212118949981 -0.3482260161128437 0.6610800475800014 -0.4752128877322329 -0.260184603350795 0.2964402723361641 -0.36352320621200934 -0.08076481702910164 -0.22528851417762938 -1.4003371897082006 -62.626475096391374
1.1872836283255352 -0.36029559095471675 -0.5565359815186238 -0.452657610059738 2.934243004114626 0.3512393707944277 -1.235146121178269 1.5648502615467628 0.5929586210472505 -0.9576851482330565 -0.751679112223859 -1.0463234474466743 -1.1793691055994346 -0.8241873279386813 0.05260191174428274 -0.40483724495148327 0.5303186861275001 1.8656627718973389 -0.15723487397359917 -0.4979013179570234 -9.81891976392704
-1.129102855633024 -2.258352415301534 -0.4092751319596917 0.3921260706747413 1.2182960372424754 -0.05162140489162452 -0.01853829837428497 0.5026178105821462 0.5107981269674241 0.16689532808610433 0.43600861451867834 0.2590267817228987 0.7920653278106011 -0.30212900038613083 -0.7462941616068125 -0.12146519907766716 -0.8612964794095188 0.8365477509346428 -1.2155590657634452 1.400330796398859 19.844912803906332
-0.2539744309183522 -0.7573665442180049 -0.30716411323225606 -0.9005689016459105 -1.935822809443545 1.075766524015505 -0.4367450833189044 -0.7147406455457512 -0.40579090846677635 -0.032655409501069085 -0.8386805685740738 -0.4748525846405198 -0.8116590725263234 0.783587365881542 -0.7581073035454254 1.566242355899581 0.8489128257884061 0.04504093437424628 -0.29981697250839107 1.6763943361399494 21.828985091592383
-0.29088022234353667 -0.3701590785897732 -2.096364172124773 -0.05019947726490272 1.2878882900629984 0.9257718355924308 0.2686187180350681 -0.5366681249324726 0.6042595007398582 2.189034804960832 0.11517928022562868 -1.3012156196598421 0.7177367596339891 1.4295481721723633 -0.11122726016142523 -0.6975753053235412 0.45581738582111003 0.6992102824341981 0.09815282610630006 1.194324436601 78.53516629184647
-0.7515375445990857 -0.8477344444537489 -0.47306757915980124 -0.6453665214260159 -1.3909914905040355 2.048807185983184 1.6929819100738164 1.1856066749842706 -0.2279028571144409 1.4582643980042789 0.8345438418610814 -1.4898631317130708 -0.6633537033724207 -0.20100020277268532 -0.44457073190445434 -0.23888672282037463 -1.203809357239319 0.8525487740149552 1.1677566384067015 0.6584251267895256 31.846004168270223
0.32223625159953656 1.550395265873119 -0.012901202312169492 1.7047397149967858 -1.9454212272640572 -0.5225838703294676 0.6830760354241869 0.2725602844526694 0.10061315200996702 -0.23374298414410186 -0.5790322912104197 0.6800728557484343 1.251313527801398 0.8394904267071657 -0.919637931815233 0.8709059457482278 -0.601416632431976 0.8051234381699076 1.2916551862432888 -0.6552152721592369 48.58140381533816
-1.0104161495264663 -0.16787650004867946 -1.4839775050713135 -1.1860881720849519 -0.12356463640527439 0.32118104199100983 -0.4859712975962257 -0.9122614727842463 -1.0450878610679375 -0.3352520369240205 1.7827078934315428 0.12399819597389045 -0.087632119301353 -1.4410900308960006 -0.4151916248224132 -0.6635521914107073 -0.6520557806266671 2.8084262710089596 1.3330574968697781 0.7759554808246032 30.889615132042355
-0.2897875386438939 1.2739596352443394 -0.8210638887639243 0.2847342104508699 1.6757889109741029 -1.4964807889776315 -1.218726258243318 -1.0971094533621366 -0.912845712818407 -0.4212098841683062 -0.3575182663498956 -0.9659067649408227 -0.2553023143709657 0.32795840109757585 -0.09010536972421986 -1.3380488694897195 -1.1537131216543748 0.7687089922346036 -0.2688866989439515 0.7012802593362293 -62.86671380905405
0.03315862969733422 1.9815312120066093 1.469167793420547 -0.06548560798103796 -1.51202713910876 -0.7583375998657461 0.24562697752304863 -1.2469699471814504 0.986029772110232 -0.5051081714984446 -0.8251047708633148 -0.3518345697805861 -0.2815456868037206 -0.7295810994506678 -1.4559266507589408 0.5868519154194648 -0.7738816273063835 -1.271712748170357 0.7124354682976934 -1.9150012456345566 -109.56403633433573
1.6647330681119472 0.5619674396137061 1.6942401137562273 0.6314559882669296 0.3435965689817349 -0.4095272182559418 -0.04983954300241972 -0.11348432407187839 -0.22302854426661517 -0.16766439358456625 -0.09726503448287768 0.3162625011715428 0.2005272961819588 0.43877556672737533 -0.35345080838045545 -0.6519472467250151 1.0240599814823412 1.2058319293762445 0.8601212631411027 1.0524376632257475 74.71854282152401
0.7378630686138591 1.5310322081191088 -0.16746644447672598 0.5339143966918717 -1.0502150318725822 -1.9087182813567463 -2.0870921399324693 -0.043353799226153955 -2.9118357048333126 0.26546073440500656 0.569739518259398 0.6317178566049202 -1.679440337886535 0.8552578179782591 0.34443693612169585 -0.2831620274325166 -0.16605208689841092 -0.9880755988238782 0.9121800266508212 0.3292249307138185 -41.19015029371333
-0.7556135624473455 -1.1576538756106391 -0.2998344499866884 -0.8153354252145053 -0.9100605102522513 1.3891000644400335 -0.2664247759149746 -0.35366918191298724 1.136254200272964 1.1100423843351641 -0.6074236212724509 0.7147435519087224 0.04881967911102552 0.19111151749557934 1.4632522046037522 1.1750398306428447 -1.1172552684852648 -2.111981749068032 -1.4224760578114943 -2.0093648674317754 -65.24132366169569
0.4512123932509107 0.45288030923456296 -0.22667684760978507 -1.030720268895438 0.20694335152203183 -1.189092689829725 0.4200039368696466 -0.6183249897924353 -1.2534898645317494 0.9761386928678418 0.7280660607866194 -0.6580464709057766 -1.460083092342968 1.41925732938887 0.48280277191514714 1.0978033140016978 0.29945963156200556 0.9570884324168752 -1.3169618095156832 1.334199703378196 35.141421272518784
-0.10180541857543088 0.9783121580939355 1.6099808512565634 -0.9734567816626111 -0.2836057095908724 0.9524390341613865 0.3768463543425756 -0.32656957422168087 0.988870272636222 0.5545993440693883 -0.265648823554397 -1.24688916118781 -0.023397243557756967 -2.000637629934416 0.27851781428383315 0.17515003835762163 -0.15938735937742943 -0.7232103088132101 0.053114587733731816 0.16303098115544268 -29.689916090365372
0.1658289808988345 -0.2367557717873652 -1.555231851645505 0.2960030105775708 -2.222417756858734 -0.23418244328692683 1.3879343567241482 0.372726917931211 0.13044014050184066 -0.03749690314272609 -0.008065684436734803 -0.4742735188659367 -1.2153628600425452 -0.30938714765075437 -1.4590227067123367 -0.693066978824069 0.29048555538025367 0.030770607980017607 -0.6495498296913876 0.13397822105414653 -65.69605477415183
1.9456927804750248 -0.6397169148642964 -0.45580838170907195 -0.04589352597707152 -0.3505938958374347 2.5428356726743506 -0.29363274445688253 -0.5550733557980022 -1.052833258711745 0.4007259816561027 1.3778374541703915 0.5018186246232665 0.36020686977151706 -0.48466309061202584 -0.9408975221113942 1.4015107619336074 -0.596909359059325 0.3048523266602941 -1.04290908266566 -0.8939647412540414 -13.676083826771322
-0.7554065919307931 0.4688873708788282 -0.863274433879145 -1.2182152671471584 -0.23938871217177185 -1.4560142911486118 0.45538831909969774 1.1187398884860928 0.15882998524556993 0.08795637523616884 -0.5571262140931034 0.9913585423206477 0.4579562274284645 1.9593144354076466 -0.4780004409598559 -1.5301618205784848 0.8922375078948643 -0.5343166853369296 1.1292321084981911 -1.7604648633422022 -3.8861628805792705
-0.6640771081430532 1.428049409175821 -0.10821171194056693 -0.2597286140377271 0.05928661104052634 0.4622081447816071 1.33784987944291 1.2517324074507898 0.07863950127908352 0.1809920673934335 0.00826688518268613 1.482130866440119 -0.10543021633091518 0.36850158922896675 -1.1750383640143307 0.8026277168749318 1.168757489234178 0.7805620864345193 -0.4132257085578657 0.8537588102159259 86.77491674028684
0.1949133022566587 0.9993562491861527 -0.19629840727545195 0.41112375121114575 -0.7833752337221375 -1.1263616542440382 1.2037626899533953 -2.4042340377117815 -1.087470397405067 -1.8382617703821682 -1.0460258574529004 1.6528226697264623 0.18233029077083562 0.7582908556909093 -0.697030950829665 0.11617017923005918 0.763496078947228 0.9355024840067158 -1.1076166287466525 0.48951817050715013 -15.349121301064232
0.7049267551355455 -0.035898438584155194 -0.6406604165969932 1.34558463567011 0.6982604750174696 1.934974443485857 -0.34879642621648516 0.3723083723101737 -0.34278754061883276 -0.0496293734797734 0.9180508257851402 2.013590000737806 0.12473389352147969 -0.1490467274420813 0.7478591393362647 -0.57903461778428 0.48624406343832677 0.65730484343663 0.1568538973127234 -0.364355708218243 67.77027471021032
0.6841812813745082 0.7690498228565308 1.3101387721063833 -0.8120662948482381 0.16024828803691515 -0.6798819726465113 0.9772317066519614 0.10680042730974797 -0.5471960726867204 -1.2108507714186596 -0.9173177240273004 -0.5838025414426835 -0.8556669112793261 1.521483720934321 0.4741770945496173 -0.29107742576229617 -0.3335696973215037 -0.772804823297398 -0.29281128524950056 0.8302069840305931 -24.85469415282172
-0.9515440572156041 -0.12732307243296287 -1.246847240487905 -2.223794321801732 0.8288366369491516 -1.9253449983431217 0.44090674506723904 -1.2234515705047355 1.0888707412308534 -0.3520728494012732 -1.0094539601852297 -0.752332642590162 0.3928166601430061 0.09083106712501356 0.26593220011213814 -0.052657536673181474 0.928243727736356 -1.4648637718998925 0.9004196758715044 0.2996183739036255 -20.172411716567332
-0.0963204555784478 -0.879306104936363 -0.22198133624968466 0.9567265924299971 0.0992523570442831 -0.8033466082916401 0.6665016525740131 -2.026483875478064 -1.0973948784769054 -0.2733413710247496 -1.2552348213482483 0.001926798206623657 0.5104577151986468 -0.007991496528155596 0.025708772848541565 -1.25963701837036 0.24211050448006008 -0.9008137459658035 -0.9106482065216738 1.1810662128288503 -60.3545735467984
0.5967095404151526 0.9197479784660959 -1.3382195235345207 0.22064332786130814 -1.1716568356945423 0.08140192022992818 -0.5144626283058371 0.4088209641907466 0.583570953332502 0.46880843398041067 -0.7410359452749118 1.3386664392445289 -0.68957410107381 -1.3681101558713484 0.9555181006332837 1.862729308719303 0.5055554042995157 2.648292996037259 -0.4696262008495125 -1.3346118170045558 47.544500036860086
-0.3510704317637264 -1.061729339630845 0.3108354040583184 -1.5055618148375465 0.7680524279963801 0.2860148833027146 0.8786969416771698 -0.09386017156017634 -0.7421963270279179 -0.2376061774598344 0.24565731851683473 0.9322794805955298 0.08722403233412905 1.4887895889040028 1.1678624144523404 0.4117867042396106 -2.372828816221879 -0.21142159712194103 -0.45801869293215836 -1.2355770116956817 -23.142269897264892
1.2332991195134773 1.2907808794726947 1.3578268464437748 -2.254810093467245 0.16761928653061653 0.01940389916241925 0.8683240685572748 0.3462088687583325 0.9077601305277633 -1.3397105316517337 -0.0011436208601117949 0.7442289395270282 -0.09822062798414995 0.7462353774635154 -0.547126022806361 0.08227471764770003 -0.655715597081114 -0.9798986846490041 -0.7936046050386811 0.1423739904032422 -26.236826948453345
-0.5972330580551855 -1.4211583141955026 0.9106536039320557 0.03788771641111361 1.1278434639696902 -0.4475797708394021 0.2174380368590143 -1.129991437917399 0.30021397018357254 -0.23438983804604568 0.1596004066870343 -0.10537474637214576 0.04009664203473707 0.769626916784703 -0.1273586642532579 1.0850193478019827 1.281881440088384 1.643749189245199 1.11394748233491 -0.06618688634636281 94.16152219722235
-2.1419802707770383 0.14481979181260188 1.3464678877952323 -2.489096861629031 -1.3711901096288044 -1.1877421232504934 1.8412770917659183 1.3255612521625557 1.1244552651270132 -0.46451476782993223 -1.0975274227469585 -0.7303844516983108 -0.7924893894439926 0.7168178774211104 -0.944409051626975 -1.0166897161297326 0.867633372728103 1.0928217392632025 0.155384154149756 1.4331150731619837 20.698550407922767
-0.8226449744740862 0.14015778900442513 0.5395784838107813 0.4463468065021136 -0.18304231362621265 -1.584478934097847 -0.6189164771597531 0.2880608639262837 0.028675594340852584 -2.729581181487313 -0.29756717167613095 -1.4310431162755743 -0.741399063181244 -1.1291158467301972 -0.39241958134155147 1.3063601033118437 -1.1911240843060364 0.6023945164486953 0.5897828510910113 2.1103523474705743 -22.063450228893423
-1.0757813606156155 1.4400155620790467 -0.5589024104831056 -0.2957570574047493 0.8864147790884517 -0.331291417621054 -0.3084957142894237 0.7019101292883276 0.15803075160087662 0.39727646706208364 0.07673475833307847 1.780167417514938 -0.40005424692180674 1.2204783709705673 -2.91203318766403 0.08103105159052633 -0.6917485046004532 -1.1179652934823208 -0.3078516881803659 -1.1704176877443782 -56.88988964309026
0.6346968530913911 -0.7427029384940883 0.42966947858517296 0.8128546553303913 0.4921750212432367 0.05357888078200235 -0.1363559469114262 0.9396479863276154 0.6484898018939796 -0.38392680291677 1.1748742308011741 2.2919800835912985 -0.43976662154140517 -0.6765843151104759 0.6789767516085519 -0.680460492398038 0.1417795393127508 0.8369140968291866 -0.14892130817736338 -0.16092529269615544 49.08427925146009
0.9690131484408054 -0.8019249357078359 0.33720848405072523 -1.6828957282413652 -0.19952845780631132 -0.2725465229435959 0.5254449792360341 -1.9721955834829525 0.010992709752507789 -0.40549187073244897 -0.7585979868576234 -0.7610891948571895 -0.08556800610670923 -0.9288994547597905 -1.4476963066839552 0.6567481569698471 -0.6410410773956332 -0.1838504587956021 -0.38247860006834283 0.9495615972940435 -71.94782911898425
-0.2654610581094915 0.29682587322232723 0.16305658150431973 -0.3516674961421951 1.0774185216241894 0.1385003688789872 -0.8780589875722081 -1.0840555327638401 -0.6313548129696195 -1.0006483104951647 0.23018631394501377 -0.9549167573595315 0.0873354152455793 0.9577539808219439 0.7146773539899255 0.9320905433897275 -1.5667898256240855 0.5511931330807135 -1.195138021183158 -0.6590020936260803 -45.88239349899905
0.9151608165675554 -0.551066390650057 1.2071179644245889 -1.3831477385685054 -0.33273596515252984 1.0735399562094217 0.3421607537908163 0.1047460555031549 -1.0227877741791427 -0.5688604573304346 0.4755386095344682 -0.3232730085877035 0.7728482464590497 0.6729762095050557 -2.8147244446407087 -0.3162042160381111 0.5984226100166671 0.13699329077565378 -1.342084181756261 -0.3191283680860511 -52.998578039255186
-0.4279439655750743 1.691275685397443 1.7160272701594799 0.48070193792972915 -0.05180967769111509 0.0034128744857031966 0.059931513605801075 -0.2776342371225855 -0.09539010222708985 -0.07860626166714801 1.1076404608434007 1.4074778754582749 0.8293707876425401 0.24500146582602672 -0.8509238478526637 0.276870509178981 0.10109497614447423 0.010512097902900495 -0.695558232430072 -0.0818985071980808 28.992276980757133
-1.9641146335025834 1.5595992429159657 0.7917498664807424 0.03958722155850442 -1.2042673950616196 0.02533642485370452 0.2344416641451837 0.4556316964572349 0.28812942272332404 0.6099031038923775 0.007351722685492335 1.8842704182207732 -1.0135511528076546 0.08518255722218629 0.3457884686720994 0.0013538939040624923 0.35620722924512593 -0.514750972893292 -0.14764300402188532 -1.063970859468067 -0.9139315602519176
-0.22361348279028628 0.030158232354032376 0.7807966698603043 -0.8108289230046564 -1.846642353474951 -0.6326896454577975 -1.2468699938873997 1.0823052254829755 0.9003564455155427 0.6866252482625195 -0.8493817076702089 -2.647373678580245 -0.2108229868006456 -0.22217368046371094 1.3590127664379479 -0.48597165012903837 -0.03491648519871208 -1.1859542667866092 -0.4898638613515217 0.2874631361241495 -57.38314672890204
0.6515218090817829 0.21704797541938736 -0.5099536620654347 -0.5088295825510305 1.3515944372909512 0.3087988418423932 -0.3974756424287974 -0.2717458493979593 2.5853196049167755 0.42074412946039946 1.7588366145796706 -0.9234072336897565 -0.8443904748268909 0.07980051692774964 -0.7173364275010136 -0.6696587473748385 0.19915361285924815 -1.4492306907051729 -0.1285733029891286 0.40927536438811024 -10.55285931168106
1.1186002316925068 -0.48920954853272736 -1.069538819354433 0.9790628519013107 0.8287848967210392 -0.7512977428484181 0.6494941447204096 -0.19006872566188265 -1.765739588108621 0.4914925696494667 0.03711818018239674 1.110711586185455 0.7719688580378866 -0.4480983973549665 -0.3082284442504083 0.5800378276809782 -0.4372429029653953 0.20645649300608995 0.8906732887529507 1.4836433883873985 57.56998847850609
-1.6901639977248957 0.5739564468025472 0.6793586181525105 1.8734980092518119 -0.743880335619075 0.7244553763849152 1.432494273839336 0.9407090346767966 0.9484749399314335 -0.136215541497207 1.2007924281665188 -0.39455983053839494 -0.5920183596342801 0.34329683291706287 -0.037941516136123725 -0.5218873059113567 -0.014243415253236254 1.8925294581761898 -1.5362465780385992 -1.356184188297295 5.83690469697914
-0.5426763406953938 -0.791919724754217 -0.6458281187851208 0.44973094032008004 1.413391497676748 1.4505711215017756 1.6634514577813857 0.9216744643869325 -0.41985426355372435 -0.8089741013843581 1.6919324355120129 0.6530813882773521 1.1622133269432418 0.18359546896228032 1.1783771108892318 0.5323025699337328 0.057871982835946696 -0.2192839645340789 0.601016009110703 0.018654876252384843 99.30116321697504
-0.6436779140242866 2.1936432107480597 -0.022847461623321737 -0.3339377636408106 -1.0206838115833499 0.2595446342886357 0.35229382121417635 0.46972401828783383 0.753638125299583 0.678490441488902 -1.0305652260954095 -0.2113396045215151 1.7129583977157077 0.3184108656083009 -0.3767912938913634 0.0413881143298096 -0.7047336371174687 1.9931041879438176 1.0175494354194228 0.5996784567768855 83.23779018119431
0.763900087225667 0.2412972449700968 -0.29988926558869466 -0.08871402705043133 -0.5722735426403237 0.4285434857846835 -0.3764039645566066 0.26696785617195157 -2.769215736244294 0.23645949283803477 -1.6716579596951182 0.9445907163087115 0.6384751492397561 -0.23585776125213137 -1.8118737550047406 0.9392685196627517 -0.775559951876872 -1.1965721661625162 -0.7192607571853751 -1.22519532340786 -110.62878139323813
-0.42975590104755923 -0.8225742771517757 0.4004285029082066 -0.20462239422397893 0.7748679014256328 0.31654119394792135 0.5140310221266581 0.5322117552130319 -1.3492515299269694 2.2221235393940004 0.9118327648039873 0.6983273303756775 -0.3109233423832929 0.9732173558455482 -0.15307211216288436 0.0032294583779868304 -0.01399657821930155 -0.8419508026637446 -1.5283306111211958 1.1617182215770732 28.035579859394957
-1.9532199139202586 0.21203910275841822 -1.716939157121756 0.15952946310041913 0.9522457107284771 1.4880677490803977 -0.7052012782806578 0.9505089708026899 -2.1584168203464835 -1.1696111455587557 1.614547656004659 -0.22376956395080336 0.4275725465150276 1.135639350045489 0.5410808141065959 -0.6746254916338038 -0.0909298276790368 -1.2144463582694345 -2.030565659411881 1.2666424590982641 -24.153960444762053
1.1178573654446715 -0.25046512297174794 -0.3524057487503108 -1.282847602831508 0.1745983304470497 -0.9039549411278331 -0.5472817133589453 0.018091021121453936 -0.6648101673316505 0.8456976458078947 -0.3220983236009534 0.1753180417009584 -0.7440570020384145 0.966943554899988 -0.8236134410646588 -0.5911012502149185 1.4531781704091722 -0.4048617144969535 0.24539817104738318 0.4836556632826332 1.2595461132099075
-0.6661523830550408 -0.5301909929968612 0.9557708797790502 0.625327299400964 -0.35734111517991096 -0.2777141357469638 0.12334058199552474 -0.10938838616714919 0.3801916481253259 -0.2207930971625751 -0.5273949751258566 -0.9000112733143103 0.006174618774368898 1.403107803707027 1.2833136234272822 0.7740705517349371 -1.6195814595440845 -0.0461005958945074 -1.5434680932932217 0.3416180810398062 -14.068265997180582
0.0017537098152853826 0.5970078734749867 0.40505855630587007 0.8452950915908877 1.0604435735521027 -0.5652635862992963 0.7706610952177513 0.47933526339155363 -0.4764364863039093 -0.33767640646341396 -0.47298228536452536 -0.3260301979833226 -1.0518132085292302 -0.4788659147016785 -2.1130099735623333 -0.3176899483340011 -1.1995136434536204 1.1488903341957948 2.5078632029869055 0.022639942121347224 -7.15828623661445
0.2105717932343227 0.4103718399110475 -2.1393608475077595 3.096497053675775 -0.7850747378402867 -0.17778196755957876 1.0040836324491764 -1.8129349264658297 -0.25817781102110715 0.2090573329044534 0.14489355565809514 0.061846280895993734 1.4851514310939722 -0.02651365078916983 -1.867617407859498 -1.465421174512724 0.8919687055257648 -1.6275166238193346 -0.3349238182535673 0.44198968649479653 -49.02858548318581
-0.1435757187464669 0.3122821199400696 1.9010827547474785 0.08826840401851806 -0.6888771122145986 0.45470302143161173 0.5797804103921856 0.5652719816244195 -0.6442322232829111 0.05848777538323574 -0.5870197294342159 -2.1984156287176617 -0.3858013238384511 0.1476562347691374 -0.022426054996610847 -0.027008003314086933 -1.061753096276713 -1.6470466101798704 2.2871031768945054 -0.06660048765049163 -33.21696761280463
-1.6640699809678585 0.45468463337951326 0.6871709170941716 0.8885161551263361 0.37509370317523894 -0.7334651329495304 0.3438619857642142 0.9278097943804129 -0.6994431584631992 -0.3277046355816081 0.446244678354319 0.9447256423856868 -0.35378562477991116 -1.1735701047958829 -0.9549028694381998 -1.0835266813636653 -0.2429699889281494 -0.17932433160488379 -1.3795555940322173 -0.12342787111946472 -70.59238473334645
-0.4454211799198426 0.39695829891922585 -1.412983834968771 -0.37748964938283674 0.07750360540484842 0.6647499694148944 1.8428682388772306 1.2755297816444484 0.7025584570570478 0.14700405866279498 0.8382089242144725 -1.165086113907526 1.031248820356368 0.8396676924424908 -1.7892307285283882 -0.23335880071668652 0.40208848982423945 -1.2598710745337673 -0.8535397725377544 0.6826254298908231 2.6547679754095324
0.4091066527351938 0.5926767598149442 -0.8768513901930601 2.0996015348114936 -1.4237770990547716 -1.1015914382844572 0.9851424281503971 -0.5628282829358855 -0.3840503058491109 -0.9755709184313809 -0.4286084048536356 -0.060496825167426216 0.471789174106061 0.60084781110053 0.22713042382148493 -0.9098053488327892 -0.3275302075886425 0.508291827117693 0.1690310550872429 0.12062257986426064 -9.403746142430535
0.7744569846107662 0.28838334232875884 -0.27612562312786093 -0.7625744505730356 1.12633288693584 0.11197359348218827 0.5633785188139645 1.1887236985467196 0.9684858626908316 0.44545875715187366 1.1058576087508236 1.773702706471324 0.23938846631305222 -0.0836356701693861 0.22133424478503755 -0.771714072700397 0.3043020529773176 -0.3868155394158696 0.8664477833380679 0.002564935053715039 73.7052712242359
-0.6553304994956515 -1.7968336652174368 -0.47812692804003626 1.5181950437450937 -0.4518943028666465 0.49501720673121397 -0.9676936996134181 -0.7037411758962433 0.48411405013407804 0.8216961749618473 -0.6438147575455455 1.5184001647822256 -1.2616299333513052 1.6799628128792716 -0.6544999292532042 -1.179735695351945 0.7537946880350395 0.5817921910954893 0.7535740758123275 -2.0706964107018213 -12.882024867564947
-1.07230081158967 -0.13242836033729105 0.37371215902130533 -0.5257443379004726 0.7558070210100742 -0.45407299673461454 -0.4944977672915061 -1.1459074424593525 -0.8506225520820239 -0.8942888207810938 -0.880559612758163 -1.6177051958891773 0.5510347010498918 0.8641466443191939 -0.5811668712819674 -1.6599901730392135 1.4422343588846294 1.2608779781691304 0.5973712948477139 -1.1597892100282752 -41.35405083972326
-1.4230397319583585 0.2788982732192038 1.0142242912804695 1.06685608536214 -1.5891028465105526 0.3083055596993445 -0.07831860311546632 0.9183166574484481 -0.4901346522422843 -0.2651283617222326 -0.9578011784932812 0.25762505852255446 0.7954208867903491 1.712436283689761 -0.8872278698266443 -0.05870219853577428 0.5362499842190029 0.8700806750716312 0.2462670203087472 -0.2181609521176604 37.48831670408145
-0.6442381695233832 -0.38126018586619675 1.0890894030978 -0.2725934184740763 0.7845010429434254 -0.9535668618531333 0.4750548302991321 1.2323303666113752 -2.0875189684025006 0.314061604801571 -0.7831170740856487 -0.6419052353418063 -1.0140164658157775 -1.3717653837313435 -0.8767037145616573 -1.196722615474947 -1.160051329704133 0.19939575721278444 0.6006229514373915 0.3807423305774442 -79.846996492602
0.974225396422991 1.1688950360789148 0.4667459386932499 -0.27747256158138156 -1.2512969039857729 0.29580490355299366 0.45657644888153537 0.1869994092428771 0.4129825386792198 0.37132011937912984 0.03788745305164739 -0.521875868395641 0.6848302281401933 -2.0751777377617913 -0.7331541282794323 -0.37562012139723805 0.34408486516454245 0.4863824623903319 -0.49835702673973287 -1.8682506168750515 -65.16322688053538
-1.3293836474055067 0.7262996162891103 1.1513104833596841 -0.2598418926729299 -0.5130616091608918 -0.10710470762215649 1.9276567189283724 0.7032209857404991 1.8172986977743504 0.4050630073443639 0.5758104522270752 -0.3333855680441413 -1.5597000562417178 0.6270601035021491 -1.654938538317924 0.3107494124530857 -1.0004858826257603 -0.6077334732183588 -1.6995970637841287 0.708607161898918 -34.65218424514207
0.5603996663550795 -2.0437012009192985 -0.5162398010592679 -0.7434326748146045 0.8939793297599355 0.3543308984483739 1.2175884644197146 0.7599757891190788 0.39147336044657854 -1.0153847913270662 -1.4253317246447796 -0.2596520549769432 -0.09952709163015307 1.5993396815266454 0.5303372118723501 -0.8177927814335899 -0.24672395160519586 -1.4929626744985978 1.001227251726883 -0.5171042555591037 -18.336437075489986
-2.0444682298918173 -1.3561187291190109 -1.0247420004075487 -0.5897590883513829 0.7919720683855315 0.6848216301210059 0.976190961869714 0.6991551963387004 -0.22310628046901546 0.03833178973190726 0.05333082974848271 0.2732746752337495 -0.20033276689998547 -1.4796310002918163 -0.47872057514985017 -0.7049909751818343 0.17312884145541146 -0.3852587660450598 0.5846830378131257 -1.7599549123744906 -58.519152185975436
-0.2085572429034975 1.0150055397384972 -0.8035386680735498 0.9838218095207721 0.7764983163233492 -1.7572290242793378 0.645921162302193 1.727349112132087 0.5256107582642062 -0.011703666271614347 -0.6776208839534371 -0.41187997454512487 0.5475083841146111 -1.2901997926269222 1.055888949171996 0.04329659461926652 -0.11281644580634818 -0.6989601834027817 -0.3050002922985941 -1.124214382095693 -28.786325986895484
0.04776892818341045 -0.21901952825987872 1.4443247455998813 -2.4523975034307264 1.2752100874709817 0.18114572408475807 3.1824405554550084 -0.2703045966654434 0.26263047456453187 1.133700249672311 1.8196846836599174 2.8639003436530786 -1.4465290027378848 2.9583563758863076 0.9443299776547441 0.5154217177446357 0.4998869689628676 1.0529990294016256 -1.4567296077923642 -1.2714540224422815 108.47853767184044
0.4097778788654247 -0.8269370628679742 1.8253996722818602 -0.7808757154925072 -0.7400889288725284 -0.7118740973719415 -1.0408738845878924 1.7499120848830851 0.877314514441286 0.7997287302301973 0.08706875349367363 -1.2257147982984082 -0.16174363362888988 1.2037061420945037 0.8053556388122325 0.6257495166959646 -0.5239994018666074 -1.6908846926416123 -2.3209198785585095 1.1902551819153242 -19.13276743419474
-0.2876489199250395 -0.1238331547532604 -0.11527926383998466 0.11550787980047944 0.2400352150396503 -1.5069208391709654 2.5530106266476333 0.8197480557175352 1.1307324197689648 -1.2972365338360423 1.0783066840346638 -1.3261055652513607 2.879685249761674 -0.27112459773257264 -1.205668633672234 1.5843717159069495 -1.32684403812776 0.7903065730636296 1.2174933853565455 1.361627882410685 95.01012459970049
-1.4968320657538177 1.6382991421150386 -1.431769595597456 0.10236599541004543 1.4970410534901586 -0.9980479743370773 0.3378430455932298 -0.25386919684198933 0.024473695917979276 0.5689302351592131 1.042256826150858 0.5401826599303314 -1.1257870071254945 0.32278271856747626 1.3852174734967182 0.4524639328232016 -0.5946691198295178 0.10848605900619973 -0.24067912048842788 0.5990817902646115 41.00544170717932
-0.9325216648078016 0.5283614614077589 -1.324611458126219 -0.2022045879462496 -0.047563680298849435 -0.9746380594512217 -0.6579449903301542 -1.465828682812121 -0.43236378548995147 1.0068551153022607 -2.3441145547642397 -0.4997267794458174 2.097927017407822 -1.1343733157389773 -0.3520591109179473 -0.7102715788063384 -1.5308792540184926 -0.09252175207842209 -0.34258257731924685 1.266252676160887 -68.16021661808773
